[{"speed": 1.3065670985214843, "turn_angle": 28.20638337585491, "model_weights": [[[0.05150265246629715, -0.13917937874794006, 0.03983379900455475, -0.0961502343416214, 0.12597689032554626, 0.08236675709486008, 0.009743710979819298, 0.020281566306948662, -0.1657380759716034, 0.023436924442648888, -0.03889037296175957, 0.09141206741333008, 0.023931879550218582, -0.053675033152103424, -0.009017244912683964, -0.021560944616794586, -0.0020479480735957623, 0.14887729287147522, -0.17847774922847748, -0.11862511932849884, 0.10602984577417374, -0.03598608821630478, -0.06093035638332367, -0.04458887130022049, 0.04252447187900543, 0.05519013851881027, -0.10679273307323456, -0.012689106166362762, -0.047231901437044144, 0.13913436233997345, -0.1781291514635086, -0.08183091878890991, -0.14634250104427338, 0.12078525871038437, 0.19744417071342468, 0.10884980857372284, 0.13216210901737213, -0.24599426984786987, 0.08688102662563324, -0.0030132848769426346, -0.009236535988748074, -0.08366815745830536, -0.14756318926811218, 0.045726578682661057, 0.1290537416934967, 0.12891095876693726, 0.018979547545313835, -0.05080024525523186, 0.08812975883483887, 0.1254555583000183, 0.016043785959482193, -0.0057359253987669945, -0.14164140820503235, 0.05718892812728882, 0.06764863431453705, 0.0674879401922226, 0.09079739451408386, -0.06455784291028976, 0.020137066021561623, 0.08002543449401855, 0.05028177797794342, 0.02933688834309578, -0.2505403459072113, 0.014213044196367264], [-0.00027304969262331724, 0.04622796177864075, -0.019012995064258575, 0.15590178966522217, -0.014665614813566208, -0.0755542516708374, 0.18188545107841492, -0.001267618965357542, 0.07575690001249313, -0.06478862464427948, -0.05734631046652794, 0.015887826681137085, 0.05445690453052521, -0.30457621812820435, 0.031854353845119476, 0.13105876743793488, -0.011104085482656956, 0.05886335298418999, 0.12972301244735718, -0.07044647634029388, 0.12328734248876572, 0.0031235739588737488, -0.21066559851169586, -0.06477604806423187, -0.016165558248758316, -0.06392355263233185, -0.14330735802650452, 0.09374739229679108, 0.056265655905008316, 0.032035596668720245, -0.015805650502443314, 0.044119495898485184, -0.2047385275363922, 0.12244462966918945, 0.007163574919104576, -0.03684692829847336, -0.008771572262048721, 0.07658898830413818, 0.09053050726652145, -0.030143659561872482, -0.05614674836397171, 0.04779372364282608, -0.012652644887566566, 0.09908218681812286, 0.02793319709599018, 0.07073091715574265, -0.13804420828819275, -0.21756619215011597, 0.05825282633304596, 0.03616112470626831, 0.1662282645702362, -0.026944104582071304, 0.0200338214635849, -0.06269581615924835, 0.08124829828739166, -0.010570119135081768, -0.03122025728225708, 0.012285061180591583, -0.09426042437553406, 0.010907803662121296, -0.15512874722480774, -0.09974116832017899, 0.07624901831150055, -0.05345946177840233], [-0.0712692141532898, 0.025659900158643723, -0.1202167347073555, 0.04307328909635544, 0.03262167423963547, 0.05534931644797325, 0.12541833519935608, 0.0025619189254939556, 0.01607448421418667, -0.007294198963791132, -0.13098028302192688, -0.04665255546569824, 0.12765377759933472, -0.12313985824584961, 0.13823550939559937, -0.17374858260154724, 0.17287926375865936, 0.06695069372653961, -0.183773934841156, -0.026205867528915405, -0.012227777391672134, -0.05918492376804352, -0.10330742597579956, -0.009640282019972801, 0.07224602997303009, -0.063105508685112, 0.0629906877875328, -0.18957002460956573, 0.004093483090400696, 0.10053002834320068, 0.10487206280231476, -0.18570080399513245, -0.0554218590259552, 0.129308819770813, -0.026791909709572792, 0.045428454875946045, 0.07629311829805374, 0.08338145166635513, 0.041454631835222244, 0.08728032559156418, 0.11162792146205902, 0.10591338574886322, -0.015252208337187767, 0.10333988815546036, 0.014818303287029266, -0.006739079020917416, 0.05978360027074814, -0.09445441514253616, -0.11173504590988159, -0.1512427031993866, -0.10425174236297607, 0.12613213062286377, -0.08309407532215118, -0.03318946063518524, -0.04379119351506233, 0.05388156324625015, 0.05612073838710785, -0.21621525287628174, 0.107274129986763, -0.0616421103477478, -0.025561407208442688, 0.11869127303361893, 0.18083631992340088, -0.14363683760166168], [0.01818547025322914, 0.07676762342453003, 0.00046382652362808585, -0.0948539674282074, -0.05828482657670975, -0.13224661350250244, -0.10770563781261444, 0.11038512736558914, -0.0033999416045844555, 0.06423875689506531, 0.04744499921798706, 0.06850546598434448, -0.1407378762960434, 0.16849768161773682, 0.06850211322307587, -0.08465312421321869, -0.10452616959810257, 0.004476351663470268, -0.0006240713410079479, 0.07609761506319046, -0.05721865966916084, 0.04296810179948807, 0.08165061473846436, -0.2181316614151001, -0.06341288238763809, -0.21508361399173737, -0.14246314764022827, 0.0975462794303894, 0.08172410726547241, -0.14643779397010803, 0.15590135753154755, -0.10670076310634613, 0.08339153975248337, -0.06168490648269653, -0.14890772104263306, -0.06616032868623734, 0.005131194368004799, 0.06741637736558914, -0.04888802394270897, -0.18270090222358704, 0.15679451823234558, -0.10801340639591217, -0.1454821079969406, 0.0013605608837679029, -0.07548928260803223, -0.036921966820955276, 0.26244813203811646, -0.08730542659759521, -0.07853207737207413, -0.0725225955247879, 0.12946030497550964, 0.1261325627565384, 0.0323319211602211, -0.053522560745477676, -0.05654474347829819, -0.06072695180773735, -0.21610963344573975, -0.13043230772018433, 0.011816145852208138, -0.009766459465026855, 0.11795996874570847, 0.0890134871006012, -0.0814363956451416, -0.014136005192995071], [0.030842892825603485, 0.06060691922903061, 0.028842080384492874, -0.04381324350833893, 0.09643903374671936, 0.017531514167785645, 0.07689322531223297, 0.040459878742694855, -0.026502352207899094, 0.04458107054233551, -0.0656408965587616, 0.06730516999959946, -0.012147651053965092, 0.05602007359266281, -0.07240831851959229, -0.028264371678233147, 0.14441069960594177, -0.09710419923067093, -0.07251164317131042, 0.023494631052017212, 0.1340646892786026, 0.0006074587581679225, -0.050472043454647064, 0.026086384430527687, -0.09592363238334656, -0.11195410788059235, -0.021392932161688805, 0.15296734869480133, -0.08378006517887115, 0.20463304221630096, 0.06383545696735382, -0.07779744267463684, 0.17105898261070251, 0.022565558552742004, -0.06086022034287453, 0.08209012448787689, -0.20474429428577423, -0.20462025701999664, -0.05190083384513855, -0.11297303438186646, 0.08360818773508072, -0.05096311867237091, 0.0223400816321373, 0.01109110377728939, -0.026105286553502083, -0.08010071516036987, 0.050259001553058624, -0.024715609848499298, -0.11744949966669083, 0.059655189514160156, 0.09219557046890259, 0.09842117130756378, -0.09057322144508362, 0.041573770344257355, 0.11791829019784927, 0.17258237302303314, -0.009686998091638088, 0.03510734438896179, 0.009531375020742416, 0.057486094534397125, -0.03720106929540634, 0.18022263050079346, 0.07087329030036926, -0.17289379239082336], [0.021655958145856857, -0.12045084685087204, -0.02207435667514801, -0.152784064412117, 0.04557739198207855, 0.14471592009067535, 0.028110839426517487, -0.02374967932701111, -0.041764579713344574, 0.10195385664701462, -0.19981935620307922, -0.04193251579999924, 0.019377179443836212, 0.11417204141616821, -0.12509505450725555, -0.05210265517234802, 0.01995665952563286, -0.1999746561050415, 0.11312340199947357, -0.052730001509189606, -0.016234993934631348, 0.10217443108558655, 0.03679179027676582, -0.1596120148897171, 0.21423733234405518, 0.08673350512981415, -0.06597918272018433, -0.0063932714983820915, -0.04499354586005211, 0.10829221457242966, 0.03199351578950882, -0.08983166515827179, 0.011623375117778778, -0.10212978720664978, 0.051570162177085876, 0.13978563249111176, 0.035643093287944794, -0.02374430000782013, -0.03369590640068054, -0.06783272325992584, 0.12011425197124481, -0.024216078221797943, -0.1631879210472107, 0.06898045539855957, -0.09256605058908463, 0.04060923308134079, -0.052767135202884674, -0.13535913825035095, -0.04870423674583435, -0.049847714602947235, -0.06832494586706161, -0.02827669307589531, -0.13239258527755737, 0.1761336624622345, 0.06962987035512924, -0.12826697528362274, 0.04868176579475403, 0.01999044232070446, 0.001984722213819623, 0.08580492436885834, 0.28655532002449036, 0.1288156509399414, -0.08189713954925537, 0.014473329298198223], [-0.09994076192378998, 0.007280018180608749, 0.051809147000312805, 0.04474547877907753, 0.04761745035648346, 0.0012845301534980536, 0.05206231772899628, -0.05886157602071762, -0.02618284523487091, -0.08624253422021866, 0.04050450772047043, -0.16509628295898438, 0.055203258991241455, -0.11628876626491547, 0.14527258276939392, -0.17691108584403992, 0.10567107796669006, 0.029006021097302437, 0.16060249507427216, -0.010460596531629562, 0.09325475245714188, -0.07702572643756866, 0.06979392468929291, -0.034940969198942184, -0.193364679813385, 0.3985323905944824, 0.14626042544841766, -0.11343412101268768, 0.046530380845069885, -0.04292991757392883, -0.05518176406621933, 0.0013977033086121082, 0.05462774634361267, -0.07843310385942459, 0.02200561761856079, 0.051076002418994904, -0.05752941593527794, 0.12460010498762131, 0.02352164126932621, -0.034133344888687134, 0.018849272280931473, -0.28059834241867065, -0.016791731119155884, 0.07957316190004349, -0.022369563579559326, 0.04987701028585434, -0.05419228598475456, 0.08015616238117218, -0.08737993240356445, -0.11280988156795502, -0.015926869586110115, 0.07856225222349167, 0.022930076345801353, -0.0261989738792181, 0.07219859957695007, 0.011935350485146046, 0.050906844437122345, 0.060822099447250366, -0.16715466976165771, 0.16185669600963593, 0.024637682363390923, -0.053549643605947495, -0.11030104756355286, -0.08355799317359924], [-0.09449560940265656, 0.23643730580806732, 0.0723273754119873, 0.03531157597899437, -0.06990224123001099, 0.07818274199962616, 0.1632506549358368, -0.059611670672893524, 0.017816852778196335, 0.061941489577293396, 0.07087013125419617, 0.005513309501111507, -0.12820403277873993, -0.058120764791965485, -0.06709819287061691, 0.03772079572081566, -0.016226070001721382, -0.014149250462651253, -0.020276278257369995, -0.010356726124882698, 0.03172557055950165, -0.1329914629459381, 0.23142953217029572, 0.03434130176901817, -0.0205635204911232, 0.1019858568906784, 0.00531287956982851, -0.10807077586650848, -0.012489115819334984, 0.10859615355730057, -0.010595964267849922, -0.10421906411647797, 0.08021964132785797, -0.05723673477768898, -0.05436673015356064, 0.04031600058078766, -0.01229007262736559, 0.09849412739276886, 0.05978074669837952, -0.10680752247571945, -0.12477518618106842, -0.15188705921173096, 0.2986586093902588, -0.11013586819171906, 0.0685352012515068, 0.016052786260843277, 0.09133683145046234, -0.0912351906299591, 0.139912948012352, -0.056430816650390625, -0.07456614077091217, 0.009245626628398895, 0.009829765185713768, 0.1229776069521904, -0.04289822280406952, -0.03257101774215698, 0.07836824655532837, -0.07966044545173645, 0.05294329673051834, 0.03540514409542084, -0.01956070587038994, 0.04123467952013016, -0.0868966281414032, -0.08914811164140701], [0.13759398460388184, -0.04742138460278511, 0.03958391770720482, -0.11019320040941238, 0.025595765560865402, 0.07974350452423096, -0.029187388718128204, -0.043500956147909164, 0.013814661651849747, -0.04305989667773247, -0.10696929693222046, 0.0211667288094759, -0.02447916939854622, -0.1873967945575714, -0.0867442712187767, -0.0648333877325058, -0.05243575572967529, 0.008203880861401558, -0.052526265382766724, 0.046050749719142914, 0.01352635957300663, -0.16854029893875122, 0.03370372951030731, -0.0029406168032437563, 0.09912341833114624, -0.03535131365060806, -0.15184321999549866, -0.22296516597270966, 0.00850747898221016, 0.06488609313964844, 0.020114198327064514, -0.06891128420829773, -0.1518479883670807, 0.10560886561870575, -0.11087600141763687, -0.0052253492176532745, -2.8509433832368813e-05, -0.003589279716834426, -0.019671492278575897, 0.19945570826530457, -0.07077300548553467, 0.0717499852180481, 0.1396695077419281, 0.02679118514060974, -0.10169041156768799, -0.06922337412834167, -0.13167890906333923, -0.025132589042186737, -0.059167779982089996, 0.21310949325561523, 0.04309344291687012, -0.07976852357387543, -0.11188338696956635, -0.04791058599948883, 0.07991757243871689, 0.024100419133901596, 0.023590046912431717, 0.04635598137974739, -0.0049407342448830605, 0.03540396690368652, -0.001879497547633946, -0.1737649142742157, 0.022736135870218277, 0.11622588336467743], [0.019026532769203186, 0.057472921907901764, -0.08074813336133957, -0.004430346190929413, 0.07384151220321655, 0.022416232153773308, -0.007110512349754572, -0.146535262465477, -0.04042162373661995, -0.06180230528116226, 0.03349841386079788, 0.026935605332255363, 0.061042383313179016, 0.04180477187037468, -0.157242551445961, -0.005073530599474907, 0.008140480145812035, 0.2358371615409851, -0.07841083407402039, -0.17483419179916382, -0.115258127450943, 0.007610885426402092, 0.12496278434991837, 0.06277177482843399, 0.09079775959253311, 0.02734643779695034, 0.007199218962341547, -0.1468425989151001, -0.1959315836429596, 0.030891697853803635, -0.0329233817756176, -0.13605166971683502, -0.06471102684736252, 0.07973209768533707, 0.19764287769794464, -0.16913101077079773, -0.07477468252182007, -0.015413532964885235, 0.041608430445194244, 0.05435585230588913, -0.06709078699350357, 0.08988751471042633, 0.012114115990698338, 0.13472896814346313, -0.0067861927673220634, 0.04179752618074417, -0.15667952597141266, 0.19109824299812317, 0.07152007520198822, 0.008797512389719486, -0.032384008169174194, 0.04315481334924698, -0.02147413045167923, 0.1030426099896431, -0.1986100673675537, 0.15157532691955566, -0.1252276748418808, 0.04576396569609642, -0.1365094780921936, -0.05488356202840805, 0.08205122500658035, 0.0828385055065155, 0.00010525256220716983, 0.09835948050022125], [0.027121851220726967, 0.13998126983642578, 0.09608522802591324, 0.03823206573724747, -0.008567769080400467, 0.029423624277114868, 0.07463010400533676, -0.023492150008678436, 0.032976195216178894, 0.1872716248035431, -0.04788317531347275, 0.01958884298801422, -0.06231076270341873, -0.1265677809715271, -0.09721127152442932, 0.130086287856102, 0.06014028191566467, 0.01949976198375225, 0.06444263458251953, 0.0814032331109047, -0.009576549753546715, 0.021241094917058945, 0.14023998379707336, -0.00014286465011537075, 0.017368914559483528, 0.11557259410619736, -0.1772584766149521, -0.030067289248108864, 0.1119411289691925, 0.007797349710017443, 0.00474056601524353, -0.023255005478858948, -0.13148294389247894, -0.02700064517557621, 0.07776767015457153, -0.0876585841178894, 0.12002192437648773, -0.01708940416574478, -0.016452115029096603, -0.05169716477394104, -0.14675931632518768, -0.11113451421260834, -0.2705550193786621, 0.14988291263580322, -0.015224648639559746, 0.09797539561986923, 0.03492920845746994, -0.04931735247373581, -0.12329880893230438, -0.01284277718514204, -0.0586632639169693, 0.1364050954580307, -0.07948853075504303, -0.09270920604467392, -0.12335263937711716, 0.058734018355607986, -0.05280140042304993, 0.03184957802295685, 0.047054849565029144, -0.09787950664758682, -0.001267639803700149, -0.03501154109835625, -0.1215018779039383, -0.19189542531967163], [0.07645788788795471, -0.15400345623493195, -0.11077931523323059, -0.016876032575964928, -0.09165079146623611, -0.013530335389077663, -0.10016550868749619, 0.183930441737175, 0.06498728692531586, -0.04694550111889839, -0.05580178648233414, -0.0021356206852942705, -0.10726505517959595, -0.09697325527667999, -0.05995265394449234, 0.07988669723272324, -0.02899353764951229, -0.07349269092082977, -0.1459789127111435, 0.04921993240714073, 0.08235815167427063, 0.044704608619213104, -0.03817374259233475, -0.03478621691465378, -0.1288652867078781, 0.04485531151294708, 0.08321499824523926, 0.13426965475082397, -0.0036820429377257824, -0.06598251312971115, 0.07354216277599335, 0.04786751791834831, 0.0730525553226471, 0.0571594312787056, -0.10657012462615967, -0.025375589728355408, 0.18697607517242432, 0.0013112853048369288, 0.0026108268648386, -0.06439182162284851, -0.02730260230600834, -0.05899624526500702, -0.07249221205711365, -0.03786691650748253, 0.13133955001831055, -0.08734256774187088, 0.07390852272510529, -0.10644368827342987, 0.048999376595020294, -0.07517028599977493, -0.05848275125026703, -0.07412566244602203, -0.025511477142572403, -0.29489243030548096, 0.08081972599029541, -0.07761615514755249, 0.13828939199447632, 0.11990857124328613, 0.09390563517808914, -0.15828046202659607, 0.04865647107362747, 0.07010841369628906, 0.1085864007472992, -0.15450909733772278], [-0.11581651121377945, -0.07598572969436646, 0.04208280146121979, 0.09796203672885895, -0.18222695589065552, 0.03867021203041077, -0.07630550861358643, 0.1490628719329834, -0.1258484125137329, 0.02131420373916626, -0.20619824528694153, 0.07747752964496613, -0.0048378631472587585, -0.06667713820934296, -0.11856552958488464, 0.009741181507706642, 0.06400035321712494, 0.1985037922859192, -0.14826159179210663, -0.008647071197628975, 0.14199072122573853, -0.0749398022890091, -0.08705452084541321, 0.0949745625257492, 0.1404266357421875, -0.10782165825366974, 0.22351014614105225, 0.1968056857585907, -0.07570620626211166, -0.05740245431661606, 0.20777326822280884, 0.004250172059983015, -0.003803859930485487, -0.03440310060977936, -0.15997642278671265, 0.0823095515370369, -0.05493507534265518, 0.19246701896190643, 0.03589298948645592, -0.027063066139817238, 0.05509627237915993, -0.0049917735159397125, -0.06725192070007324, -0.1007450670003891, 0.00359492190182209, 0.16544391214847565, -0.0708710327744484, -0.14843502640724182, 0.09508353471755981, -0.09174961596727371, 0.09300258755683899, -0.06856855750083923, -0.18680165708065033, 0.013142341747879982, 0.059505149722099304, -0.057648785412311554, 0.03665103018283844, -0.05281832814216614, -0.05931892618536949, 0.05076013132929802, 0.06517180055379868, 0.05465077608823776, 0.11585438251495361, -0.15195026993751526]], [-0.12880897521972656, -0.05427166447043419, 0.1395774781703949, -0.09455715119838715, -0.11471711099147797, 0.06036926805973053, -0.09772957861423492, -0.05188029259443283, -0.03339964896440506, 0.15000250935554504, -0.056106895208358765, -0.05327051132917404, 0.053950950503349304, 0.16315391659736633, 0.09517408162355423, -0.10234090685844421, -0.004717584699392319, 0.008233016356825829, 0.020392607897520065, 0.00645874859765172, 0.0007820352911949158, -0.056863848119974136, 0.0118928337469697, -0.004659666214138269, 0.02347983792424202, 0.0017466879216954112, -0.005875241942703724, 0.029062580317258835, 0.00811200775206089, -0.09427548944950104, 0.09632869809865952, -0.1127106323838234, 0.06463906168937683, 0.031289540231227875, -0.05242827534675598, 0.019119039177894592, -0.011607684195041656, -0.013292194344103336, 0.011130070313811302, -0.025009673088788986, -0.0013012910494580865, -0.017689507454633713, -0.006620068568736315, 0.011622061021625996, -0.03685891255736351, -0.0009447447955608368, -0.03349056467413902, -0.08959716558456421, -0.04607485979795456, -0.06702475249767303, -0.056546010076999664, 0.12134101241827011, 0.010750928893685341, -0.0747898668050766, 0.06691433489322662, -0.03619459271430969, -0.009191257879137993, -0.02447418123483658, 0.043803226202726364, 0.021005915477871895, 0.05607427656650543, 0.018039649352431297, 0.11930258572101593, -0.047376371920108795], [[-0.06973700225353241, -0.04134693369269371, -0.14659705758094788, -0.11480944603681564, 0.024227200075984, -0.028900880366563797, -0.12066730111837387, -0.11508022248744965, -0.11439921706914902, 0.08734242618083954, -0.019150028005242348, 0.16570866107940674, -0.015079909935593605, -0.057822294533252716, -0.05281272903084755, 0.020853081718087196, 0.16502118110656738, 0.0734013020992279, 0.04789246618747711, 0.08831506222486496, 0.252549946308136, -0.027234535664319992, -0.03571625053882599, -0.09998750686645508, 0.04581630602478981, 0.05055655539035797, 0.035876356065273285, -0.08092082291841507, -0.11705311387777328, -0.0757000595331192, -0.03959394618868828, -0.03791998699307442, -0.019019510596990585, 0.16053442656993866, 0.10311876982450485, 0.01585618406534195, 0.01865600235760212, 0.048228245228528976, -0.09578769654035568, -0.02482035756111145, 0.1153474748134613, -0.03758256137371063, -0.035306744277477264, 0.07272922247648239, -0.11167874932289124, 0.05511990189552307, -0.03226169943809509, -0.0750623345375061, 0.04917576164007187, 0.09368878602981567, -0.08380860090255737, 0.05349184572696686, 0.02415422722697258, -0.0382518544793129, 0.16570067405700684, -0.06537272036075592, 0.10870297253131866, -0.16466020047664642, -0.11142725497484207, 0.0868062824010849, -0.16261924803256989, 0.017203576862812042, -0.06240825355052948, -0.03804613649845123], [0.0623294934630394, -0.13062334060668945, 0.07262115180492401, 0.07783611118793488, 0.06664402782917023, 0.13859114050865173, -0.04682668298482895, 0.08102137595415115, 0.022295759990811348, 0.13900229334831238, -0.08751630783081055, -0.12348684668540955, 0.06284390389919281, 0.09058909118175507, 0.018277809023857117, 0.05968638136982918, 0.15103355050086975, 0.1598125845193863, -0.08527866750955582, -0.052084799855947495, 0.022623181343078613, -0.16173940896987915, -0.06265626102685928, -0.09041767567396164, 0.08925323188304901, -0.11511905491352081, -0.11841991543769836, -0.015589756891131401, -0.20946118235588074, -0.05023237317800522, 0.08777033537626266, 0.03711799904704094, 0.15591555833816528, 0.12244366109371185, 0.050792694091796875, 0.06497299671173096, 0.0031195110641419888, 0.04801315814256668, -0.11329762637615204, -0.07715140283107758, 0.11295033246278763, -0.1485534906387329, -0.05733463540673256, -0.07300783693790436, -0.03849629685282707, 0.0026789894327521324, 0.06250809133052826, 0.04019398242235184, -0.08031164109706879, -0.1470695585012436, 0.010049281641840935, -0.12019727379083633, 0.01008728239685297, 0.0649130642414093, 0.0033679213374853134, 0.04195266589522362, 0.0827135443687439, 0.15078747272491455, 0.051916394382715225, 0.0027528118807822466, 0.1732652485370636, -0.059272073209285736, -0.04099767655134201, -0.17377597093582153], [0.032634492963552475, -0.13245299458503723, 0.0718233585357666, 0.07224167883396149, -0.019129622727632523, -0.2285211980342865, -0.10231395810842514, -0.002022186294198036, 0.05663173645734787, -0.045156754553318024, -0.004283024463802576, -0.06065995991230011, 0.08250308781862259, -0.0312747061252594, -0.1603396087884903, 0.1401359736919403, 0.007978718727827072, -0.00783631857484579, -0.014219564385712147, -0.03914450481534004, 0.153676837682724, 0.0239321980625391, -0.018332811072468758, 0.04268108308315277, 0.05991230905056, -0.06370779871940613, -0.04118745028972626, -0.12595593929290771, 0.0003761642728932202, -0.15143173933029175, 0.038588907569646835, 0.011458304710686207, -0.038487792015075684, 0.10436137020587921, 0.135519877076149, -0.06494219601154327, -0.07369236648082733, 0.0653492882847786, -0.18669550120830536, 0.1203322783112526, 0.023805323988199234, 0.06473236531019211, -0.10239166021347046, -0.0018311797175556421, -0.2192876636981964, -0.008498062379658222, 0.032373905181884766, 0.08705136179924011, 0.21049512922763824, -0.11389458179473877, -0.07973841577768326, 0.018894236534833908, -0.004714923910796642, 0.08715760707855225, -0.06398683041334152, -0.1096484363079071, 0.05018497258424759, -0.09765364229679108, -0.00017962895799428225, -0.014660781249403954, -0.033896513283252716, 0.13129696249961853, -0.026250191032886505, 0.21740466356277466], [0.12379005551338196, 0.004164945799857378, -0.04347480088472366, -0.026158053427934647, 0.012435035780072212, 0.13962191343307495, -0.12929224967956543, 0.009954063221812248, 0.10041859745979309, 0.006198291201144457, -0.11642743647098541, 0.02573798969388008, -0.08980138599872589, 0.03379938751459122, -0.035666655749082565, 0.18156997859477997, 0.05436744913458824, -0.07559235394001007, 0.10867568105459213, -0.12979835271835327, -0.08185546845197678, 0.021854806691408157, -0.08232954889535904, 0.13324566185474396, -0.1535259634256363, 0.10816816985607147, 0.0740097239613533, 0.06050555408000946, -0.13144659996032715, 0.01862197369337082, 0.005893622525036335, -0.162266805768013, 0.11609505116939545, 0.08090081810951233, -0.08059689402580261, -0.061844874173402786, 0.03104911558330059, -0.010333840735256672, 0.061173588037490845, -0.20918059349060059, -0.12143712490797043, 0.015507983043789864, -0.047794852405786514, -0.03249143809080124, 0.03530765324831009, 0.11311163008213043, 0.036512017250061035, -0.013848958536982536, 0.09414856135845184, -0.028673112392425537, 0.08133429288864136, -0.010852452367544174, 0.15082305669784546, -0.04307633265852928, -0.08754722774028778, 0.10766950994729996, 0.020778708159923553, 0.09596092253923416, 0.03443187102675438, 0.0022692568600177765, -0.14368438720703125, 0.11629759520292282, 0.0232473686337471, -0.019078915938735008], [-0.07739246636629105, -0.034022584557533264, -0.11456044018268585, -0.08522769063711166, -0.027282238006591797, 0.03302760422229767, -0.016922306269407272, 0.026139307767152786, -0.05117370933294296, 0.09387725591659546, -0.1035621166229248, -0.025687284767627716, 0.09528764337301254, 0.0832645520567894, -0.027454501017928123, 0.14031943678855896, -0.03489525616168976, -0.027800139039754868, 0.036435894668102264, -0.04509148746728897, -0.03849954903125763, -0.0013251632917672396, -0.043632324784994125, 0.15465626120567322, 0.08374486863613129, -0.017305731773376465, 0.026086464524269104, 0.07414868474006653, 0.12499871104955673, 0.0279264934360981, -0.05444026738405228, 0.03183106333017349, -0.0558716356754303, 0.07131113111972809, 0.03579212725162506, 0.1446826159954071, -0.1542666256427765, 0.027044355869293213, 0.03904007375240326, -0.03979752957820892, -0.28116264939308167, 0.062251027673482895, -0.07607182115316391, -0.06417026370763779, 0.16402868926525116, -0.03830404952168465, 0.043276622891426086, -0.10526727139949799, 0.041371505707502365, 0.031934335827827454, 0.04604928195476532, 0.08783933520317078, -0.020281042903661728, -0.06837521493434906, 0.12861081957817078, -0.013549627736210823, -0.06318861246109009, -0.16078907251358032, -0.00867313239723444, -0.22070473432540894, 0.040812425315380096, 0.18605053424835205, 0.031341858208179474, -0.07354111224412918], [0.12342976033687592, 0.02842491678893566, 0.05160411819815636, -0.017423667013645172, -0.034646615386009216, -0.11509931087493896, -0.12766283750534058, 0.04755900055170059, -0.01782483607530594, 0.015280850231647491, -0.11000165343284607, -0.015227177180349827, -0.06598258018493652, -0.033287413418293, 0.054477233439683914, -0.0068541597574949265, -0.09265881776809692, -0.05687933415174484, 0.06180968135595322, 0.06593478471040726, 0.1102522611618042, -0.02081592008471489, 0.1041082814335823, -0.004270186647772789, -0.03708561509847641, -0.055820662528276443, 0.061195120215415955, 0.09288974106311798, -0.18886981904506683, -0.019334876909852028, -0.03567519411444664, -0.18714125454425812, -0.08743076026439667, -0.08332626521587372, -0.05459212511777878, -0.00398285174742341, -0.08149208873510361, 0.0679359957575798, -0.06393548846244812, -0.1416735053062439, 0.04195798188447952, -0.04360950365662575, -0.12144558876752853, 0.03249119222164154, 0.09177713096141815, -0.006004988215863705, 0.061665572226047516, 0.057467278093099594, 0.14019683003425598, -0.06807924807071686, -0.04335736483335495, -0.0247751846909523, -0.04335235431790352, -0.013189971446990967, 0.03720054775476456, 0.09328323602676392, -0.029401708394289017, 0.11841455847024918, -0.024206269532442093, 0.003965850453823805, -0.009507602080702782, 0.041087646037340164, 0.03630642592906952, 0.06950470805168152], [0.0021310108713805676, -0.039877552539110184, 0.1124039962887764, -0.10373282432556152, 0.021513402462005615, -0.20512717962265015, 0.011826501227915287, -0.008104955777525902, -0.14749294519424438, -0.004765537567436695, -0.0077042290940880775, 0.14852695167064667, -0.09211936593055725, -0.140223890542984, -0.11228823661804199, 0.04993107169866562, -0.006435785908252001, 0.02959432080388069, -0.04867769777774811, -0.08856356143951416, -0.20259784162044525, 0.13805511593818665, 0.038764193654060364, -0.1376514732837677, -0.09304991364479065, 0.10592696815729141, 0.030300229787826538, 0.02705060876905918, 0.05203385651111603, 0.09047336131334305, 0.03752828761935234, 0.051613498479127884, -0.08877506107091904, -0.08418615907430649, 0.024786360561847687, -0.08956646919250488, -0.03775294870138168, 0.04974399507045746, -0.062281981110572815, -0.13357263803482056, 0.14455318450927734, -0.06884781271219254, -0.010438014753162861, -0.0780513733625412, -0.03416454792022705, -0.03884395584464073, 0.014722127467393875, 0.044919610023498535, 0.0821714848279953, 0.02724762260913849, 0.03172263503074646, -0.017035972326993942, -0.05001971125602722, 0.15183581411838531, -0.007168139331042767, 0.0035874582827091217, -0.032486043870449066, 0.07034321129322052, 0.1000080406665802, 0.0720711499452591, 0.09855018556118011, -0.005648953840136528, -0.02508670836687088, -0.15960636734962463], [-0.000406108534662053, -0.12985408306121826, 0.0018516351701691747, 0.02806510031223297, 0.016961432993412018, 0.04079936072230339, 0.008976821787655354, 0.04091200232505798, 0.04317152500152588, -0.12796863913536072, 0.11651545763015747, -0.011854400858283043, 0.009277772158384323, 0.09071111679077148, 0.03928414732217789, 0.12139040231704712, -0.029887177050113678, 0.09589645266532898, 0.038034796714782715, -0.05476267635822296, -0.003803770989179611, 0.0027686832472682, 0.04904840514063835, 0.05001242458820343, 0.01626041904091835, -0.03407137840986252, 0.07632705569267273, 0.08845852315425873, -0.06053386256098747, -0.15816384553909302, 0.17071214318275452, -0.12216965109109879, -0.17734947800636292, 0.02262227050960064, 0.05489518493413925, -0.11783578991889954, 0.04089996963739395, 0.0780145451426506, 0.050920456647872925, 0.019383758306503296, 0.04806710034608841, 0.17187610268592834, -0.13598904013633728, -0.06624455004930496, 0.008619008585810661, -0.05856046825647354, -0.0934656411409378, 0.09831732511520386, -0.03729497641324997, 0.06376320868730545, 0.06798216700553894, -0.11685319989919662, -0.06839503347873688, 0.025615721940994263, -0.07908320426940918, 0.08519737422466278, -0.028336483985185623, 0.08399792015552521, -0.04709050431847572, 0.072719044983387, -0.016503727063536644, -0.16755704581737518, -0.012994220480322838, 0.04398093745112419], [-0.012677673250436783, 0.09114442765712738, -0.015158142894506454, -0.10610370337963104, 0.08942980319261551, 0.1682640165090561, 0.10204270482063293, 0.03454212099313736, -0.0630289763212204, -0.06027434393763542, 0.04412612318992615, -0.02467375062406063, 0.08341077715158463, -0.07297110557556152, -0.03389134258031845, 0.1092853918671608, -0.11810165643692017, 0.08187223970890045, 0.11783330142498016, 0.12197664380073547, 0.2512664198875427, 0.049137964844703674, 0.046164773404598236, 0.013466879725456238, 0.025564726442098618, 0.045902788639068604, 0.040698375552892685, -0.060025617480278015, -0.16127175092697144, 0.07447811216115952, -0.10099483281373978, -0.0017515518702566624, -0.013449069112539291, -0.01222282275557518, -0.1445556879043579, -0.04207107424736023, 0.05349339544773102, 0.1508520245552063, 0.04378367215394974, -0.1362387239933014, -0.08464159071445465, 0.08028106391429901, -0.04341905564069748, -0.007668278180062771, -0.030827883630990982, 0.048057518899440765, 0.25393402576446533, 0.04955058544874191, 0.031869299709796906, -0.1104656383395195, 0.0060159554705023766, 0.23489779233932495, 0.029814057052135468, -0.01526701170951128, 0.011007050052285194, 0.038714632391929626, 0.041309915482997894, 0.07903982698917389, -0.0019458374008536339, 0.10212452709674835, 0.048099204897880554, -0.058935608714818954, 0.039152875542640686, 0.01277322880923748], [0.062303829938173294, 0.03572031483054161, -0.008650979027152061, 0.03262382745742798, -0.07178141921758652, -0.07685323059558868, 0.0027214237488806248, 0.06384168565273285, -0.13601484894752502, -0.1153372973203659, 0.019181272014975548, 0.17142772674560547, -0.020324237644672394, 0.00013357379066292197, -0.0635528713464737, -0.05092655122280121, 0.04367583245038986, 0.029913414269685745, 0.07247018814086914, -0.012519944459199905, 0.11828680336475372, -0.054974623024463654, 0.037264928221702576, -0.033297888934612274, 0.023048412054777145, -0.04613666981458664, 0.08949311077594757, -0.06389465928077698, 0.01269051618874073, 0.15726116299629211, 0.08249956369400024, 0.14069154858589172, -0.15756893157958984, 0.11365622282028198, 0.03826960176229477, 0.0852101743221283, 0.02657284028828144, -0.007556252181529999, -0.06179613247513771, -0.09363727271556854, 0.13856542110443115, -0.07767413556575775, -0.08449409157037735, -0.2230578362941742, -0.13041095435619354, -0.08127040416002274, 0.011095089837908745, -0.07507472485303879, -0.014900739304721355, -0.03242291882634163, -0.04402647167444229, -0.028958642855286598, 0.0037597636692225933, 0.011068153195083141, 0.06718049943447113, 0.12029440701007843, 0.024298233911395073, -0.09731458127498627, -0.1087225079536438, 0.12065599858760834, 0.0439486987888813, -0.07371160387992859, 0.07321082055568695, 0.02078477293252945], [0.07792063802480698, -0.05318554490804672, -0.03808002918958664, -0.0060599870048463345, 0.06929103285074234, -0.09005214273929596, -0.18055644631385803, 0.044961221516132355, 0.14420011639595032, 0.013879172503948212, -0.07489639520645142, -0.012536987662315369, 0.1075611263513565, -0.03598139435052872, 0.12970373034477234, -0.05522219091653824, -0.026136578992009163, -0.09515523910522461, 0.24425144493579865, -0.08071142435073853, 0.1034775972366333, -0.03187995404005051, -0.0895375981926918, 0.021612700074911118, 0.16327080130577087, -0.08203628659248352, 0.09178109467029572, 0.1409071683883667, -0.010624222457408905, -0.0031704511493444443, -0.04039850831031799, 0.06426703929901123, 0.046034909784793854, 0.23733331263065338, -0.14395898580551147, 0.05724533647298813, -0.10412353277206421, 0.06033644825220108, -0.11681663990020752, -0.07759988307952881, 0.08314123749732971, -0.05491044744849205, 0.05818260461091995, 0.0005526083405129611, -0.1635543406009674, 0.00199771486222744, 0.008312135934829712, 0.16616645455360413, 0.03352562338113785, -0.09746113419532776, -0.03549729660153389, 0.0453326441347599, 0.019924957305192947, 0.15029694139957428, -0.10063882172107697, -0.0037920118775218725, 0.013860351406037807, -0.030616356059908867, -0.168217733502388, 0.028636805713176727, 0.08808028697967529, -0.030609481036663055, 0.034451715648174286, 0.11713941395282745], [0.049583062529563904, -0.07909281551837921, 0.02328333631157875, 0.02950172871351242, -0.0582052506506443, -0.10971438884735107, -0.050783347338438034, -0.03953608125448227, 0.024589817970991135, 0.020479168742895126, -0.10132842510938644, -0.053418345749378204, -0.009904775768518448, -0.10042215883731842, 0.14105114340782166, -0.04189758002758026, -0.16695842146873474, -0.1051863580942154, -0.1232777088880539, 0.07352571934461594, 0.008129475638270378, -0.20214253664016724, -0.007981573231518269, 0.04305266588926315, -0.10083495080471039, 0.10620928555727005, 0.12720482051372528, -0.08991085737943649, -0.12890705466270447, -0.07667846977710724, 0.025445137172937393, -0.09376071393489838, 0.0050629666075110435, -0.019377782940864563, 0.04026011377573013, -0.041402384638786316, -0.04896903783082962, -0.11579608172178268, -0.15162619948387146, 0.051183830946683884, -0.05873480439186096, 0.009870132431387901, -0.059767644852399826, 0.10075497627258301, -0.0661410540342331, 0.18492239713668823, 0.008215546607971191, -0.046088431030511856, 0.14457929134368896, -0.07218463718891144, 0.15194429457187653, 0.1193946897983551, 0.1102181077003479, -0.16399502754211426, -0.11088855564594269, 0.026300908997654915, -0.07877975702285767, -0.007917305454611778, 0.08544904738664627, 0.05011124908924103, -0.03958289325237274, -0.05473305657505989, -0.12435555458068848, 0.030642304569482803], [0.048348382115364075, -0.01483116578310728, -0.045204658061265945, 0.036101773381233215, -0.11324933171272278, 0.05437073856592178, -0.01939578913152218, 0.012748312205076218, -0.026995182037353516, -0.01578030176460743, -0.004849033430218697, -0.013700325042009354, 0.014976701699197292, -0.08927580714225769, -0.10763662308454514, -0.02145928330719471, -0.013292916119098663, -0.03903016448020935, -0.09525012969970703, 0.025609679520130157, 0.13148699700832367, 0.036114126443862915, 0.08598484843969345, 0.031399212777614594, 0.11002401262521744, -0.00797341950237751, -0.108600914478302, -0.008682643994688988, 0.14556334912776947, -0.14302434027194977, -0.01424550823867321, -0.04230818152427673, -0.021683992817997932, 0.013009580783545971, 0.062598317861557, 0.10464873909950256, 0.11134505271911621, -0.012104567140340805, 0.19796639680862427, -0.061210259795188904, 0.01090976968407631, 0.020060233771800995, -0.1320982575416565, -0.024140775203704834, 0.010710415430366993, -0.10778793692588806, 0.11945349723100662, -0.14574496448040009, -0.0386003702878952, 0.0713256448507309, -0.08286474645137787, -0.009891082532703876, -0.26729100942611694, -0.14258038997650146, 0.09685377776622772, -0.023593492805957794, 0.0994618833065033, -0.008795712143182755, -0.06331947445869446, 0.05650598555803299, 0.05147814005613327, -0.0009927968494594097, 0.05923119932413101, 0.09622234851121902], [0.16645190119743347, -0.08936318755149841, 0.0346873439848423, 0.095345139503479, 0.08954925835132599, -0.05792798101902008, 0.011113693006336689, 0.005805071443319321, 0.014190832152962685, 0.02816048637032509, 0.026667844504117966, -0.024893740192055702, 0.10218358784914017, 0.08240508288145065, 0.033586107194423676, 0.02642972022294998, 0.02054274082183838, -0.05121779069304466, 0.013347001746296883, 0.02220206707715988, -0.10795814543962479, 0.06251385807991028, 0.08621734380722046, -0.15539640188217163, 0.043484315276145935, -0.10020890831947327, -0.0003146718954667449, -0.06811895966529846, -0.09479497373104095, 0.025555407628417015, 0.04121415317058563, -0.01805618405342102, -0.03758939355611801, 0.053739260882139206, -0.07046686112880707, -0.016589539125561714, -0.02101590670645237, -0.02995317429304123, 0.053390659391880035, 0.05652203783392906, -0.07770009338855743, -0.02348538674414158, 0.06309846043586731, 0.061696529388427734, 0.04458508640527725, 0.01794876530766487, 0.07237306237220764, 0.09338470548391342, 0.09484682232141495, -0.13790346682071686, -0.018962722271680832, 0.1412133276462555, 0.020326297730207443, -0.01981179229915142, -0.02338487282395363, 0.1163012832403183, -0.09210027754306793, -0.0789274275302887, -0.04969223588705063, -0.13540509343147278, 0.025415491312742233, -0.08501601219177246, -0.020437732338905334, 0.06423352658748627], [0.06545858830213547, 0.0315432995557785, -0.11069144308567047, -0.191260427236557, 0.05046965181827545, -0.03722040355205536, 0.021752797067165375, -0.00622082082554698, -0.0663759857416153, 0.09566156566143036, -0.034963399171829224, -0.0373428538441658, 0.045398302376270294, -0.11805662512779236, 0.11142170429229736, 0.11628220230340958, 0.14709126949310303, -0.05673282593488693, 0.12244276702404022, -0.06988703459501266, 0.05371022969484329, -0.09994316101074219, 0.012085361406207085, -0.044471628963947296, -0.054513782262802124, -0.09314315766096115, 0.1300494372844696, 0.06491060554981232, 0.04838216304779053, -0.18845224380493164, -0.020886555314064026, -0.0834721028804779, 0.035063695162534714, -0.0724475085735321, 0.062026768922805786, -0.21126365661621094, 0.04355739429593086, 0.051764488220214844, -0.007515374105423689, -0.08560879528522491, 0.007028765045106411, -0.0648052990436554, 0.0722491666674614, -0.0030455172527581453, 0.2052300125360489, 0.01833156682550907, 0.01147883478552103, 0.033286068588495255, 0.06434595584869385, -0.054241567850112915, 0.02026757039129734, -0.16327376663684845, -0.006483374163508415, 0.06720589101314545, 8.778916526352987e-05, 0.13035672903060913, 0.06332354247570038, 0.18351688981056213, 0.007073657121509314, -0.01753181964159012, -0.03204343467950821, -0.18215636909008026, 0.1156306266784668, 0.054199397563934326], [0.08306986093521118, 0.08338533341884613, 0.004907509312033653, 0.052974507212638855, -0.15168975293636322, 0.043244101107120514, -0.08893024176359177, -0.03977406024932861, 0.04036245867609978, 0.09571725130081177, -0.22205987572669983, -0.094090536236763, -0.15228670835494995, 0.1773689091205597, 0.10329345613718033, -0.1083151176571846, -0.1325400322675705, -0.09380532056093216, 0.03072098270058632, -0.005419461987912655, -0.2011207640171051, -0.12497152388095856, -0.08282089978456497, -0.0008869471494108438, 0.03222063183784485, 0.08883543312549591, 0.130204439163208, 0.026772450655698776, -0.0597003735601902, -0.03578632324934006, 0.10981921851634979, 0.005358663387596607, -0.17757031321525574, -0.06604212522506714, 0.016591880470514297, -0.021831657737493515, 0.02827584743499756, -0.03336074575781822, -0.05364189296960831, 0.09287602454423904, -0.17443135380744934, -0.028356557711958885, 0.08489753305912018, -0.10113400965929031, 0.01677924394607544, 0.27418985962867737, -0.02003096602857113, -0.029843967407941818, -0.007472085766494274, -0.07650671899318695, 0.0388018861413002, 0.02823862060904503, 0.17419131100177765, -0.12163177132606506, 0.05634906142950058, 0.17105165123939514, -0.0036939377896487713, -0.0628543272614479, -0.036873940378427505, -0.09025084972381592, 0.0002794580068439245, 0.08161826431751251, 0.05415654927492142, 0.03578374162316322], [0.0512370839715004, -0.11181477457284927, 0.1002798080444336, -0.04268774762749672, 0.03708609938621521, -0.04701372608542442, -0.10606113821268082, -0.065824493765831, 0.1126837432384491, -0.0628105029463768, -0.13303102552890778, 0.010282795876264572, -0.0018255000468343496, -0.11022000014781952, 0.12698236107826233, 0.11878745257854462, 0.0025961941573768854, 0.16627371311187744, -0.10980474203824997, -0.04094720631837845, -0.05475449189543724, -0.13833558559417725, -0.002501384587958455, -0.05420604348182678, -0.05180061236023903, 0.19424968957901, -0.18419381976127625, 0.1261082887649536, 0.07116231322288513, -0.09902486205101013, 0.11823254823684692, 0.13645780086517334, -0.07065275311470032, 0.00465500820428133, -0.007336645387113094, 0.22100462019443512, -0.10803134739398956, -0.1922968327999115, -0.011037377640604973, 0.045874834060668945, -0.008002182468771935, -0.12645554542541504, -0.053398653864860535, -0.19257986545562744, -0.0344785675406456, 0.006268742494285107, 0.1393488198518753, 0.07889670133590698, 0.04224906861782074, 0.09357192367315292, 0.009598811157047749, -0.01155564934015274, 0.09808830916881561, 0.14658628404140472, -0.03389472886919975, 0.04359680041670799, -0.036700449883937836, 0.0682988315820694, -0.10050845146179199, -0.09965607523918152, 0.006289862096309662, 0.11083075404167175, 0.07322558760643005, 0.00933979731053114], [-0.03136321157217026, 0.1044892743229866, -0.13710471987724304, 0.19332677125930786, 0.030804647132754326, -0.15767596662044525, 0.0373992994427681, -0.07997287809848785, 0.04900316894054413, 0.019052723422646523, 0.06789016723632812, -0.012468656525015831, -0.027598503977060318, 0.029448073357343674, 0.12418143451213837, -0.20504289865493774, -0.11172501742839813, -0.039757125079631805, 0.07324505597352982, 0.009991876780986786, -0.019607536494731903, -0.024640677496790886, 0.16397255659103394, -0.07131147384643555, -0.06404455006122589, -0.0012167694512754679, -0.005950768943876028, 0.05035873502492905, 0.1900550127029419, -0.04290887713432312, -0.1887015551328659, -0.028818389400839806, 0.022077083587646484, -0.008876788429915905, -0.09180042147636414, -0.02848176471889019, -0.08434805274009705, 0.06219945847988129, -0.07835221290588379, -0.04391646385192871, 0.047230228781700134, 0.04230829328298569, 0.004172597546130419, 0.06899163872003555, 0.01995372772216797, 0.14480990171432495, 0.03486103564500809, 0.059609126299619675, -0.12280650436878204, -0.02192913182079792, -0.10281558334827423, 0.13680212199687958, 0.016851913183927536, -0.04709077626466751, -0.09409475326538086, -0.01245036255568266, -0.01289030909538269, 0.10974116623401642, -0.03060138039290905, -0.003761867992579937, 0.022180946543812752, -0.013050585053861141, 0.05784301459789276, 0.07758759707212448], [-0.09561948478221893, 0.02091933973133564, 0.028720811009407043, 0.0275062695145607, 0.030665751546621323, 0.10317545384168625, -0.05862094461917877, -0.09300827980041504, 0.08057141304016113, -0.022689424455165863, -0.04363445192575455, 0.0305728018283844, -0.09226205945014954, 0.08081123232841492, 0.021086839959025383, 0.024516891688108444, 0.016391703858971596, 0.004048033617436886, 0.024412956088781357, 0.06584975868463516, -0.04296230524778366, 0.07399465143680573, -0.006812551058828831, 0.027776606380939484, 0.06867906451225281, -0.06241996958851814, -0.08207331597805023, -0.050646111369132996, 0.07770838588476181, 0.03537602350115776, 0.06110516935586929, -0.09489701688289642, -0.05676668882369995, -0.2228175699710846, -0.018144873902201653, 0.00031359365675598383, 0.1433459222316742, -0.10186553001403809, -0.0067949057556688786, -0.07378275692462921, -0.26988720893859863, -0.0625392496585846, 0.046069204807281494, 0.008596417494118214, -0.06382497400045395, 0.08941364288330078, -0.0795859768986702, 0.14758138358592987, 0.11128824204206467, 0.05432425066828728, 0.026136506348848343, -0.014401846565306187, 0.15028266608715057, -0.06593744456768036, -0.04915539175271988, -0.11882013082504272, 0.08251718431711197, -0.14264801144599915, -0.254658579826355, 0.15599480271339417, 0.052446700632572174, 0.09145082533359528, -0.039589911699295044, 0.0992889329791069], [0.011220699176192284, 0.0491035133600235, -0.08268160372972488, -0.03682665526866913, 0.11224327236413956, 0.08738496899604797, -0.04297376424074173, -0.045571595430374146, -0.1271512806415558, 0.021477118134498596, -0.02505098097026348, -0.07812725007534027, -0.11987246572971344, 0.03236541152000427, -0.1119547188282013, -0.020945850759744644, 0.19662880897521973, 0.2095407396554947, 0.01725582592189312, 0.006581108085811138, 0.04490835219621658, 0.1291058212518692, 0.03139013797044754, -0.05068332701921463, -0.09253852814435959, -0.057272352278232574, 0.12757164239883423, -0.049511246383190155, -0.03948390111327171, 0.053108952939510345, 0.1583780199289322, -0.04362399876117706, -0.1899290382862091, 0.12959402799606323, -0.0709073543548584, -0.010426896624267101, 0.14371155202388763, -0.08790948987007141, 0.04957133159041405, -0.048093803226947784, -0.030909214168787003, 0.05165296792984009, -0.12371005862951279, 0.012501521036028862, -0.14437058568000793, 0.1757965087890625, 0.19572055339813232, -0.18193946778774261, 0.07886838912963867, 0.08285491168498993, -0.21937760710716248, 0.06275463104248047, -0.01955028995871544, 0.035328444093465805, 0.05340314283967018, 0.1844765841960907, -0.05625114217400551, -0.07900626212358475, -0.07885249704122543, 0.028376201167702675, -0.06140938773751259, 0.054080601781606674, 0.12211765348911285, 0.006085030734539032], [0.018475521355867386, -0.0653357058763504, 0.1465524286031723, -0.0856236144900322, 0.07662217319011688, 0.18957245349884033, -0.10179285705089569, 0.06589283794164658, 0.019050080329179764, -0.0047785439528524876, 0.13925857841968536, 0.1903044879436493, 0.2177828848361969, 0.0183313749730587, -0.05440077930688858, 0.005298880394548178, -0.0336437001824379, -0.0825447365641594, 0.10417437553405762, 0.07567036151885986, 0.002511256840080023, -0.06821294128894806, 0.16137909889221191, -0.025425845757126808, 0.06067122146487236, -0.05460193753242493, 0.08796341717243195, -0.014778300188481808, 0.06459204852581024, 0.0455520898103714, -0.039341043680906296, -0.04993436485528946, 0.005001842509955168, 0.06237560138106346, 0.012366078794002533, -0.10185351967811584, 0.1254185438156128, 0.007730378303676844, -0.03299260139465332, -0.08015092462301254, -0.06531981378793716, 0.08347814530134201, 0.0210338793694973, -0.0027899949345737696, -0.030852552503347397, 0.09144526720046997, 0.044437527656555176, 0.09847766906023026, 0.02879757434129715, 0.026980679482221603, 0.005534479394555092, 0.06493467092514038, 0.04594004154205322, 0.006970150396227837, -0.03845580667257309, 0.03136163204908371, -0.010038914158940315, -0.007371135987341404, 0.011629890650510788, -0.0032599307596683502, -0.018997540697455406, -0.0650712177157402, 0.08091787993907928, 0.11896106600761414], [-0.043749671429395676, -0.20128977298736572, 0.022370146587491035, 0.07490614801645279, -0.09579317271709442, 0.1607404351234436, -0.03900463506579399, -0.006434862036257982, 0.01714799739420414, -0.023494046181440353, 0.081020288169384, 0.08653031289577484, 0.08950827270746231, -0.04985412210226059, -0.01315254531800747, 0.09795844554901123, 0.0033508464694023132, 0.006804334465414286, -0.03767816349864006, 0.08896574378013611, 0.021673450246453285, 0.11436700820922852, -0.0255432091653347, 0.11844658106565475, 0.1475975662469864, 0.18865084648132324, 0.09229965507984161, -0.14755293726921082, -0.039905186742544174, 0.1541864275932312, 0.007631794083863497, -0.04051279276609421, 0.023737173527479172, -0.07037359476089478, 0.21714648604393005, -0.024478308856487274, -0.03148829936981201, -0.00820883922278881, 0.030689265578985214, 0.022130746394395828, 0.11166442930698395, 0.032532162964344025, -0.10062618553638458, -0.030366620048880577, -0.09527768939733505, -0.09356087446212769, -0.14183677732944489, -0.008948879316449165, -0.08560428023338318, 0.19169792532920837, 0.024457793682813644, 0.022914022207260132, 0.004573338199406862, -0.05619160830974579, 0.01776953972876072, 0.07380199432373047, -0.058159276843070984, -0.029603073373436928, 0.12316472828388214, -0.17240452766418457, 0.015579018741846085, -0.07515671104192734, 0.09139899164438248, -0.09841601550579071], [0.10583814978599548, 0.0484616719186306, 0.1556171178817749, -0.1956520527601242, 0.014214136637747288, -0.02297494374215603, -0.05992593988776207, 0.2087656855583191, 0.11907050013542175, 0.11830075085163116, 0.13449227809906006, 0.003686332842335105, 0.0480925515294075, -0.05516835302114487, -0.057351015508174896, 0.20046274363994598, -0.10589970648288727, 0.05601440370082855, 0.14480985701084137, -0.14769388735294342, -0.04327549785375595, 0.02477574720978737, 0.042512841522693634, 0.012539936229586601, 0.13996759057044983, -0.05134342610836029, 0.11547048389911652, 0.012859021313488483, -0.03115115873515606, -0.0038584498688578606, 0.022007886320352554, -0.09815452247858047, 0.04277166724205017, -0.0182461179792881, -0.009032982401549816, -0.05800240486860275, 0.08023926615715027, 0.03058803454041481, 0.09884728491306305, 0.04620812088251114, 0.047005794942379, -0.008549012243747711, -0.05698605254292488, -0.013768864795565605, -0.08125297725200653, 0.0012491459492594004, -0.12198106944561005, 0.11008591949939728, 0.1419384777545929, -0.03030887246131897, -0.1419169306755066, -0.023867443203926086, 0.03526190668344498, 0.11573459208011627, -0.02777654118835926, -0.04857661575078964, -0.07178880274295807, 0.049735598266124725, 0.05274750664830208, 0.06507381796836853, -0.08245395123958588, 0.05860438197851181, 0.09533202648162842, -0.05790805071592331], [0.005949711427092552, -0.031881291419267654, -0.048148687928915024, 0.11570696532726288, 0.08112650364637375, -0.10499754548072815, 0.026301490142941475, 0.09485428035259247, 0.018326563760638237, 0.01637154072523117, -0.01650480553507805, 0.059114009141922, 0.04410705715417862, 0.06641637533903122, 0.05459978058934212, -0.014599804766476154, -0.02443845570087433, -0.029273245483636856, -0.0449645109474659, 0.04605551064014435, -0.07369887828826904, 0.03213400021195412, -0.05868184566497803, 0.050712134689092636, -0.020017189905047417, 0.07766924053430557, 0.11007095873355865, -0.006248245947062969, -0.057531364262104034, 0.12775269150733948, 0.19033080339431763, -0.0654175728559494, 0.10983984917402267, 0.12137673795223236, -0.05116040259599686, 0.0291752927005291, 0.16870032250881195, -0.09685124456882477, -0.03384661674499512, -0.08366011083126068, -0.0684969574213028, -0.05707649886608124, -0.005071920342743397, 0.1575508415699005, -0.19357863068580627, 0.03471748158335686, 0.057435981929302216, -0.01692936383187771, 0.03514572232961655, -0.10646846890449524, -0.05746055394411087, 0.11449308693408966, 0.04387227073311806, 0.11196917295455933, 0.03531184047460556, 0.06931690871715546, 0.1757127046585083, 0.03264287859201431, 0.029314115643501282, 0.14616352319717407, 0.058195143938064575, -0.028500832617282867, -0.03437521308660507, -0.06733472645282745], [0.08710029721260071, -0.034405417740345, -0.03731616586446762, 0.00934218242764473, 0.12995168566703796, 0.062372587621212006, -0.06624633818864822, 0.048302821815013885, 0.0033876351080834866, -0.04051889106631279, -0.2214852273464203, -0.1546306163072586, 0.02284485474228859, 0.007469767238944769, 0.03156369552016258, -0.10814788937568665, 0.015361431986093521, 0.10009292513132095, 0.09734015166759491, -0.07778795063495636, 0.00392611138522625, -0.07474292814731598, -0.12071171402931213, 0.13752034306526184, 0.01950470358133316, -0.14908163249492645, -0.045168403536081314, -0.017766978591680527, 0.01961214281618595, -0.09786714613437653, 0.13122108578681946, -0.13606417179107666, -0.04704153165221214, 0.023052994161844254, 0.077558234333992, 0.0040275040082633495, 0.054967381060123444, -0.08788876980543137, -0.005647112149745226, 0.13083741068840027, -0.012141615152359009, -0.13885177671909332, -0.03728923201560974, -0.15334728360176086, -0.12171939760446548, -0.06887535005807877, 0.011177443899214268, 0.08637949824333191, 0.048592545092105865, -0.016461024060845375, 0.11264173686504364, -0.10127316415309906, -0.029782280325889587, -0.06882678717374802, -0.002209414029493928, 0.1004793792963028, -0.06545036286115646, -0.00013247255992610008, -0.1781928390264511, 0.017327191308140755, 0.1492312252521515, 0.16312645375728607, 0.08052767068147659, 0.06686899065971375], [0.0279717855155468, -0.13430318236351013, -0.21476852893829346, 0.1784978210926056, 0.04561138153076172, 0.005411441437900066, -0.029793664813041687, -0.23337192833423615, -0.07416407763957977, -0.0819779634475708, 0.14232516288757324, -0.14520980417728424, -0.11129935085773468, -0.12107028067111969, -0.10992221534252167, -0.04523094743490219, 0.055842723697423935, 0.03288176655769348, 0.09420853853225708, 0.09891856461763382, 0.1099454015493393, 0.005994569044560194, -0.023838430643081665, -0.017914017662405968, 0.03999540954828262, 0.02231571078300476, -0.023652052506804466, 0.034461475908756256, 0.04335369914770126, -0.0835854560136795, 0.05482079088687897, 0.10829682648181915, 0.14259561896324158, 0.08695052564144135, -0.11132565140724182, -0.037801600992679596, -0.024732131510972977, 0.05216451734304428, 0.04800650477409363, -0.039923105388879776, -0.04123569652438164, 0.1453332155942917, -0.0819726213812828, -0.05058220028877258, -0.06532318890094757, -0.16792170703411102, -0.10790088772773743, 0.12837693095207214, 0.13877540826797485, -6.913185643497854e-05, -0.027647463604807854, -0.057100772857666016, -0.003699277527630329, 0.08559230715036392, -0.030336592346429825, 0.16545230150222778, -0.02314786985516548, 0.15387475490570068, 0.025256933644413948, -0.12708783149719238, -0.09366033226251602, -0.10157104581594467, -0.014930406585335732, -0.022933917120099068], [0.011419910006225109, -0.010549506172537804, -0.05321189761161804, 0.1376185417175293, 0.025826049968600273, 0.09196627140045166, 0.00287810992449522, -0.029027141630649567, -0.005856100469827652, 0.10826465487480164, -0.072578065097332, 0.032026566565036774, -0.17163190245628357, 0.10984299331903458, -0.14364907145500183, 0.07522077858448029, -0.20259511470794678, -0.13677331805229187, -0.014033299870789051, -0.04816842079162598, 0.06265401840209961, -0.10174448788166046, -0.06827385723590851, 0.07161713391542435, -0.09304799139499664, -0.07378895580768585, -0.007883632555603981, 0.020370475947856903, 0.007959151640534401, 0.006922055967152119, 0.01992889866232872, 0.0332208126783371, 0.04624394327402115, -0.09923067688941956, -0.09669402241706848, -0.06261105835437775, -0.10116599500179291, 0.030966361984610558, -0.044909846037626266, 0.058844465762376785, 0.0019257472595199943, -0.03586393967270851, 0.01145857386291027, -0.07138503342866898, -0.18347874283790588, 0.00982646457850933, -0.07868178188800812, 0.02694607898592949, -0.030427515506744385, 0.001898114220239222, -0.08717800676822662, -0.03783317655324936, 0.09140802174806595, -0.080399289727211, -0.017919333651661873, 0.010643457062542439, -0.07555483281612396, -0.028881339356303215, 0.017403483390808105, 0.052800800651311874, 0.017338216304779053, 0.017781171947717667, 0.16882215440273285, -0.11501313000917435], [0.07399751245975494, -0.012661850079894066, 0.0696343407034874, 0.08391135931015015, 0.12485096603631973, 0.05234313756227493, 0.06728316843509674, 0.09628332406282425, -0.14372563362121582, 0.11009122431278229, -0.04147207736968994, -0.1027604341506958, -0.007260642945766449, 0.07321386784315109, -0.011805305257439613, -0.09525807201862335, -0.17447668313980103, -0.061577197164297104, 0.08438368141651154, 0.0454830527305603, 0.07989365607500076, -0.026935052126646042, -0.06627657264471054, -0.019049659371376038, 0.031030986458063126, 0.1678507775068283, 0.10157809406518936, -0.10748139023780823, -0.027658727020025253, 0.06429591774940491, 0.02598460391163826, -0.1678100973367691, -0.15620461106300354, -0.08641743659973145, -0.13908961415290833, -0.061010103672742844, 0.0034676564391702414, 0.06687988340854645, 0.06048519164323807, -0.007379314862191677, 0.011018266901373863, 0.10328146815299988, 0.0897895023226738, 0.08054381608963013, -0.06966084241867065, 0.08163752406835556, -0.11643506586551666, 0.0010695108212530613, -0.06834813952445984, 0.052442923188209534, -0.019749365746974945, -0.12441357970237732, -0.11492381989955902, 0.050346165895462036, -0.11217869818210602, 0.06839625537395477, -0.06569688767194748, 0.005445696413516998, 0.05467173084616661, 0.12532377243041992, -0.07656364887952805, 0.09612433612346649, 0.011250657960772514, 0.1527189016342163], [-0.0676458477973938, 0.011276960372924805, 0.029971787706017494, 0.06414030492305756, 0.11840574443340302, -0.012162023223936558, 0.012963171117007732, 0.03924570232629776, -0.014897165820002556, 0.06046680361032486, 0.06591412425041199, -0.03756892681121826, -0.01056038960814476, -0.06017591804265976, -0.04629858210682869, 0.0680810734629631, -0.0584016814827919, -0.09910042583942413, -0.00770217552781105, 0.0699026882648468, 0.03711182624101639, 0.023286866024136543, -0.04109106585383415, 0.03482072055339813, -0.1560586839914322, 0.04602304846048355, 0.09249411523342133, 0.08734870702028275, -0.09482476860284805, 0.02071385271847248, -0.1451953947544098, -0.09996040910482407, -0.02382304146885872, -0.001739348517730832, 0.07006512582302094, 0.019638055935502052, 0.01471104845404625, 0.052108582109212875, 0.05053819343447685, -0.13359284400939941, -0.06306193768978119, 0.04947371035814285, 0.04889003187417984, -0.038815341889858246, -0.013061328791081905, -0.00815310887992382, -0.039625655859708786, -0.04585813730955124, 0.010998424142599106, 0.05519997328519821, 0.038188010454177856, 0.07836350053548813, 0.09549562633037567, 0.08011848479509354, -0.06404654681682587, 0.21566638350486755, 0.09366338700056076, -0.04532212018966675, 0.01079961471259594, -0.048111166805028915, -0.11837872862815857, 0.09426787495613098, -0.06342951953411102, 0.10155826807022095], [0.027256598696112633, -0.027923569083213806, -0.10186513513326645, 0.05568372830748558, -0.04272215813398361, 0.03788139671087265, 0.07582144439220428, -0.14871561527252197, -0.17381927371025085, 0.04106990247964859, 0.04658414423465729, -0.027747735381126404, 0.01695401966571808, -0.055196717381477356, -0.044975005090236664, 0.15021736919879913, 0.1534043848514557, -0.08364257216453552, 0.0002620113082230091, 0.05672232061624527, -0.12824344635009766, 0.093496173620224, 0.11500003933906555, 0.04647233337163925, 0.012082263827323914, 0.009349890053272247, 0.03506837785243988, -0.09034980088472366, -0.04170604795217514, -0.004336509853601456, 0.19202490150928497, -0.02841268479824066, 0.05558210611343384, 0.09968391060829163, -0.04840867966413498, 0.009467913769185543, -0.12724508345127106, -0.01322559081017971, 0.12190498411655426, -0.14643463492393494, -0.10058347880840302, 0.03432541340589523, -0.04292786866426468, 0.06388088315725327, -0.015070011839270592, 0.06522776186466217, 0.0013269863557070494, -0.0702490359544754, 0.12878751754760742, -0.03676201403141022, -0.1381724774837494, -0.0831693559885025, -0.11559205502271652, -0.07421544194221497, -0.06535356491804123, 0.16627062857151031, 0.0786125510931015, 0.11076101660728455, 0.049133043736219406, 0.06520779430866241, 0.04510672390460968, 0.06138242036104202, -0.20624804496765137, 0.01616627350449562], [-0.0457133948802948, -0.015000562183558941, -0.09001130610704422, 0.08401206135749817, -0.08708541095256805, -0.12566664814949036, 0.0022892425768077374, 0.048285454511642456, -0.02137642540037632, 0.2063165009021759, -0.01325804740190506, -0.018984878435730934, 0.028065182268619537, 0.02955087274312973, -0.14034846425056458, -0.03771015629172325, -0.0067627159878611565, -0.2023106813430786, 0.02111535519361496, 0.12616023421287537, 0.04439111053943634, 0.013392018154263496, 0.0152882756665349, -0.0987585186958313, -0.03498682379722595, 0.052056897431612015, 0.09939933568239212, -0.17232605814933777, -0.021703634411096573, -0.030221985653042793, 0.07105536758899689, 0.006582322530448437, 0.052437182515859604, 0.09688679873943329, 0.042431171983480453, -0.003337705507874489, 0.06207719072699547, 0.1311594843864441, -0.03947201371192932, 0.01301877573132515, -0.01841854862868786, 0.16222384572029114, -0.14993666112422943, -0.039937376976013184, -0.03087439388036728, -0.05817956104874611, -0.06609417498111725, 0.03048720955848694, -0.009103178977966309, -0.029681336134672165, -0.0182946790009737, -0.09905380755662918, 0.0768362432718277, 0.04575714096426964, -0.038644786924123764, 0.05151282995939255, -0.04404549300670624, 0.15100954473018646, -0.06179980933666229, 0.13497167825698853, -0.03154146671295166, -0.13889023661613464, -0.0025655198842287064, 0.0928397923707962], [-0.039868634194135666, -0.04020560905337334, 0.05127788335084915, 0.03563492000102997, 0.09359467029571533, -0.0781712532043457, 0.07011619210243225, -0.03633634001016617, 0.06203397363424301, 0.13004788756370544, -0.07586156576871872, -0.11987821757793427, 0.1655472368001938, -0.1163025051355362, 0.002868320792913437, 0.03843778744339943, 0.11913837492465973, -0.037344664335250854, -0.09704816341400146, -0.10344748198986053, -0.02256832644343376, -0.003662852104753256, -0.0967329815030098, 0.002190900268033147, 0.08524030447006226, 0.01954258605837822, 0.0014268179656937718, -0.04593586176633835, -0.08888980001211166, 0.14297232031822205, -0.011924072168767452, 0.10657577961683273, 0.06407429277896881, 0.09316642582416534, -0.17126163840293884, 0.03856939822435379, -0.0070642028003931046, 0.013982861302793026, -0.002062033163383603, -0.025041257962584496, -0.09508876502513885, -0.018558919429779053, 0.0563763789832592, -0.007349109277129173, -0.040880054235458374, 0.02908916398882866, 0.13347703218460083, -0.013748439960181713, -0.11956780403852463, -0.06849078834056854, 0.02992238849401474, -0.020397929474711418, -0.10316549986600876, 0.1536087989807129, 0.08787853270769119, -0.06148180365562439, -0.036552995443344116, -0.0595804825425148, 0.05419475585222244, 0.03128392994403839, 0.036833152174949646, 0.10666535794734955, 0.08883550763130188, -0.016878541558980942], [-0.03030603751540184, 0.07782377302646637, 0.08695855736732483, -0.12426821887493134, 0.0004947199486196041, 0.024290842935442924, 0.013517121784389019, 0.21308492124080658, 0.03155256062746048, -0.052172787487506866, -0.06613719463348389, 0.05061693117022514, -0.012600058689713478, -0.01861216500401497, -0.15061524510383606, -0.01172669418156147, 0.14302273094654083, 0.05447853356599808, -0.09219074249267578, -0.040065404027700424, -0.07915395498275757, 0.10908877849578857, -0.1103295162320137, -0.12464488297700882, -0.023297028616070747, -0.08777032792568207, -0.056747011840343475, 0.07099510729312897, -0.0017810198478400707, 0.10114169865846634, 0.017699051648378372, 0.11677482724189758, 0.038394588977098465, 0.08050420880317688, -0.029052402824163437, 0.011414571665227413, 0.009690491482615471, 0.026235273107886314, 0.053959593176841736, -0.006676782388240099, -0.006487987004220486, -0.08032254129648209, -0.001080994843505323, -0.00753812538459897, -0.014661411754786968, -0.15198253095149994, 0.09849335998296738, -0.03718094527721405, -0.10205984115600586, -0.1352001130580902, 0.05741848051548004, 0.1684478372335434, 0.0170486681163311, -0.11077064275741577, 0.0740341991186142, -0.09990648925304413, 0.017962263897061348, 0.17580720782279968, 0.025390123948454857, 0.07011788338422775, 0.0008182419114746153, -0.06745357066392899, 0.02877885103225708, 0.11089718341827393], [0.012217173352837563, 0.06042076647281647, 0.10409095883369446, -0.011848999187350273, -0.06970737874507904, 0.07751338928937912, 0.0005606909980997443, 0.047410205006599426, 0.03153388574719429, -0.005067319609224796, 0.13311481475830078, 0.03764910250902176, 0.06729122251272202, -0.08210431039333344, -0.007603196892887354, -0.08744949847459793, -0.030858803540468216, -0.02379141002893448, -0.09005849063396454, -0.04588351026177406, -0.08288472890853882, -0.017370421439409256, -0.15207138657569885, -0.1704399138689041, 0.13463810086250305, 0.057283319532871246, 0.08177656680345535, 0.013734646141529083, -0.0005132684600539505, -0.023069825023412704, -0.0052741412073373795, -0.004449807573109865, -0.1691516488790512, -0.023690585047006607, 0.00614687567576766, -0.03769093379378319, 0.009503986686468124, -0.09394507110118866, 0.01878342777490616, 0.08126650750637054, -0.010964526794850826, 0.0525389164686203, 0.09048909693956375, 0.06916220486164093, -0.11434382200241089, -0.07495220005512238, -0.10642214864492416, 0.08585967123508453, 0.08962944149971008, -0.10624774545431137, 0.20843574404716492, 0.08731959760189056, 0.03626019507646561, -0.07135629653930664, -0.053093329071998596, 0.02233801782131195, 0.006749874912202358, 0.07820303738117218, 0.06743406504392624, -0.11686282604932785, -0.07423085719347, -0.04449418559670448, 0.1218818724155426, -0.032364461570978165], [-0.011671416461467743, -0.0700502097606659, 0.017739884555339813, -0.05914687365293503, -0.06163819134235382, 0.20659443736076355, 0.010935498401522636, -0.1653660237789154, -0.11384736001491547, 0.02258421666920185, 0.1080620288848877, -0.10067087411880493, -0.08922232687473297, -0.029496364295482635, 0.16485831141471863, -0.07428299635648727, -0.0063020410016179085, -0.12282009422779083, -0.032155539840459824, 0.12967485189437866, -0.02802364155650139, 0.03973754122853279, -0.15339207649230957, 0.07398085296154022, -0.05289535969495773, -0.07143686711788177, 0.04755435883998871, -0.25059789419174194, -0.03645770251750946, -0.026665806770324707, 0.017528602853417397, -0.1630207598209381, -0.05298805236816406, -0.10442927479743958, 0.011704988777637482, -0.019709276035428047, 0.0332452654838562, 0.05172846466302872, -0.03412717953324318, 0.026646839454770088, -0.026143023744225502, 0.036762163043022156, -0.09355597198009491, 0.020138248801231384, 0.029888629913330078, 0.1652745008468628, -0.10527963191270828, -0.016391173005104065, -0.048063404858112335, 0.04408447444438934, 0.12132146954536438, 0.006345297209918499, 0.05157720297574997, -0.044852666556835175, -0.045700252056121826, -0.003360358765348792, 0.08842501044273376, 0.10166424512863159, -0.10301323980093002, -0.04138017073273659, -0.017648879438638687, -0.09982535988092422, 0.08722531795501709, -0.10132673382759094], [-0.05867713689804077, -0.04125035181641579, 0.09600761532783508, 0.07638418674468994, -0.1339259296655655, 0.09429815411567688, -0.017044544219970703, -0.012902641668915749, 0.1350063681602478, 0.05221366137266159, -0.0830472782254219, -0.022175701335072517, 0.09513649344444275, -0.1348412036895752, 0.0775534063577652, 0.018576405942440033, -0.14568598568439484, 0.006729260087013245, -0.11336842179298401, 0.1043502688407898, -0.040896691381931305, 0.01478710025548935, 0.05625442415475845, 0.036487918347120285, -0.0045862034894526005, -0.14088061451911926, -0.034585051238536835, -0.0466141402721405, -0.011268055066466331, 0.0857204720377922, 0.2042599618434906, -0.13742566108703613, -0.1467004120349884, 0.012468927539885044, 0.11676648259162903, -0.16382084786891937, -0.02972446009516716, -0.05652061104774475, 0.12206436693668365, -0.020138945430517197, -0.08390097320079803, 0.034326814115047455, 0.08386806398630142, -0.03720865398645401, -0.018451519310474396, 0.046428464353084564, -0.04470672458410263, 0.05026661232113838, 0.01863563060760498, 0.06446236371994019, 0.003843036014586687, -0.06439995020627975, -0.17264777421951294, 0.03146161139011383, -0.06548896431922913, 0.03878317028284073, 0.000277173996437341, -0.006117694079875946, -0.07720643281936646, -0.06442352384328842, 0.11637474596500397, 0.06497706472873688, 0.07867371290922165, -0.03792770206928253], [0.04009171575307846, 0.012151768431067467, 0.08501902222633362, 0.002600631909444928, 0.07739993184804916, -0.12951156497001648, -0.018852677196264267, -0.035311248153448105, -0.19110479950904846, -0.026715677231550217, -0.032714664936065674, -0.01715867593884468, -0.038760147988796234, -0.003044494893401861, -0.022679992020130157, 0.03430591896176338, 0.1204364076256752, -0.055323902517557144, -0.05046482011675835, 0.10563155263662338, -0.017138954252004623, 0.008061008527874947, 0.15942199528217316, 0.08085158467292786, 0.12078680098056793, -0.20680074393749237, 0.1995105743408203, 0.08132829517126083, 0.06080250069499016, -0.0056814816780388355, 0.026827208697795868, -0.10794072598218918, 0.08988811820745468, 0.03929721564054489, -0.011426247656345367, 0.02551502361893654, 0.013037134893238544, -0.033680763095617294, 0.048683129251003265, -0.061650365591049194, -0.020823510363698006, -0.13093940913677216, 0.04151824116706848, 0.14366593956947327, 0.08870536088943481, -0.03545203432440758, 0.09229624271392822, 0.0036080193240195513, 0.07796871662139893, -0.15444596111774445, -0.049776919186115265, 0.06902427226305008, -0.06959817558526993, -0.05133603513240814, 0.07357367873191833, -0.005541949532926083, 0.02877533808350563, 0.14402252435684204, -0.05460476130247116, 0.06817823648452759, 0.10239219665527344, -0.01659514382481575, -0.029268885031342506, -0.03359462320804596], [0.03369472175836563, 0.06599554419517517, -0.049374040216207504, -0.07107197493314743, -0.09468598663806915, -0.041300974786281586, 0.12385328859090805, -0.03869175538420677, -0.218497633934021, -0.14266562461853027, 0.007663290947675705, -0.06860268115997314, -0.13095541298389435, -0.038812845945358276, -0.16843503713607788, -0.03352374583482742, 0.1330718696117401, -0.04108094424009323, 0.018557189032435417, 0.054960936307907104, -0.050760649144649506, 0.20215977728366852, 0.026874415576457977, 0.012180169112980366, 0.017743105068802834, 0.15087774395942688, 0.05959687754511833, 0.013969450257718563, -0.09875552356243134, -0.0646955817937851, 0.05168534070253372, -0.0152712631970644, -0.1142454743385315, -0.04454060643911362, 0.09275513142347336, 0.013094518333673477, 0.07678483426570892, 0.005342305637896061, -0.03237307444214821, 0.003676724387332797, 0.01572631672024727, -0.03924328461289406, 0.04430254548788071, 0.06775641441345215, -0.01958652399480343, -0.1276889443397522, 0.13765977323055267, -0.08477307856082916, 0.08163224160671234, 0.008359527215361595, -0.09053917974233627, -0.08401547372341156, 0.0012020388385280967, 0.0525808185338974, -0.04635947197675705, 0.17375004291534424, 0.11595135927200317, 0.028893422335386276, -0.12616780400276184, 0.014470946043729782, 0.05195840448141098, -0.015502184629440308, 0.06429654359817505, 0.15275222063064575], [0.0571417436003685, -0.09224536269903183, 0.06387318670749664, 0.09524407982826233, -0.0743451714515686, 0.08893826603889465, -0.034365758299827576, 0.0678505077958107, 0.22512346506118774, -0.051895689219236374, 0.038954101502895355, 0.1720937192440033, -0.025865724310278893, 0.15371549129486084, 0.11256518959999084, 0.0159425251185894, 0.0283847376704216, -0.12179017812013626, -0.022960441187024117, 0.00935815554112196, -0.005802851635962725, 0.08975928276777267, -0.01281851064413786, 0.09020233899354935, -0.03665615990757942, 0.09114757180213928, -0.022362828254699707, 0.06449415534734726, -0.022478697821497917, -0.0468735434114933, 0.009752122685313225, -0.02078777551651001, -0.017975136637687683, -0.05545517057180405, 0.04139801114797592, 0.03267544507980347, 0.03849392384290695, 0.03679261729121208, -0.011626781895756721, 0.003675564657896757, 0.07067346572875977, -0.005214965436607599, -0.009423777461051941, -0.13158687949180603, -0.09571711719036102, 0.0014698323793709278, 0.07542930543422699, -0.037490442395210266, -0.022216282784938812, 0.0973561480641365, -0.07320486009120941, -0.05125463753938675, -0.10602101683616638, 0.07287446409463882, 0.004329056479036808, -0.07571424543857574, 0.14179125428199768, -0.1177770271897316, 0.03568503260612488, -0.07484014332294464, 0.03076544962823391, -0.04369709640741348, 0.023227669298648834, -0.01680745743215084], [0.020795239135622978, -0.08350615948438644, 0.07091712951660156, 0.10585525631904602, -0.014412237331271172, 0.03686383366584778, -0.02840682677924633, 0.0029629948548972607, 0.14465665817260742, 0.01635371521115303, 0.08332184702157974, 0.077105313539505, -0.13504517078399658, -0.0397830531001091, 0.01566106453537941, -0.03442694991827011, -0.05336375534534454, -0.020571961998939514, 0.0016154441982507706, -0.08042147755622864, 0.009550435468554497, -0.006838537752628326, 0.05115247890353203, -0.009388524107635021, 0.16504713892936707, 0.011303876526653767, 0.01441570557653904, -0.0292208194732666, -0.038177140057086945, 0.0027944701723754406, 0.062497660517692566, 0.10292863845825195, -0.09203802794218063, -0.08861521631479263, 0.16230449080467224, -0.04539155215024948, 0.04319851100444794, 0.045804452151060104, -0.01804809644818306, -0.03192887455224991, -0.05199911445379257, -0.07328546047210693, -0.01607658341526985, 0.03946167230606079, 0.14533771574497223, -0.056960370391607285, 0.00400066701695323, 0.05290281027555466, 0.022900495678186417, -0.046730250120162964, 0.014509372413158417, -0.02896498702466488, -0.08258837461471558, -0.03456546366214752, 0.008224595338106155, -0.20171639323234558, -0.06733977049589157, 0.06883637607097626, 0.12595972418785095, -0.003477711696177721, 0.056077294051647186, -0.23873808979988098, -0.0022453535348176956, -0.1341865062713623], [-0.07893672585487366, -0.19881431758403778, 0.02181471511721611, 0.06792698055505753, 0.020311549305915833, 0.02468106709420681, -0.0119195356965065, -0.13618354499340057, -0.08958891034126282, -0.046460770070552826, -0.09573547542095184, 0.11735089123249054, -0.015369751490652561, 0.026222892105579376, 0.006388908717781305, 0.06472316384315491, 0.033540334552526474, -0.04628884792327881, 0.03609307110309601, 0.1336139738559723, -0.08986658602952957, 0.024600103497505188, 0.05251070857048035, -0.0974491760134697, 0.035081103444099426, -0.11207745224237442, -0.054131507873535156, -0.04154873266816139, -0.06412214040756226, 0.10989917814731598, 0.08574877679347992, -0.019587013870477676, 0.04517112672328949, 0.010677658021450043, 0.09582126885652542, -0.0011394110042601824, -0.010015498846769333, -0.005843230523169041, 0.05162613466382027, -0.10043872147798538, -0.053323276340961456, 0.13138966262340546, -0.009319279342889786, 0.037049196660518646, -0.06736508011817932, -0.08120124787092209, 0.04879593849182129, -0.022429905831813812, 0.014692776836454868, -0.014534203335642815, 0.1279926300048828, -0.03239236772060394, 0.10509948432445526, 0.050877898931503296, -0.06022581830620766, -0.15461643040180206, 0.09353938698768616, -0.0922633558511734, 0.09338205307722092, 0.030681824311614037, 0.08384502679109573, -0.08151867985725403, 0.0815211832523346, 0.04466969519853592], [0.14247827231884003, -0.09883105754852295, -0.030420474708080292, -0.009093962609767914, -0.11065316945314407, 0.07295522838830948, 0.01747298054397106, -0.14675262570381165, 0.04966484755277634, 0.0201265886425972, 0.06710793077945709, 0.04850099980831146, -0.03117704764008522, -0.034627750515937805, -0.07380221784114838, -0.061083778738975525, -0.026522673666477203, -0.009510086849331856, -0.04421935975551605, 0.04818445444107056, -0.007594853639602661, 0.09840414673089981, -0.13523559272289276, 0.08769173920154572, 0.15313845872879028, 0.03412521630525589, 0.13299129903316498, -0.06368546187877655, 0.20307767391204834, 0.026634156703948975, -0.0020787641406059265, -0.11166320741176605, -0.06363789737224579, -0.04981236904859543, 0.11329999566078186, -0.08791442960500717, -0.05580853670835495, -0.013314488343894482, -0.0494677796959877, 0.03330039605498314, 0.17239949107170105, 0.12365375459194183, -0.15477165579795837, 0.03936786577105522, 0.08199231326580048, -0.039022691547870636, 0.03065907210111618, 0.11126458644866943, 0.03377120941877365, -0.05422256141901016, -0.013620557263493538, -0.055092573165893555, 0.019045185297727585, 0.060603171586990356, -0.004853412508964539, -0.05004341900348663, 0.02771899476647377, -0.06811350584030151, -0.007081296760588884, 0.10395868122577667, 0.028630996122956276, 0.036186583340168, -0.07505643367767334, 0.12899574637413025], [0.14960217475891113, -0.018870454281568527, 0.033693116158246994, 0.08834697306156158, 0.053094375878572464, 0.10679174959659576, -0.033217303454875946, 0.00037398675340227783, -0.015852065756917, 0.045843128114938736, -0.04863866791129112, 0.1134958416223526, -0.0019562654197216034, 0.17285782098770142, 0.08594158291816711, -0.18456129729747772, 0.06382471323013306, -0.024973060935735703, 0.02138034999370575, 0.04408489912748337, 0.011047359555959702, 0.028038010001182556, 0.09957471489906311, -0.032907724380493164, 0.06500750780105591, 0.09397173672914505, -0.050704777240753174, 0.04576914384961128, -0.05437631905078888, -0.009954990819096565, -0.11123774945735931, 0.0524309016764164, -0.02118707075715065, 0.0049444264732301235, 0.0815579891204834, -0.10151210427284241, 0.10808686912059784, -0.17804181575775146, -0.04919742792844772, 0.12359252572059631, -0.049858059734106064, -0.041369277983903885, 0.20859238505363464, -0.005085555836558342, -0.06441238522529602, -0.15377816557884216, -0.12638843059539795, -0.012835845351219177, 0.0032171362545341253, -0.14591823518276215, 0.0641864538192749, -0.08889330178499222, 0.012167779728770256, 0.08270284533500671, -0.12952890992164612, -0.08455660939216614, -0.09778372943401337, 0.0813780128955841, 0.1377934217453003, 0.14062157273292542, -0.034620024263858795, 0.11428547650575638, -0.04249760881066322, -0.09089479595422745], [-0.06926847249269485, -0.03799912706017494, 0.041135914623737335, 0.05664673447608948, 0.009110812097787857, -0.01890050433576107, -0.030395369976758957, 0.029285309836268425, -0.04169005528092384, 0.0892774909734726, -0.06860734522342682, 0.1135648638010025, -0.17156583070755005, -0.022004038095474243, -0.0020282533951103687, 0.04370453953742981, 0.015957428142428398, -0.05687471479177475, 0.09659292548894882, -0.06152820214629173, 0.09759578108787537, 0.19947439432144165, 0.10478858649730682, 0.050707049667835236, -0.011547506786882877, 0.025352805852890015, -0.18682080507278442, -0.04034405201673508, 0.13706408441066742, -0.12106119096279144, -0.22142848372459412, 0.03124901093542576, 0.037667084485292435, -0.03117465041577816, -0.10002639144659042, 0.026914916932582855, -0.0012370088370516896, -0.025913706049323082, -0.09303072094917297, -0.021941516548395157, 0.15925347805023193, 0.024894798174500465, 0.038860101252794266, -0.07505287230014801, -0.11801041662693024, 0.22217799723148346, 0.0011533626820892096, 0.057277437299489975, -0.08048874884843826, -0.014409486204385757, -0.048464056104421616, -0.009502820670604706, -0.0580672025680542, 0.02392602525651455, -0.10381200164556503, 0.008670073002576828, 0.025016339495778084, -0.04173632711172104, -0.03670345991849899, -0.010558081790804863, 0.051476821303367615, -0.04082565754652023, 0.08860985934734344, 0.009021399542689323], [-0.08740069717168808, 0.05283036828041077, 0.11065110564231873, 0.16882896423339844, -0.02461150661110878, -0.06239087134599686, 0.11731040477752686, -0.11378861963748932, 0.017995094880461693, 0.0830395445227623, -0.006762191187590361, -0.0744430422782898, 0.057788409292697906, 0.01481451652944088, 0.015499401837587357, 0.14651185274124146, 0.0516975037753582, -0.02139553800225258, -0.019295718520879745, 0.07284675538539886, 0.0021444163285195827, -0.17563657462596893, 0.1571882665157318, 0.1312081515789032, -0.0637298971414566, -0.04365472123026848, 0.00783537607640028, 0.21944938600063324, -0.015332246199250221, 0.1312718689441681, 0.11023561656475067, -0.14912238717079163, 0.1266534924507141, 0.006237609311938286, -0.11432453244924545, -0.1199006512761116, 0.14681002497673035, -0.008186922408640385, -0.018072476610541344, -0.012770559638738632, 0.020871607586741447, -0.16809730231761932, -0.014279504306614399, -0.10513470321893692, 0.035856835544109344, -0.039681512862443924, -0.04320386424660683, -0.08225812017917633, -0.000579207087866962, 0.08351485431194305, -0.10045845061540604, 0.10663967579603195, -0.01440186146646738, -0.018135985359549522, 0.03830737620592117, 0.09261465072631836, -0.11202733218669891, -0.045054126530885696, 0.0951540395617485, -0.042019158601760864, -0.0709608942270279, 0.15168114006519318, 0.11187300086021423, 0.03446003794670105], [0.0476544052362442, 0.030804339796304703, 0.06620071083307266, -0.018416352570056915, 0.08700548112392426, 0.054696887731552124, 0.0895153060555458, -0.028891518712043762, 0.025179371237754822, -0.012795071117579937, 0.04286623001098633, -0.042833879590034485, -0.164789617061615, 0.17834287881851196, 0.042709432542324066, -0.06744586676359177, -0.03157214820384979, -0.15277352929115295, 0.11238212883472443, -0.08431974053382874, -0.030440079048275948, -0.008970025926828384, 0.04787901043891907, 0.17288769781589508, 0.035551369190216064, -0.06234624609351158, -0.0202131737023592, -0.15100334584712982, 0.027886953204870224, 0.03321192413568497, 0.035024434328079224, -0.0281327236443758, 0.06463798880577087, -0.004435701295733452, -0.033787284046411514, 0.11957799643278122, -0.022812440991401672, -0.07667558640241623, 0.022625308483839035, 0.035948239266872406, -0.05799507349729538, 0.12212401628494263, 0.03267670422792435, 0.020892804488539696, 0.1109091192483902, 0.11752258241176605, -0.11708769202232361, -0.08510688692331314, -0.1063418984413147, -0.1887817531824112, -0.1364138424396515, -0.013994257897138596, -0.11596444994211197, 0.021361377090215683, -0.16649970412254333, 0.062431082129478455, -0.020691510289907455, -0.08595946431159973, 0.014633053913712502, -0.10109253227710724, 0.20746909081935883, 0.022033395245671272, -0.14156244695186615, 0.07907412201166153], [0.13228966295719147, 0.0797753855586052, -0.12612515687942505, 0.11773037910461426, 0.012249700725078583, -0.09589467942714691, 0.05312316119670868, -0.07425262778997421, 0.13005036115646362, -0.030760588124394417, 0.1923033893108368, 0.13032931089401245, 0.08660707622766495, -0.024312365800142288, -0.060387998819351196, 0.10168494284152985, 0.05180905759334564, 0.02948255091905594, -0.09578543901443481, -0.07676051557064056, 0.01748984307050705, -0.018722843378782272, -0.0596928671002388, -0.010873038321733475, -0.10296910256147385, 0.08163590729236603, -0.0725477784872055, 0.02264457754790783, -0.012431668117642403, -0.053929343819618225, -0.04154404252767563, -0.06300048530101776, 0.2055778205394745, 0.04223230108618736, 0.12225364148616791, -0.07332905381917953, 0.04258275777101517, -0.061884649097919464, 0.0030480753630399704, 0.017001498490571976, 0.2020011842250824, 0.07692986726760864, 0.10163453221321106, 0.002034775447100401, 0.07131379842758179, 0.13088761270046234, 0.08272823691368103, -0.02106042578816414, -0.028275787830352783, 0.0021610166877508163, 0.13030119240283966, 0.11146676540374756, -0.020788025110960007, -0.010259956121444702, -0.06324895471334457, 0.14728909730911255, 0.06741853803396225, 0.12411432713270187, 0.04047973453998566, -0.04390307888388634, 0.060757264494895935, -0.07445983588695526, -0.006139122880995274, 0.001312007661908865], [-0.10821066796779633, -0.16749966144561768, -0.22185051441192627, 0.13531750440597534, -0.08129417896270752, 0.07160548120737076, -0.0519346222281456, -0.028125014156103134, 0.12623918056488037, 0.010301349684596062, -0.0427115336060524, 0.1562577188014984, 0.10614019632339478, -0.11207437515258789, 0.13385920226573944, -0.09853872656822205, 0.011117575690150261, 0.0895691066980362, 0.020288459956645966, -0.19743359088897705, 0.011739188805222511, 0.04664654657244682, -0.14034630358219147, 0.02286718413233757, -0.0683424323797226, -0.11636210232973099, -0.01182915735989809, -0.10469397902488708, 0.05175177752971649, 0.059684060513973236, 0.05868837237358093, -0.07827478647232056, -0.015083979815244675, -0.09040714800357819, 0.08263397216796875, -0.026251042261719704, -0.04097531735897064, 0.04686585068702698, 0.07299338281154633, 0.052855078130960464, -0.1392430067062378, 0.012415086850523949, -0.11624930799007416, 0.04173991084098816, -0.12893469631671906, -0.1013033390045166, -0.06708139181137085, -0.02623843401670456, -0.06508627533912659, 0.10818572342395782, 0.07213887572288513, -0.1761142462491989, -0.016435209661722183, 0.14421264827251434, -0.015911828726530075, 0.03291085362434387, -0.07400913536548615, 0.2152595967054367, 0.07132653892040253, 0.0179448202252388, -0.006821844726800919, -0.16832253336906433, -0.11208811402320862, -0.03410254791378975], [0.0806480199098587, -0.09201880544424057, -0.14844083786010742, 0.0709429457783699, 0.044029295444488525, 0.1233612522482872, -0.20030948519706726, 0.11180703341960907, 0.012878399342298508, -0.011043675243854523, 0.059600651264190674, 0.11628430336713791, -0.00031246483558788896, 0.08416582643985748, -0.02974233403801918, 0.009707912802696228, -0.17870666086673737, -0.07635187357664108, -0.05932558327913284, 0.003995779901742935, 0.04350850731134415, -0.006019242107868195, 0.021140947937965393, 0.10443663597106934, -0.051784057170152664, 0.07332783937454224, -0.025943219661712646, 0.16763836145401, -0.0158655047416687, -0.07404491305351257, 0.0744076520204544, 0.03478504344820976, -0.11847729980945587, 0.0673103928565979, -0.07015163451433182, -0.027694780379533768, 0.015594666823744774, -0.05747205391526222, -0.01570820063352585, 0.07948881387710571, 0.04297489672899246, 0.04566662013530731, 0.09971217811107635, -0.12285104393959045, 0.023276666179299355, 0.03201647847890854, 0.17445698380470276, 0.004984338767826557, -0.01973835751414299, -0.12876702845096588, -0.0518176406621933, -0.029889844357967377, 0.13639381527900696, 0.10358748584985733, -0.021259775385260582, 0.08258433640003204, 0.01371954195201397, -0.04376163333654404, 0.032960545271635056, -0.0071946666575968266, 0.03686073422431946, 0.14592598378658295, 0.01583862118422985, 0.10792094469070435], [0.032737985253334045, 0.05254380404949188, -0.08926887810230255, -0.0039016304071992636, -0.048197560012340546, 0.11022988706827164, -0.02373121678829193, -0.062417514622211456, 0.11078165471553802, 0.07357781380414963, -0.004733476787805557, 0.046513985842466354, 0.17488999664783478, 0.19031304121017456, -0.17673271894454956, 0.03404899686574936, -0.09991427510976791, -0.08232329785823822, -0.027105536311864853, -0.01237449236214161, 0.04268810525536537, -0.08643950521945953, -0.0005238942103460431, 0.08361320197582245, 0.07672600448131561, -0.11715773493051529, -0.06848390400409698, 0.1463223695755005, 0.013190137222409248, -0.026583734899759293, 0.01293118018656969, -0.0011401325464248657, 0.01702774688601494, -0.06480966508388519, 0.22281160950660706, 0.052707359194755554, 0.11921229213476181, -0.09185558557510376, 0.008703097701072693, 0.043510131537914276, 0.049524687230587006, 0.11813302338123322, -0.001925143995322287, -0.06780664622783661, 0.15822012722492218, -0.06571469455957413, -0.005656483117491007, 0.02136838808655739, 0.08502422273159027, -0.009008632972836494, -0.18518781661987305, 0.10404105484485626, -0.04090195521712303, -0.030168632045388222, 0.013073651120066643, -0.04446900635957718, 0.044781643897295, -0.03571963682770729, 0.07276009023189545, 0.12121263146400452, -0.0535106360912323, 0.05498402193188667, 0.08269797265529633, 0.07581712305545807], [-0.023972991853952408, 0.03344961255788803, -0.06119292974472046, -0.14464831352233887, 0.10887950658798218, 0.07828450202941895, -0.002489898819476366, -0.04467882961034775, 0.11325211822986603, -0.09492909908294678, -0.021689675748348236, 0.07592524588108063, 0.061778780072927475, 0.00606928113847971, 0.03894501179456711, 0.042974092066287994, 0.012798716314136982, -0.019458789378404617, -0.013324994593858719, 0.05488627031445503, 0.09743195027112961, 0.020392727106809616, 0.026342643424868584, -0.059175509959459305, 0.09980767220258713, -0.03943554311990738, 0.04769670218229294, 0.10676944255828857, -0.12363211065530777, -0.2322506308555603, 0.02666494995355606, 0.121548131108284, -0.12680365145206451, 0.12199410796165466, 0.10948675125837326, 0.061882421374320984, 0.1354246288537979, -0.007273584604263306, -0.00029365153750404716, -0.011976838111877441, -0.023895373567938805, -0.10075923055410385, 0.02509482018649578, -0.05880182236433029, -0.06611241400241852, 0.03930839151144028, -0.02950942888855934, -0.02455102652311325, 0.0051053413189947605, 0.1950608193874359, -0.052010998129844666, 0.22187499701976776, -0.11288534849882126, -0.18475784361362457, -0.06592636555433273, 0.07538817077875137, 0.1298692524433136, -0.010678129270672798, -0.03624144569039345, -0.0010226446902379394, 0.05679702013731003, 0.11651420593261719, 0.023641102015972137, -0.10134071111679077], [0.04436936229467392, 0.08149339258670807, 0.07370127737522125, -0.015750199556350708, -0.1630982756614685, 0.03529295325279236, 0.010189332067966461, -0.1267680823802948, 0.04439285397529602, -0.02175140008330345, 0.003754038829356432, 0.024342747405171394, -0.10941527783870697, 0.07255050539970398, 0.04929482191801071, 0.02800176851451397, 0.060117438435554504, -0.05603686720132828, -0.123365119099617, 0.05173565447330475, -0.021467551589012146, 0.02500411868095398, -0.10985858738422394, -0.16773052513599396, 0.05846421793103218, 0.11388009786605835, -0.028332294896245003, 0.03779367357492447, 0.0979919582605362, -0.02392818033695221, -0.018254335969686508, -0.06981898099184036, 0.04828568920493126, -0.1544969379901886, -0.048165157437324524, 0.01964363269507885, 0.08226103335618973, -0.07419075071811676, -0.1369093507528305, -0.06773574650287628, -0.026082482188940048, -0.04132743179798126, 0.06190791726112366, 0.02033141814172268, -0.07114237546920776, 0.15358427166938782, -0.11132857203483582, 0.026307452470064163, -0.03423648327589035, 0.05304327607154846, -0.032805267721414566, -0.04508586600422859, 0.0656760036945343, 0.08445129543542862, -0.02054307609796524, -0.02565900981426239, -0.1320982575416565, 0.2876371443271637, 0.09398887306451797, 0.11048923432826996, 0.01586204394698143, 0.12421538680791855, -0.13630446791648865, 0.05041271448135376], [-0.11411083489656448, -0.023776911199092865, -0.09198009222745895, -0.010605016723275185, -0.016537467017769814, 0.027202609926462173, -0.11735550314188004, -0.030714059248566628, -0.1003464087843895, -0.017566509544849396, -0.010552043095231056, -0.0709349662065506, 0.02546679601073265, 0.05897282436490059, 0.1573064625263214, 0.045563071966171265, 0.10335791110992432, -0.08170383423566818, 0.0732380598783493, 0.055129870772361755, -0.07638580352067947, 0.018828997388482094, -0.1028437539935112, -0.037144407629966736, 0.07803806662559509, 0.05554189532995224, -0.00970832072198391, -0.021619677543640137, 0.1036854237318039, 0.10455015301704407, 0.06191890686750412, -0.09251689910888672, -0.1648217737674713, 0.16293570399284363, -0.08272488415241241, -0.016481444239616394, 0.040010370314121246, -0.0004230293561704457, -0.11985120922327042, -0.08481625467538834, 0.09746559709310532, 0.06398797780275345, 0.05736498534679413, -0.052585650235414505, -0.11149177700281143, -0.0066960761323571205, 0.056152522563934326, 0.015964575111865997, -0.07331836223602295, -0.23262819647789001, -0.04744706302881241, -0.030677294358611107, -0.10093360394239426, -0.1369834840297699, -0.11461858451366425, -0.08327841758728027, -0.061784520745277405, -0.13782113790512085, -0.08269396424293518, 0.06030787527561188, -0.04059752821922302, 0.06374572217464447, 0.04626292735338211, -0.01914396323263645], [-0.1308964192867279, -0.050339385867118835, 0.06563866138458252, 0.10856524109840393, 0.03471016883850098, 0.06499606370925903, 0.11243702471256256, 0.06953153014183044, -0.13700637221336365, 0.1105610653758049, -0.023271143436431885, -0.07531973719596863, -0.0009718634537421167, 0.19312141835689545, 0.017091479152441025, 0.025667419657111168, -0.02243887633085251, 0.04457712173461914, 0.10502094030380249, 0.06711415201425552, 0.17057885229587555, -0.04504270479083061, 0.13565918803215027, 0.03754294663667679, -0.18462857604026794, 0.0800786018371582, 0.06787614524364471, 0.08056077361106873, 0.1415387988090515, -0.03154705837368965, -0.05798298493027687, -0.08282721042633057, 0.06599001586437225, -0.04400934278964996, -0.09916317462921143, -0.15772998332977295, -0.1340428590774536, -0.12932132184505463, -0.07794550061225891, 0.027814369648694992, 0.05243638530373573, -0.1071276068687439, 0.06261889636516571, -0.07197291404008865, -0.028619982302188873, -0.06732523441314697, 0.0641079917550087, -0.0299004465341568, 0.0684986412525177, 0.012786993756890297, -0.13751904666423798, -0.022571856155991554, -0.15372881293296814, 0.050636403262615204, -0.056142278015613556, 0.08269257843494415, 0.17850205302238464, 0.04332390055060387, 0.10009600222110748, 0.11509416997432709, -0.017575740814208984, -0.16745951771736145, -0.06529775261878967, -0.0017954676877707243], [0.09966924041509628, -0.12240064144134521, 0.05129335820674896, -0.26784056425094604, 0.06815789639949799, 0.004939243663102388, -0.05872616171836853, 0.10678540915250778, -0.03266152739524841, 0.028324376791715622, -0.06272061169147491, -0.20048581063747406, -0.007380851078778505, -0.11867326498031616, 0.09027650952339172, 0.1806529462337494, -0.06860583275556564, 0.012603373266756535, 0.0999567061662674, 0.0999065563082695, -0.0667819082736969, -0.11628282815217972, 0.061040911823511124, -0.04271144047379494, -0.022807344794273376, -0.09321077167987823, -0.08155877143144608, -0.08112163096666336, 0.022189179435372353, 0.1125154197216034, -0.04986656457185745, -0.04800622537732124, -0.06625723838806152, -0.020965564996004105, -0.02489463984966278, -0.047433994710445404, 0.06552912294864655, 0.25562047958374023, 0.004045280162245035, -0.08406154811382294, 0.1599029302597046, -0.0240795761346817, 0.010105622932314873, 0.0632748007774353, -0.02613537758588791, 0.096413254737854, 0.020280787721276283, -0.1926034688949585, -0.07045389711856842, -0.031063221395015717, -0.019433319568634033, -0.042878273874521255, 0.061484359204769135, 0.01327071525156498, -0.06253739446401596, -0.07702191174030304, 0.038909636437892914, -0.026715725660324097, 0.002871548291295767, -0.07032842934131622, -0.03180856257677078, 0.02843942865729332, 0.032965924590826035, -0.004002227447926998], [-0.05811098590493202, 0.009460313245654106, -0.1089705377817154, -0.1537783145904541, -0.09257097542285919, -0.10679439455270767, 0.12204188108444214, -0.11160054802894592, 0.06882661581039429, 0.03857415169477463, -0.02963355928659439, 0.07657375931739807, 0.05232660844922066, 0.014698104001581669, 0.16127118468284607, -0.07825834304094315, -0.14961595833301544, 0.054946258664131165, -0.06440938264131546, -0.19629532098770142, -0.0413324348628521, -0.10868522524833679, -0.005487514194101095, -0.1724325567483902, 0.0506952702999115, -0.06595412641763687, -0.1093837320804596, 0.07055293023586273, 0.08158861100673676, -0.07224462926387787, -0.043804287910461426, -0.012553030624985695, -0.0324634313583374, -0.017939159646630287, -0.009166565723717213, 0.012206805869936943, -0.0919741839170456, 0.14924666285514832, -0.13584455847740173, 0.038742974400520325, 0.10483089089393616, -0.07872180640697479, -0.10519855469465256, -0.06034967303276062, 0.10904017090797424, -0.08956891298294067, 0.0629776269197464, -0.0108430664986372, 0.03322186321020126, 0.11491171270608902, 0.013578299432992935, 0.09599827229976654, -0.08501093834638596, -0.04777935519814491, 0.05141887441277504, -0.11957637220621109, -0.039443597197532654, 0.02712313085794449, -0.03894641622900963, -0.08237379789352417, -0.1295417994260788, 0.03460416942834854, 0.20060975849628448, -0.09148718416690826], [-0.0540907122194767, -0.07300445437431335, 0.15353162586688995, -0.0363258421421051, 0.019409790635108948, -0.09397638589143753, -0.03904473036527634, 0.1066373884677887, -0.014032335951924324, -0.07169173657894135, 0.011979671195149422, 0.16109396517276764, -0.05778048560023308, 0.16898199915885925, -0.1587333083152771, 0.06635676324367523, 0.00014169083442538977, -0.09436972439289093, -0.2540028393268585, 0.08266150951385498, -0.05037222057580948, -0.022656232118606567, -0.029475003480911255, 0.0257707592099905, 0.0927315354347229, -0.1555328369140625, 0.024701904505491257, -0.03514070436358452, 0.05699879303574562, 0.06117383390665054, -0.03226593881845474, 0.035574205219745636, -0.09518557786941528, 0.09450232982635498, -0.10516899824142456, -0.0426655188202858, 0.11479470133781433, -0.08685184270143509, -0.05406662076711655, -0.009375086985528469, 0.07386205345392227, 0.0009464772883802652, -0.08233697712421417, -0.07043793797492981, -0.08804208785295486, 0.11400958150625229, 0.0796256810426712, 0.14252665638923645, 0.042992427945137024, -0.11388137191534042, -0.07642509043216705, -0.02571467123925686, -0.08773475885391235, 0.027815528213977814, 0.1555376499891281, 0.02624538354575634, -0.05047135427594185, 0.08913687616586685, -0.12145519256591797, 0.03203039616346359, -0.01214318536221981, 0.010625728406012058, -0.05619565397500992, 0.013876005075871944], [0.04853963479399681, -0.014121346175670624, 0.1421070247888565, -0.042795248329639435, 0.046433523297309875, -0.01542919222265482, -0.02474994957447052, -0.07403591275215149, -0.0757456049323082, 0.047042347490787506, 0.026640867814421654, -0.0033199628815054893, 0.06727686524391174, 0.0037936940789222717, 0.06312118470668793, 0.08939065039157867, -0.19865700602531433, -0.027227196842432022, -0.02541297674179077, -0.19120252132415771, 0.22853434085845947, 0.06416592001914978, 0.054048940539360046, -0.0557711161673069, -0.03157363831996918, -0.008484454825520515, 0.029704835265874863, -0.04404255002737045, 0.001938711036927998, -0.06615637242794037, 0.05233769491314888, 0.008052684366703033, -0.053476732224226, 0.1371876448392868, 0.06877943873405457, -0.042684406042099, 0.015802869573235512, -0.007856408134102821, 0.10372567921876907, -0.1532626748085022, -0.1273667812347412, 0.001386845950037241, 0.08615420758724213, -0.03483601659536362, -0.02305280603468418, 0.029434870928525925, 0.0067304642871022224, -0.004379219841212034, 0.006087207235395908, -0.007073684595525265, 0.030209798365831375, -0.08441676199436188, -0.035669587552547455, 0.02337665669620037, 0.12762823700904846, 