[{"speed": 1.2787087237097339, "turn_angle": 26.33400075480253, "model_weights": [[[0.03286463022232056, -0.15453970432281494, -0.11384314298629761, -0.05031833052635193, 0.13065370917320251, 0.06821207702159882, -0.014733152464032173, 0.03092689998447895, -0.1786423623561859, -0.03143691644072533, -0.042775653302669525, 0.05105525627732277, 0.00961749441921711, -0.03293848782777786, -0.030457565560936928, -0.025287266820669174, -0.03167319297790527, 0.10865262150764465, -0.17932438850402832, -0.08845598995685577, 0.08959995955228806, -0.09246857464313507, 0.023152487352490425, -0.07727715373039246, 0.01314316876232624, 0.1081833615899086, -0.1701146364212036, -0.03741716593503952, -0.09228137135505676, 0.15270358324050903, -0.21269941329956055, -0.08090177178382874, -0.0841108188033104, 0.15720081329345703, 0.2407202124595642, 0.12164914608001709, 0.19367434084415436, -0.2435057908296585, 0.025705348700284958, -0.0358734056353569, -0.03543680161237717, -0.08127138018608093, -0.1780254989862442, 0.029247429221868515, 0.1452057957649231, 0.13907088339328766, 0.0009180433116853237, 0.01397496834397316, 0.1168573796749115, 0.14738526940345764, 0.0020722639746963978, -0.05981966480612755, -0.03072861023247242, 0.08118894696235657, 0.13017064332962036, 0.09609275311231613, 0.1183883547782898, -0.03070417046546936, 0.03525906801223755, 0.06345784664154053, -0.011884600855410099, -0.006747267208993435, -0.2557520866394043, -0.024672584608197212], [0.019596748054027557, 0.12089692056179047, -0.05282121151685715, 0.15942391753196716, 0.10433939099311829, -0.14683043956756592, 0.18594792485237122, 0.009430918842554092, 0.13818785548210144, -0.05186114087700844, -0.08142280578613281, 0.024717217311263084, 0.11123226583003998, -0.22638922929763794, 0.024158749729394913, 0.1063133180141449, -0.026568077504634857, 0.07880468666553497, 0.1519014537334442, -0.02421675994992256, 0.1207277923822403, 0.015681277960538864, -0.2536691427230835, -0.044424306601285934, 0.02053992450237274, -0.11018668860197067, -0.11535096168518066, 0.08157852292060852, 0.06251540035009384, 0.04920697957277298, -0.04024351388216019, 0.005069844424724579, -0.25314995646476746, 0.1444217711687088, 0.02561391517519951, 0.04493317753076553, 0.0016735941171646118, -0.006745616905391216, 0.03200157731771469, 0.008031305857002735, -0.09801225364208221, 0.05245020613074303, -0.06789399683475494, 0.16522356867790222, 0.0013135354965925217, 0.06762301921844482, -0.13139602541923523, -0.23008427023887634, 0.05161769315600395, 0.04057595133781433, 0.20869071781635284, -0.017088530585169792, 0.027869850397109985, -0.10281139612197876, 0.06568842381238937, -0.03181497007608414, -0.06653496623039246, 0.0041804262436926365, -0.11297193169593811, -0.01838007941842079, -0.1599791795015335, -0.016188250854611397, 0.1503293365240097, -0.055431172251701355], [-0.10816869139671326, -0.028999561443924904, -0.020899001508951187, 0.026092465966939926, 0.02267634868621826, 0.11682482808828354, 0.07192810624837875, 0.031144937500357628, -0.04209613800048828, -0.03346696496009827, -0.16761544346809387, -0.0004885774105787277, 0.11364167928695679, -0.10682651400566101, 0.14269199967384338, -0.17371585965156555, 0.15243671834468842, 0.009615246206521988, -0.11769923567771912, 0.031210487708449364, -0.016025973483920097, 0.012598994188010693, -0.107801154255867, -0.02388441562652588, 0.0987066775560379, -0.07894539833068848, 0.09578726440668106, -0.17116831243038177, -0.05666113644838333, 0.10064350068569183, 0.055998943746089935, -0.1779288500547409, -0.03199628368020058, 0.13760951161384583, -0.09440702944993973, 0.050248418003320694, 0.17972545325756073, 0.11266525089740753, 0.02142173796892166, 0.046451225876808167, 0.19887100160121918, 0.07713019102811813, 0.032659873366355896, 0.11508143693208694, -0.02983282320201397, -0.05069392919540405, -0.016005396842956543, -0.06923457980155945, -0.08868219703435898, -0.14120760560035706, -0.1531064510345459, 0.15220119059085846, -0.05286220833659172, -0.019005386158823967, -0.010162604041397572, 0.11265970021486282, -0.011936753988265991, -0.16609956324100494, 0.09334753453731537, -0.07880484312772751, -0.006532847881317139, 0.14269842207431793, 0.20179304480552673, -0.06294389069080353], [-0.01971108838915825, 0.048842765390872955, 0.033117495477199554, -0.16647323966026306, 0.035457294434309006, -0.19182723760604858, -0.11087152361869812, 0.08963113278150558, -0.008403973653912544, 0.07366973161697388, 0.06050349771976471, 0.061307646334171295, -0.07123007625341415, 0.12578676640987396, 0.11473086476325989, -0.10251607745885849, -0.11089064180850983, 0.03355430066585541, -0.01839074306190014, 0.11626695841550827, -0.04423690214753151, 0.04115200787782669, -0.016253236681222916, -0.2098933756351471, -0.02928047440946102, -0.13909611105918884, -0.05087253078818321, 0.1299668550491333, 0.09100809693336487, -0.1380399465560913, 0.10960406064987183, -0.11021652817726135, 0.11192891746759415, -0.10482397675514221, -0.14714740216732025, -0.05540991947054863, 0.07543781399726868, 0.04680885747075081, -0.08883922547101974, -0.07360244542360306, 0.1323862373828888, -0.14772042632102966, -0.1695673167705536, -0.01450258120894432, -0.19583266973495483, -0.05791689082980156, 0.2949136197566986, -0.16855284571647644, -0.12508371472358704, -0.12324865162372589, 0.15624022483825684, 0.111817367374897, 0.05189245566725731, -0.031081054359674454, -0.05039254203438759, -0.039175063371658325, -0.158064603805542, -0.11866530030965805, 0.03451898694038391, 0.02280222624540329, 0.14923453330993652, 0.10818664729595184, -0.0739775151014328, -0.08054612576961517], [0.0076777879148721695, 0.020247574895620346, 0.009087590500712395, -0.1088273748755455, 0.07329865545034409, 0.04024168848991394, 0.08020344376564026, -0.010569983161985874, -0.005977589637041092, 0.07561878859996796, -0.04773461073637009, -0.009167959913611412, -0.006743299309164286, 0.022106222808361053, -0.11757270991802216, -0.05647740885615349, 0.09214147925376892, -0.06420460343360901, -0.08896757662296295, 0.036791980266571045, 0.074690081179142, 0.04121971130371094, -0.018309008330106735, 0.0005512903444468975, -0.1316841095685959, -0.10396921634674072, -0.0029331021942198277, 0.15263472497463226, -0.030373388901352882, 0.19205617904663086, 0.05860324203968048, -0.15226414799690247, 0.12241093069314957, 0.01012774184346199, 0.0064741456881165504, 0.05868624150753021, -0.25187674164772034, -0.2099912166595459, 0.00365543644875288, -0.13123047351837158, 0.09163392335176468, -0.008229793980717659, 0.004655323922634125, -0.04302847012877464, -0.016797032207250595, -0.14309079945087433, 0.004381699953228235, -0.02500048838555813, -0.11670100688934326, 0.08980825543403625, 0.03275185078382492, 0.05662146955728531, -0.10939258337020874, 0.04508814588189125, 0.08274868130683899, 0.1821376234292984, -0.02120201289653778, 0.025290852412581444, -0.024787021800875664, 0.029555266723036766, -0.07279711216688156, 0.18719856441020966, 0.08615628629922867, -0.18302173912525177], [0.05371084436774254, -0.10753540694713593, -0.10126354545354843, -0.2313796877861023, 0.047632038593292236, 0.12485971301794052, 0.06912991404533386, 0.05531253293156624, -0.006564486771821976, 0.11281094700098038, -0.23089934885501862, 0.0012598601169884205, 0.02256440743803978, 0.09131817519664764, -0.05415913462638855, -0.10741202533245087, 0.000890274066478014, -0.24144697189331055, 0.09487771987915039, -0.03485572338104248, -0.0857471227645874, 0.05792025104165077, 0.0028767534531652927, -0.14572249352931976, 0.1712365448474884, 0.14869476854801178, -0.12317896634340286, 0.0077171893790364265, -0.06593306362628937, 0.10561849176883698, 0.0723281055688858, -0.09294246137142181, -0.032189011573791504, -0.07150308042764664, 0.0442880243062973, 0.10502421110868454, -0.05404595285654068, 0.04195281118154526, 0.034035611897706985, -0.06646795570850372, 0.12522049248218536, -0.042841844260692596, -0.19628426432609558, 0.0562191978096962, -0.043276458978652954, 0.05606802925467491, -0.09334924817085266, -0.138987198472023, -0.018063804134726524, 0.03280965983867645, -0.08413442969322205, -0.008379125967621803, -0.1190766841173172, 0.18013952672481537, 0.08827215433120728, -0.1262221485376358, 0.06910469383001328, 0.07374140620231628, -0.01957547664642334, 0.12649662792682648, 0.30272141098976135, 0.11916496604681015, -0.03698936104774475, 0.000657450407743454], [-0.13730783760547638, 0.022808674722909927, 0.08382196724414825, 0.022485770285129547, 0.06113429740071297, 0.003915783949196339, 0.0017819562926888466, 0.008626922965049744, -0.07522401213645935, -0.1564461886882782, 0.05185523256659508, -0.21185381710529327, -0.012353301048278809, -0.08525089174509048, 0.1223374456167221, -0.13633780181407928, 0.09754807502031326, 0.021241474896669388, 0.1991673707962036, -0.04581470787525177, 0.035148318856954575, -0.026921553537249565, 0.05549897998571396, -0.06233888864517212, -0.16971872746944427, 0.37605199217796326, 0.09080125391483307, -0.0826335921883583, 0.02185051515698433, -0.008445881307125092, -0.06593279540538788, 0.04043387249112129, -0.03784870728850365, -0.004048358649015427, 0.003935538232326508, -0.02595493569970131, -0.013831024058163166, 0.13702824711799622, 0.05501689016819, -0.017478380352258682, 0.043245553970336914, -0.3047013282775879, -0.022676268592476845, 0.13585954904556274, 0.010052354075014591, -0.008140556514263153, -0.033626943826675415, 0.09391240030527115, -0.08239218592643738, -0.16164140403270721, -0.02338111773133278, 0.1089043989777565, 0.024560928344726562, 0.0023061707615852356, 0.02361210808157921, -0.002310141921043396, 0.01924540288746357, 0.0230247899889946, -0.16026964783668518, 0.17732208967208862, -0.02144293300807476, -0.06207383796572685, -0.1070835068821907, -0.10140369832515717], [-0.08978977054357529, 0.1637430489063263, 0.14811483025550842, 0.026385756209492683, -0.07039254158735275, 0.03461182862520218, 0.0878228023648262, -0.05158982425928116, 0.035478975623846054, 0.08529793471097946, 0.11716575920581818, -0.02094084769487381, -0.14764834940433502, -0.05616296827793121, -0.07434853911399841, 0.031339846551418304, -0.03015921264886856, -0.014834444969892502, -0.04059320688247681, 0.031486134976148605, 0.022377759218215942, -0.049685634672641754, 0.23392602801322937, 0.057464443147182465, -0.011055156588554382, 0.16501179337501526, -0.018464719876646996, -0.059567149728536606, -0.02529824897646904, 0.10155562311410904, 0.04185933247208595, -0.039614517241716385, 0.043090224266052246, -0.10137210786342621, -0.17677108943462372, 0.019353237003087997, 0.023329727351665497, 0.15578147768974304, 0.03528088331222534, -0.11658979207277298, -0.07597977668046951, -0.14572352170944214, 0.21472595632076263, -0.11763839423656464, 0.1035255640745163, -0.01456854585558176, 0.07052531838417053, -0.07889385521411896, 0.1299653798341751, -0.05262226611375809, -0.11052142083644867, -0.0017528627067804337, 0.010878673754632473, 0.059013646095991135, -0.10127100348472595, -0.05744166299700737, 0.03661631792783737, -0.0606410950422287, 0.001994644058868289, -0.008444054052233696, -0.03189308941364288, 0.03555659204721451, -0.15415604412555695, -0.09725295752286911], [0.14632664620876312, 0.019235024228692055, 0.02462169900536537, -0.10673587769269943, 0.05294127017259598, 0.09385404735803604, 0.013758901506662369, -0.028915653005242348, 0.03502121567726135, -0.06244617700576782, -0.03862252086400986, 0.027961144223809242, 0.059338733553886414, -0.1769130527973175, -0.17774736881256104, -0.12225509434938431, -0.06654296815395355, -0.029301639646291733, 0.03578592836856842, 0.08460777252912521, 0.022574562579393387, -0.11828450113534927, 0.08535902202129364, 0.03754565119743347, 0.0808728039264679, -0.031177440658211708, -0.1915724277496338, -0.2254003882408142, 0.0739685446023941, 0.0573166124522686, 0.01929383911192417, -0.07918611168861389, -0.11414247751235962, 0.09858456999063492, -0.09550900012254715, -0.022570528090000153, 0.05496641620993614, -0.05109294503927231, -0.04293057322502136, 0.10332321375608444, -0.042212314903736115, 0.0789492279291153, 0.08722008764743805, -0.02673451229929924, -0.15128977596759796, -0.0036855172365903854, -0.15813077986240387, -0.032917238771915436, -0.004037894308567047, 0.22254705429077148, 0.08892660588026047, -0.10792937874794006, -0.1498427391052246, -0.09852602332830429, 0.08442174643278122, 0.05592799559235573, 0.01798385940492153, 0.022104205563664436, -0.0026765158399939537, 0.02114998921751976, -0.04592277109622955, -0.1298931986093521, -0.018832977861166, 0.0911167562007904], [0.027585286647081375, 0.06704045087099075, -0.02641231194138527, -0.05297314003109932, 0.0864509865641594, -0.020818546414375305, -0.08686783164739609, -0.13304124772548676, -0.05794919282197952, -0.0246734581887722, 0.07201589643955231, -0.00630202516913414, 0.05802293121814728, -0.002609800547361374, -0.0958203375339508, 0.08861837536096573, 0.020677823573350906, 0.24447277188301086, -0.06108802929520607, -0.17388468980789185, -0.14269086718559265, 0.039200492203235626, 0.05981765314936638, 0.07036158442497253, 0.02177102491259575, 0.01207921002060175, -0.004032755270600319, -0.16582490503787994, -0.19482438266277313, 0.08330045640468597, -0.006890650372952223, -0.19220086932182312, -0.11255740374326706, 0.08365900814533234, 0.24809753894805908, -0.1951654702425003, -0.0707605704665184, -0.05543184280395508, 0.04294007271528244, 0.087077796459198, -0.03933577239513397, 0.08456366509199142, 0.028420984745025635, 0.14076238870620728, -0.0306136142462492, 0.08210361748933792, -0.189653217792511, 0.2369469404220581, 0.10557287931442261, 0.006817513145506382, -0.004638040438294411, 0.022677995264530182, 0.008763485588133335, 0.1127837598323822, -0.20764978229999542, 0.12579968571662903, -0.061412543058395386, 0.060425736010074615, -0.07126004993915558, -0.042825885117053986, 0.13885630667209625, 0.036215100437402725, 0.010783092118799686, 0.08411327749490738], [0.05257406085729599, 0.17324978113174438, 0.07850208133459091, 0.02908974513411522, 0.021417006850242615, 0.05973588302731514, 0.10526531934738159, -0.0874907448887825, 0.005504211410880089, 0.1769263595342636, -0.08490274846553802, -0.04428212344646454, -0.1300770491361618, -0.032171331346035004, -0.1048603504896164, 0.18722102046012878, 0.011776074767112732, -0.005181931424885988, 0.048938628286123276, -0.01487275306135416, -0.009622911922633648, 0.08361315727233887, 0.2080533802509308, -0.06087033823132515, 0.046351976692676544, 0.06274683028459549, -0.19479866325855255, -0.03128577768802643, 0.11398177593946457, -0.011017470620572567, 0.04171997308731079, -0.00263049453496933, -0.13043901324272156, -0.007836214266717434, 0.07683847844600677, -0.09175583720207214, 0.07260621339082718, -0.06586247682571411, 0.0032533928751945496, -0.07226891815662384, -0.1248161792755127, -0.05887618288397789, -0.26188451051712036, 0.16079379618167877, -0.027005719020962715, 0.10669921338558197, 0.01485888846218586, 0.02958754263818264, -0.16150018572807312, -0.006093285977840424, -0.07918181270360947, 0.2419756054878235, -0.060145650058984756, -0.06767627596855164, -0.07142031937837601, 0.11488533020019531, -0.049921177327632904, 0.03373105451464653, 0.025065762922167778, -0.13183923065662384, -0.0054338350892066956, -0.0072903940454125404, -0.13037662208080292, -0.19458743929862976], [0.04358574002981186, -0.10698847472667694, -0.12635496258735657, 0.020572427660226822, -0.10387621074914932, -0.007378075271844864, -0.09479200839996338, 0.1842048466205597, 0.10207661986351013, -0.08383257687091827, -0.07371928542852402, -0.03504802659153938, -0.12994791567325592, -0.04481922835111618, -0.08978056162595749, 0.00874808058142662, -0.0349641814827919, -0.06978552043437958, -0.1732783019542694, 0.07534458488225937, 0.10320062190294266, -0.023029103875160217, 0.020604407414793968, -0.07697879523038864, -0.20338433980941772, 0.0179535374045372, 0.09305961430072784, 0.14922067523002625, 0.05366397649049759, -0.053855687379837036, 0.09823694825172424, -0.0007750466465950012, 0.09428904205560684, 0.09257953613996506, -0.13627317547798157, -0.09683381021022797, 0.20747588574886322, -0.07361450791358948, -0.07202839851379395, -0.05279451981186867, 0.06362821906805038, -0.09462856501340866, -0.024943087249994278, -0.08491512387990952, 0.11398933827877045, -0.070013627409935, 0.06940335035324097, -0.043638087809085846, 0.003735937178134918, -0.08986152708530426, -0.013679631054401398, -0.06223471090197563, 0.014692991971969604, -0.30030399560928345, 0.08084883540868759, -0.14530056715011597, 0.090010866522789, 0.16910535097122192, 0.033202163875103, -0.20034991204738617, 0.10995279252529144, 0.08812519162893295, 0.09095706045627594, -0.16050130128860474], [-0.09710197150707245, -0.08433797955513, 0.08040431141853333, 0.1005234494805336, -0.262478768825531, 0.10915066301822662, -0.1237257570028305, 0.14387722313404083, -0.12868967652320862, 0.036986496299505234, -0.1787268966436386, 0.029440009966492653, -0.014045623131096363, -0.06353535503149033, -0.12840823829174042, -0.024058500304818153, 0.08014503121376038, 0.16685467958450317, -0.08972352743148804, -0.10833223909139633, 0.1876702904701233, -0.10440374165773392, -0.061125822365283966, 0.10968290269374847, 0.17984719574451447, -0.07727092504501343, 0.20027950406074524, 0.194112628698349, -0.047868791967630386, -0.13694339990615845, 0.2466508448123932, -0.016512759029865265, -0.03409197926521301, -0.003158561885356903, -0.1372869312763214, 0.0028271195478737354, -0.022043781355023384, 0.1511947065591812, 0.1262502521276474, 0.0006486212369054556, -0.008704333566129208, 0.03907233476638794, -0.08214542269706726, -0.15209783613681793, -0.013346489518880844, 0.21535968780517578, -0.015731943771243095, -0.16305851936340332, 0.13762181997299194, -0.03650299087166786, 0.04095262661576271, -0.11076715588569641, -0.12623095512390137, 0.00968414917588234, 0.1323043256998062, -0.06043623387813568, 0.09787718206644058, -0.010637197643518448, -0.058943748474121094, 0.07507617026567459, 0.07730138301849365, 0.01701236329972744, 0.07058282196521759, -0.1890847086906433]], [-0.16194581985473633, -0.08125386387109756, 0.15425227582454681, -0.015848472714424133, -0.04276709258556366, 0.10800327360630035, -0.10903486609458923, -0.07118222117424011, -0.018316801637411118, 0.11103265732526779, -0.06772506237030029, -0.07656563818454742, 0.03484545648097992, 0.15465980768203735, 0.11963224411010742, -0.0495465025305748, 0.005753288511186838, -0.01295231468975544, 0.06823694705963135, 0.014136354438960552, -0.015225958079099655, -0.05381800979375839, 0.048690468072891235, -0.030101869255304337, 0.00935350451618433, 0.08905314654111862, -0.06281084567308426, 0.005029433406889439, -0.0023453310132026672, -0.05712857097387314, 0.12222635000944138, -0.06565015763044357, -0.01417604461312294, 0.07122793048620224, -0.01855381205677986, 0.018083281815052032, 0.005394487641751766, -0.010340063832700253, 0.006776382215321064, 0.003204555483534932, 0.039773233234882355, -0.03588422015309334, -0.00027613528072834015, 0.006709203124046326, 0.009910119697451591, 0.014265600591897964, -0.026517163962125778, -0.0677153691649437, -0.032032087445259094, -0.03470423072576523, -0.00208253669552505, 0.09605681151151657, 0.024859055876731873, -0.052629031240940094, 0.03517134115099907, -0.013309041038155556, 0.024025533348321915, -0.0366826131939888, 0.024570683017373085, 0.06140252202749252, 0.014031515456736088, 0.05079605430364609, 0.17398571968078613, -0.0017790046986192465], [[-0.04446156322956085, -0.03968290612101555, -0.1559971123933792, -0.05891396850347519, 0.04646807163953781, -0.054391372948884964, -0.11250004172325134, -0.067531518638134, -0.17369680106639862, 0.07011102139949799, -0.010464256629347801, 0.1259445995092392, 0.011338550597429276, -0.07626943290233612, -0.06580044329166412, 0.051772672683000565, 0.19106167554855347, -0.011893297545611858, 0.05257047712802887, 0.06600899249315262, 0.19930467009544373, 0.012937359511852264, -0.037654995918273926, -0.14962980151176453, 0.05141833797097206, 0.06245739012956619, 0.10012388974428177, -0.014256158843636513, -0.07734280079603195, -0.06668722629547119, 0.0027677901089191437, -0.0264753345400095, -0.04212034493684769, 0.08066216111183167, 0.12930788099765778, -0.0021082283928990364, 0.007385041564702988, 0.0459696426987648, -0.06353601813316345, -0.07913316041231155, 0.09653505682945251, -0.04885352402925491, -0.018120503053069115, 0.08237512409687042, -0.16173453629016876, -0.042506828904151917, -0.06683458387851715, -0.10036793351173401, 0.026964403688907623, 0.036746297031641006, -0.12208732962608337, 0.0321701355278492, -0.0791362002491951, -0.02054395154118538, 0.24080702662467957, -0.10113374888896942, 0.05958595871925354, -0.22253085672855377, -0.06825399398803711, 0.09045593440532684, -0.12586709856987, 0.03662852570414543, -0.07898405194282532, -0.03342440724372864], [0.10354185104370117, -0.0014500059187412262, 0.0030622524209320545, 0.066961869597435, 0.0975072979927063, 0.14983998239040375, -0.06648197770118713, 0.10072235018014908, 0.04269006475806236, 0.04286631569266319, -0.05512910336256027, -0.040384434163570404, 0.061134204268455505, 0.1405562311410904, 0.05397060513496399, 0.04992134869098663, 0.10645780712366104, 0.20098957419395447, -0.13684388995170593, -0.04209182783961296, -0.011843990534543991, -0.09846274554729462, -0.1288004070520401, -0.03415288031101227, 0.08406651020050049, -0.06936207413673401, -0.11017875373363495, -0.04524451121687889, -0.16814884543418884, -0.0981646180152893, 0.08851766586303711, 0.06084880977869034, 0.10630936920642853, 0.1353817731142044, 0.05460269749164581, 0.0388362817466259, -0.046622104942798615, 0.10076939314603806, -0.04851406067609787, 0.02437945455312729, 0.1390523761510849, -0.15725716948509216, -0.043835170567035675, -0.07503806054592133, -0.012033079750835896, -0.002291128970682621, 0.06701492518186569, 0.02137656696140766, -0.019708862528204918, -0.1506013572216034, 0.044122785329818726, -0.18827036023139954, 0.0888991728425026, 0.02471911907196045, -0.04899609088897705, 0.043126314878463745, 0.0793381929397583, 0.1699262410402298, 0.060578182339668274, 0.057645250111818314, 0.24313390254974365, -0.06912604719400406, -0.11197231709957123, -0.1463538557291031], [0.04071544110774994, -0.17819379270076752, 0.04052717238664627, 0.08354993909597397, -0.03529071807861328, -0.2662844657897949, -0.13293391466140747, -0.021642642095685005, 0.05635635554790497, -0.05680371820926666, 0.029303312301635742, -0.13163800537586212, 0.054477445781230927, -0.05929189547896385, -0.166301429271698, 0.1375592201948166, -0.061645857989788055, -0.04271336644887924, -0.012452978640794754, 0.02007156051695347, 0.19338595867156982, 0.004070211201906204, -0.06155962496995926, -0.0003486946225166321, 0.07780276238918304, 0.008273819461464882, -0.052560821175575256, -0.07974721491336823, 0.04941299185156822, -0.1947472095489502, -0.027748093008995056, -0.05056487023830414, -0.02710213139653206, 0.06268288940191269, 0.1677863895893097, -0.042842939496040344, -0.03738292306661606, 0.06910376995801926, -0.19960442185401917, 0.1284208595752716, -0.007989762350916862, 0.0815884992480278, -0.018169201910495758, -0.019545042887330055, -0.20643523335456848, -0.03145798668265343, -0.009624427184462547, 0.08250913769006729, 0.23124776780605316, -0.1448180377483368, -0.008214964531362057, -0.013868953101336956, 0.029744746163487434, 0.05308961495757103, -0.07161884009838104, -0.1607227772474289, 0.053636547178030014, -0.07984229177236557, -0.026662008836865425, -0.03477810323238373, -0.06449079513549805, 0.10545045137405396, -0.03868553042411804, 0.18872743844985962], [0.09719866514205933, -0.01635677181184292, -0.013119335286319256, -0.046729058027267456, 0.07350713759660721, 0.1091163158416748, -0.11034685373306274, -0.0020254170522093773, 0.10081367194652557, 0.057497601956129074, -0.12875501811504364, 0.11978010833263397, -0.08499092608690262, 0.02670583687722683, 0.006271688267588615, 0.19655919075012207, -0.0008497382514178753, -0.08222288638353348, 0.09840963780879974, -0.13295072317123413, -0.1008550301194191, -0.02698242850601673, -0.06753997504711151, 0.12945595383644104, -0.1366749256849289, 0.16100570559501648, 0.05379597097635269, 0.06926985830068588, -0.15397198498249054, -0.016491491347551346, -0.08666862547397614, -0.18128514289855957, 0.15714222192764282, 0.0849958062171936, -0.09972938895225525, -0.08513491600751877, 0.0006763606797903776, -0.014949304983019829, 0.12969821691513062, -0.28012484312057495, -0.09917138516902924, 0.039141688495874405, -0.02908247895538807, -0.09184162318706512, 0.040535327047109604, 0.10374771058559418, 0.032279010862112045, -0.036269620060920715, 0.10304705053567886, 0.0544818714261055, 0.09102633595466614, -0.05087333917617798, 0.05070466548204422, -0.09126110374927521, -0.075966976583004, 0.11875300109386444, 0.08597421646118164, 0.13093885779380798, 0.11532409489154816, 0.053458571434020996, -0.097126305103302, 0.09002115577459335, -0.010328734293580055, 0.02896171808242798], [-0.01667362079024315, -0.040334269404411316, -0.17047575116157532, -0.04383540898561478, 0.008496681228280067, 0.0715104416012764, -0.07036291062831879, 0.0036603696644306183, -0.040877893567085266, 0.060488052666187286, -0.09498877823352814, -0.10459768772125244, 0.13849446177482605, 0.08821924030780792, -0.049387238919734955, 0.10163009166717529, -0.07433547079563141, -0.023966480046510696, 0.03392630070447922, 0.004719452001154423, -0.11509018391370773, -0.035368725657463074, -0.05100243166089058, 0.16695831716060638, 0.16064266860485077, -0.03429875150322914, 0.007283229846507311, 0.0453847236931324, 0.11983998864889145, -0.0510728545486927, -0.044224850833415985, 0.024229932576417923, -0.06690840423107147, -0.005504751577973366, 0.05234824866056442, 0.12522323429584503, -0.08835479617118835, 0.09377878904342651, 0.054646849632263184, -0.05170254409313202, -0.2518230974674225, 0.07724127173423767, -0.036705125123262405, -0.04776030033826828, 0.23318147659301758, -0.04626429080963135, 0.029244182631373405, -0.02969180792570114, 0.05889974161982536, 0.040377479046583176, 0.09310442209243774, 0.11583755165338516, -0.004248612094670534, -0.08598584681749344, 0.14032365381717682, -0.003193240612745285, -0.013265964575111866, -0.15686792135238647, -0.045401014387607574, -0.2496018260717392, 0.0558544285595417, 0.15432307124137878, -0.02744406834244728, -0.07659260928630829], [0.11127278953790665, 0.06994422525167465, 0.06014449894428253, 0.012622794136404991, -0.0007922740187495947, -0.07747255265712738, -0.1752612590789795, 0.07112137973308563, -0.05346192419528961, 0.01046840101480484, -0.09607138484716415, -0.020147809758782387, -0.05378974229097366, -0.04410389065742493, -0.013387810438871384, -0.035351548343896866, -0.09968873858451843, -0.07596416771411896, 0.12513285875320435, 0.08865651488304138, 0.06456077098846436, 0.04209291189908981, 0.10475172102451324, -0.009482252411544323, -0.06579804420471191, -0.04694204032421112, 0.02982836402952671, 0.005934346932917833, -0.19917680323123932, -0.021198727190494537, -0.12815988063812256, -0.22482481598854065, -0.12759649753570557, -0.0753990039229393, -0.09798116236925125, -0.005233955103904009, 0.0012180646881461143, 0.052045512944459915, -0.042263127863407135, -0.1058490127325058, 0.10583199560642242, -0.06096135452389717, -0.09365566074848175, 0.014443501830101013, 0.1643560528755188, 0.05259297788143158, 0.06489425152540207, 0.1160055622458458, 0.1320096254348755, -0.06672170758247375, -0.06418504565954208, -0.028621412813663483, 0.013477222062647343, 0.017045345157384872, 0.07158522307872772, 0.10301029682159424, -0.018570292741060257, 0.1463034451007843, -0.09945997595787048, -0.020981717854738235, 0.01115080900490284, 0.13190141320228577, -0.02069275639951229, 0.08352508395910263], [-0.009783688932657242, -0.03913604095578194, 0.0636894702911377, -0.1182558611035347, 0.04290490597486496, -0.1841447502374649, 0.008562864735722542, -0.1283365935087204, -0.17207515239715576, -0.04080940783023834, -0.055201079696416855, 0.16172897815704346, -0.08394069224596024, -0.1195787638425827, -0.11244183778762817, -0.004954557865858078, 0.038106098771095276, 0.021291062235832214, -0.10341298580169678, -0.1430816501379013, -0.19572138786315918, 0.08220072835683823, -0.04706306755542755, -0.10791812092065811, -0.10086116939783096, 0.08304369449615479, 0.07538384944200516, 0.03292715549468994, 0.08984891325235367, 0.06885035336017609, 0.05326765403151512, 0.05949292331933975, -0.07637656480073929, -0.11986715346574783, -0.027930159121751785, -0.1007794514298439, -0.056010521948337555, 0.059966690838336945, 0.049985527992248535, -0.13993635773658752, 0.07697566598653793, -0.04165780916810036, -0.07717174291610718, -0.09780211746692657, -0.004512639716267586, -0.05471516773104668, -0.04388457536697388, 0.020635312423110008, 0.041100937873125076, -0.012738971039652824, 0.0690358430147171, -0.005038034170866013, -0.13306984305381775, 0.13317015767097473, 0.03283733129501343, 0.024256031960248947, 0.03544026240706444, 0.08400404453277588, 0.08742453157901764, 0.014878076501190662, -0.0063771530985832214, -0.017766382545232773, -0.03778642416000366, -0.23839150369167328], [-0.06216920539736748, -0.2412087619304657, 0.08570019900798798, 0.058761198073625565, -0.06602028757333755, 0.013863401487469673, 0.026637885719537735, 0.05551920458674431, 0.08649568259716034, -0.08527831733226776, 0.09430033713579178, -0.0069776736199855804, 0.00705217570066452, 0.06384371221065521, -0.0496472492814064, 0.1419609636068344, 0.01675116829574108, 0.09245160222053528, -0.005468422081321478, -0.06657746434211731, -0.010881737805902958, -0.027290230616927147, 0.049694743007421494, 0.027641374617815018, -0.07881174236536026, 0.017796698957681656, 0.0608133003115654, 0.0838700458407402, -0.0319235622882843, -0.18420644104480743, 0.14480429887771606, -0.06781670451164246, -0.22623693943023682, 0.0035421475768089294, 0.031983308494091034, -0.18842969834804535, 0.0374932661652565, 0.09645815193653107, 0.05379284918308258, 0.08187602460384369, 0.11811362951993942, 0.14692482352256775, -0.185469850897789, -0.10231243073940277, 0.009569702669978142, -0.10180393606424332, -0.0676950216293335, 0.1290035992860794, -0.010036787018179893, 0.030952855944633484, 0.02394455298781395, -0.13913467526435852, -0.14112070202827454, 0.05584784597158432, -0.1318424642086029, 0.0700111910700798, -0.020407330244779587, 0.07478713244199753, -0.04913569614291191, 0.11645177006721497, 0.036759838461875916, -0.12607654929161072, -0.02640063315629959, 0.09357957541942596], [0.012977315112948418, 0.0796874612569809, -0.028398822993040085, -0.14874877035617828, 0.037450239062309265, 0.1350427269935608, 0.10664688795804977, 0.04644431173801422, -0.04625209793448448, -0.020820677280426025, 0.009425869211554527, 0.05707608163356781, 0.0799846351146698, -0.032127801328897476, -0.060834851115942, 0.15671229362487793, -0.15273058414459229, 0.06416865438222885, 0.15371671319007874, 0.04772457480430603, 0.2792150378227234, 0.039253562688827515, 0.051283951848745346, -0.00952167995274067, 0.037109434604644775, -0.06361354887485504, 0.03269607946276665, 0.0197613425552845, -0.13398896157741547, 0.05558526888489723, -0.08967695385217667, 0.013708974234759808, -0.05831281095743179, 0.02882865071296692, -0.20522955060005188, -0.06457380205392838, 0.05343075096607208, 0.13997402787208557, -0.0002445150166749954, -0.15461784601211548, -0.013253693468868732, 0.08161710202693939, -0.02452804706990719, -0.05550423637032509, -0.004832267761230469, 0.04436592012643814, 0.17363351583480835, 0.06052021682262421, 0.011735549196600914, -0.14337140321731567, 0.0491282120347023, 0.195223867893219, 0.0021508336067199707, -0.03181091323494911, -0.04623454809188843, 0.038499727845191956, 0.07201413065195084, 0.06693356484174728, -0.03473658114671707, 0.028957989066839218, 0.05321720987558365, -0.06676754355430603, 0.023458201438188553, 0.04566916823387146], [0.11544010043144226, 0.05562605336308479, -0.011686616577208042, 0.05805598944425583, -0.045082882046699524, -0.03834276646375656, 0.021944627165794373, 0.04359294846653938, -0.1836852729320526, -0.09304599463939667, -0.03270018845796585, 0.1666453778743744, 0.03938983380794525, -0.013147737830877304, -0.06250660121440887, -0.04112248495221138, 0.12777552008628845, -0.002071179449558258, 0.050930023193359375, -0.04366646334528923, 0.055579714477062225, -0.0006033256649971008, 0.01812855899333954, -0.00223911227658391, 0.00867813266813755, -0.06810213625431061, 0.08215378224849701, -0.08751054853200912, 0.0044916183687746525, 0.1970086693763733, 0.08577704429626465, 0.14396855235099792, -0.15340334177017212, 0.17254848778247833, 0.03458292409777641, 0.03997015208005905, 0.02891584299504757, 0.03484039008617401, -0.048772089183330536, -0.13896726071834564, 0.14642392098903656, -0.10278524458408356, -0.04242604970932007, -0.18170103430747986, -0.06759409606456757, -0.046929895877838135, -0.022937387228012085, -0.1254623532295227, 0.010961253196001053, -0.08250558376312256, -0.06911003589630127, 0.009637691080570221, -0.01614164561033249, 0.03961126506328583, 0.07563507556915283, 0.1685158610343933, 0.022816887125372887, -0.03656716272234917, -0.16717159748077393, 0.09017986804246902, 0.09934133291244507, -0.08138660341501236, 0.040581028908491135, 0.055392708629369736], [0.05860333889722824, -0.11637809872627258, 0.0769391879439354, -0.08432787656784058, 0.04116591438651085, -0.09589070826768875, -0.2065611183643341, 0.06347992271184921, 0.15294429659843445, -0.029398765414953232, -0.06305030733346939, -0.03366381302475929, 0.12442448735237122, -0.03122090920805931, 0.12024129182100296, -0.04979604482650757, -0.023239534348249435, -0.07716456055641174, 0.29337555170059204, -0.08369363844394684, 0.1697191298007965, -0.057570502161979675, -0.07248178124427795, 0.08730722963809967, 0.2147739827632904, -0.12059497833251953, 0.06924043595790863, 0.1397569328546524, -0.014633335173130035, 0.041772566735744476, -0.007502539083361626, 0.055976495146751404, -0.03799530491232872, 0.22704222798347473, -0.18221217393875122, 0.03690262511372566, -0.18071085214614868, 0.062574103474617, -0.08022921532392502, -0.08513114601373672, 0.11487297713756561, -0.015547897666692734, 0.03682514280080795, 0.05757075920701027, -0.16612854599952698, -0.0461423322558403, 0.0354856438934803, 0.1490117609500885, 0.05286933481693268, -0.12323606759309769, -0.00014364393427968025, 0.013031117618083954, 0.05638383328914642, 0.15214955806732178, -0.09046399593353271, 0.027525348588824272, 0.002360692247748375, 0.04302053898572922, -0.17879056930541992, 0.01808628812432289, 0.09901687502861023, -0.019651828333735466, 0.023998837918043137, 0.1496303230524063], [0.08882828056812286, -0.11401475965976715, 0.006446404382586479, 0.06166679784655571, -0.09618215262889862, -0.01673947274684906, 0.02282789722084999, -0.06623788923025131, -0.07970494776964188, 0.08707912266254425, -0.10792732983827591, -0.06408688426017761, 0.07110908627510071, -0.09153416752815247, 0.15342018008232117, -0.06775559484958649, -0.20817172527313232, -0.10633515566587448, -0.13889199495315552, 0.031067408621311188, -0.006104658357799053, -0.15316864848136902, -0.050142962485551834, 0.023685768246650696, -0.13852845132350922, 0.07678039371967316, 0.09398441016674042, -0.045788224786520004, -0.11944770812988281, -0.04270029440522194, 0.021481351926922798, -0.004355534911155701, -0.025363042950630188, -0.02989724837243557, 0.008417478762567043, -0.07728251069784164, 0.0211739931255579, -0.10760554671287537, -0.15081147849559784, 0.12850770354270935, -0.04390278086066246, 0.08225573599338531, -0.04270070791244507, 0.07522620260715485, -0.048246998339891434, 0.17004738748073578, 0.006321576423943043, -0.029793068766593933, 0.1408146470785141, -0.09770745038986206, 0.18921396136283875, 0.10550251603126526, 0.1607491821050644, -0.17254360020160675, -0.1279204785823822, -0.003586378414183855, -0.021688757464289665, -0.05271664634346962, 0.1570189893245697, 0.09406952559947968, -0.05520818009972572, -0.023155199363827705, -0.1612100601196289, 0.044653452932834625], [0.0469234324991703, -0.03456985205411911, -0.03330084681510925, 0.016416268423199654, -0.10246746242046356, 0.03910258412361145, -0.02840636856853962, 0.014528422616422176, -0.09835340082645416, -0.08094745874404907, -0.007647092454135418, 0.09756076335906982, 0.06102782115340233, -0.11420271545648575, -0.10704942047595978, 0.012201203033328056, -0.024533435702323914, -0.05119912326335907, -0.05284487456083298, -0.01124747097492218, 0.06701524555683136, 0.07451879978179932, 0.1175224557518959, -0.05278849974274635, 0.0872693732380867, -0.001624660100787878, -0.1534535139799118, -0.015980396419763565, 0.01901916414499283, -0.11324530839920044, -0.029306689277291298, -0.05514798313379288, -0.053350433707237244, -0.00636010617017746, 0.0301421657204628, 0.1325637400150299, 0.03454861417412758, -0.014756624586880207, 0.2120818793773651, -0.04650137573480606, -0.022327817976474762, -0.006683209910988808, -0.14251232147216797, -0.006405464839190245, 0.0678185224533081, -0.057921238243579865, 0.06798732280731201, -0.07034715265035629, -0.11138420552015305, 0.11518985033035278, -0.04823813587427139, -0.05647316575050354, -0.337797075510025, -0.12799358367919922, 0.06755587458610535, -0.05199822783470154, 0.05947168171405792, 0.016503149643540382, -0.08382267504930496, 0.0617215670645237, 0.04234258085489273, -0.020924037322402, 0.11289040744304657, 0.12847214937210083], [0.18733647465705872, -0.06866833567619324, -0.028110980987548828, 0.06654926389455795, 0.10422591120004654, -0.10310328006744385, -0.009311122819781303, -0.03256934881210327, 0.06629573553800583, 0.030107002705335617, -0.02460235357284546, -0.010316097177565098, 0.13235676288604736, 0.1517612785100937, 0.07717212289571762, 0.030877334997057915, 0.028623342514038086, -0.061885081231594086, -0.0016765100881457329, 0.041047774255275726, -0.0782918855547905, 0.08762463182210922, 0.05088377743959427, -0.13634084165096283, -0.043151549994945526, -0.10025158524513245, -0.01477285660803318, -0.0706029087305069, -0.040124766528606415, 0.024651575833559036, 0.11760438233613968, -0.004661163315176964, -0.04913749918341637, -0.05683397501707077, -0.04826686531305313, 0.007880166172981262, 0.023401306942105293, -0.05786419287323952, 0.03666500747203827, 0.03784631937742233, -0.0862431526184082, 0.06867066025733948, 0.059988394379615784, 0.044036123901605606, 0.04196227714419365, -0.007764216512441635, 0.07249251008033752, 0.12067386507987976, 0.12490140646696091, -0.07876370847225189, 0.0012769806198775768, 0.14306017756462097, -0.007436662912368774, -0.044075723737478256, 0.06275642663240433, 0.09310896694660187, -0.10480467975139618, -0.05183599889278412, -0.050980664789676666, -0.15581613779067993, -0.018190229311585426, -0.023249883204698563, 0.05828576162457466, 0.10516807436943054], [0.04018581658601761, 0.05306195467710495, -0.11578872799873352, -0.12438793480396271, 0.04913961887359619, -0.11415164172649384, 0.033002931624650955, -0.07693861424922943, -0.12747298181056976, 0.06724616885185242, -0.08039852231740952, -0.04027557373046875, 0.043215252459049225, -0.07579484581947327, 0.09066711366176605, 0.10153906792402267, 0.12906421720981598, -0.02329123765230179, 0.0924319326877594, -0.06119544059038162, 0.0758717954158783, -0.11418880522251129, 0.013187210075557232, -0.011887582018971443, -0.046591490507125854, -0.10031723976135254, 0.16186140477657318, 0.004409477114677429, 0.08359226584434509, -0.19347137212753296, -0.058167241513729095, -0.07512380182743073, -0.057948075234889984, -0.006821963004767895, 0.023918146267533302, -0.16448870301246643, -0.03086189180612564, -0.024140112102031708, -0.01238824613392353, -0.09834417700767517, 0.0344378799200058, -0.026472438126802444, 0.01712753064930439, 0.07897520065307617, 0.1911778599023819, -0.0355721153318882, -0.01552862673997879, 0.0787605345249176, 0.06686295568943024, -0.10005445778369904, -0.05411234125494957, -0.15466676652431488, -0.009597714990377426, 0.06219682842493057, -0.020071696490049362, 0.12486632913351059, 0.07349754869937897, 0.24127836525440216, -0.04884029179811478, -0.05112403631210327, -0.05778741091489792, -0.21268737316131592, 0.09846387803554535, 0.05050372704863548], [0.0645161047577858, 0.052034322172403336, 0.03539738431572914, 0.1433212012052536, -0.16281607747077942, 0.0588429793715477, -0.06993474811315536, -0.04029712826013565, -0.016942640766501427, 0.10249529778957367, -0.18748030066490173, -0.19110353291034698, -0.15777888894081116, 0.1961584836244583, 0.08744661509990692, -0.1207306832075119, -0.19714179635047913, -0.14551343023777008, 0.01282813586294651, -0.03457114100456238, -0.15154370665550232, -0.1691969484090805, -0.14123904705047607, -0.03332564979791641, 0.10659293830394745, 0.09618263691663742, 0.15714724361896515, -0.019681667909026146, -0.09488126635551453, -0.03194452077150345, 0.16411015391349792, -0.0012284209951758385, -0.21698009967803955, -0.06557382643222809, -0.05504119396209717, -0.046898990869522095, -0.02728828229010105, -0.047888703644275665, -0.03477317839860916, 0.03583523631095886, -0.1299421638250351, -0.020757857710123062, 0.031523462384939194, -0.10105346888303757, 0.0211175549775362, 0.32873332500457764, -0.010670065879821777, -0.05884025990962982, -0.02797776088118553, -0.015828829258680344, 0.07960653305053711, 0.014620732516050339, 0.15187086164951324, -0.11701386421918869, 0.011274956166744232, 0.2379923164844513, -0.11679215729236603, -0.09672125428915024, -0.019383739680051804, -0.08183395862579346, 0.03065798059105873, 0.07269982993602753, 0.061889421194791794, 0.030889011919498444], [0.042589493095874786, -0.15441593527793884, 0.14761552214622498, -0.04821077734231949, 0.021369313821196556, -0.08149398863315582, -0.1503160148859024, -0.04651801288127899, 0.05736790597438812, -0.0876772403717041, -0.07586777955293655, -0.013130437582731247, 0.027325088158249855, -0.0774577334523201, 0.07097336649894714, 0.1333221048116684, 0.01048677135258913, 0.16839298605918884, -0.0593133270740509, -0.01779787614941597, -0.06618040055036545, -0.13589414954185486, -0.03336992859840393, -0.11601002514362335, -0.050774168223142624, 0.1537415087223053, -0.1931246519088745, 0.13842999935150146, 0.05045376345515251, -0.10678962618112564, 0.0682334452867508, 0.1510540246963501, -0.1050899475812912, -0.06381776928901672, -0.04469197243452072, 0.19951309263706207, -0.049920350313186646, -0.11311864852905273, 0.008265633136034012, 0.04706896096467972, -0.011898931115865707, -0.14010858535766602, -0.09540186822414398, -0.2170535922050476, -0.0022151153534650803, 0.05711321532726288, 0.1360793113708496, 0.11070554703474045, 0.059571340680122375, 0.1291717290878296, 0.08986037969589233, 0.017157888039946556, 0.059549231082201004, 0.13761048018932343, -0.019215965643525124, -0.012867797166109085, -0.04057338833808899, 0.03151923790574074, -0.08480004966259003, -0.15116636455059052, 0.06363905966281891, 0.03977511078119278, 0.08641119301319122, -0.05328201875090599], [-0.08148858696222305, 0.02376021258533001, -0.15222153067588806, 0.19494767487049103, -0.000820583663880825, -0.14492547512054443, 0.01932864636182785, -0.07784007489681244, 0.04415088891983032, 0.0017605340108275414, 0.052061982452869415, 0.015665950253605843, 0.002779909409582615, 0.061643268913030624, 0.17381493747234344, -0.20115429162979126, -0.11345420777797699, -0.05190064758062363, 0.13251414895057678, -0.015325997024774551, -0.08902136981487274, -0.039007823914289474, 0.09391268342733383, -0.11331351101398468, -0.05070273205637932, 0.017351390793919563, 0.0029985401779413223, 0.022507738322019577, 0.14511798322200775, -0.05186783894896507, -0.2101021260023117, -0.05740596726536751, 0.012989187613129616, 0.00960252620279789, -0.1209387332201004, 0.054120983928442, -0.05782785266637802, 0.037655189633369446, -0.055124327540397644, -0.0006308183073997498, 0.16380515694618225, 0.053939368575811386, 0.007418385241180658, 0.06776487827301025, 0.019165609031915665, 0.16351136565208435, 0.02767161652445793, 3.622705116868019e-05, -0.06300371885299683, 0.017140500247478485, -0.14752669632434845, 0.07598167657852173, -0.03926375135779381, -0.003880881704390049, 0.003613678738474846, -0.056089505553245544, -0.00401673000305891, 0.10738563537597656, -0.003539572935551405, -0.032711245119571686, 0.03779107332229614, -0.024967938661575317, 0.035829707980155945, 0.08450867235660553], [-0.06793823838233948, 0.050540875643491745, 0.014571024104952812, -0.009388773702085018, 0.03938610851764679, 0.1293165534734726, -0.03735964000225067, -0.04712675139307976, 0.13144536316394806, -0.048031777143478394, 0.0002906820736825466, 0.061761364340782166, -0.11530400812625885, 0.09313791245222092, 0.029966792091727257, 0.04325251281261444, 0.013920566998422146, 0.012783088721334934, 0.0023833648301661015, 0.03516425937414169, 0.00628813449293375, 0.11379100382328033, -0.06601404398679733, 0.05562844127416611, 0.09134083986282349, -0.12521176040172577, -0.14371050894260406, -0.0626562237739563, 0.020532812923192978, 0.0648997575044632, 0.09769142419099808, -0.061476800590753555, -0.11042472720146179, -0.0935390517115593, 0.008548516780138016, 0.012555157765746117, 0.11154702305793762, -0.054916948080062866, -0.13156405091285706, -0.08115056157112122, -0.21726013720035553, 0.0011381721124053001, 0.07110733538866043, 0.027000704780220985, -0.07298263907432556, 0.1195722371339798, -0.08196917176246643, 0.17309416830539703, 0.08043472468852997, 0.15062157809734344, 0.12612375617027283, -0.00429428368806839, 0.1457066535949707, -0.07755952328443527, -0.04427601397037506, -0.07508794963359833, 0.15795113146305084, -0.15441182255744934, -0.21610651910305023, 0.22980809211730957, 0.04586048424243927, 0.0637509748339653, -0.011349488981068134, 0.128043532371521], [0.0043415166437625885, 0.009723521769046783, 0.013973521068692207, -0.05821286141872406, 0.10656487196683884, 0.06777767091989517, -0.04848022758960724, -0.07605677843093872, -0.1098390743136406, 0.05646200478076935, -0.015461860224604607, -0.12489331513643265, -0.12516580522060394, 0.08222231268882751, -0.1237105280160904, -0.05970240384340286, 0.16169002652168274, 0.12326754629611969, 0.02407550811767578, -0.004537004046142101, 0.0014154119417071342, 0.14628411829471588, -0.05245067924261093, -0.024780021980404854, -0.12109914422035217, -0.06581516563892365, 0.1702912598848343, -0.037973105907440186, -0.09763650596141815, 0.02648974023759365, 0.09830676019191742, 0.0066413553431630135, -0.15110906958580017, 0.07719585299491882, -0.02085721306502819, 0.0376669242978096, 0.12351804971694946, -0.10123729705810547, 0.08882275223731995, -0.11614622175693512, -0.024846114218235016, -0.0026602037250995636, -0.1350884884595871, 0.003651090431958437, -0.14858612418174744, 0.21655164659023285, 0.20964321494102478, -0.10882741957902908, 0.07095398753881454, 0.14487546682357788, -0.18495474755764008, 0.09457533061504364, -0.040683191269636154, 0.05913598835468292, 0.10865503549575806, 0.14800938963890076, -0.057975560426712036, -0.2072405070066452, -0.12380287796258926, 0.03155810385942459, -0.11175031960010529, 0.09512588381767273, 0.10949622094631195, 0.04471561312675476], [-0.040439967066049576, -0.10513900220394135, 0.1183331310749054, -0.03446118161082268, 0.13062573969364166, 0.1878112554550171, -0.021050041541457176, 0.047206636518239975, 0.050358980894088745, 0.005761163309216499, 0.1533065140247345, 0.15224404633045197, 0.22440502047538757, -0.014261506497859955, -0.06418749690055847, -0.001655486412346363, -0.031097903847694397, -0.1400715559720993, 0.09394277632236481, 0.07736589014530182, -0.01585044339299202, -0.039959076792001724, 0.14908161759376526, -0.019975969567894936, 0.08976065367460251, -0.04824047163128853, 0.14085304737091064, -0.048607613891363144, 0.0871543362736702, 0.036987438797950745, -0.09129287302494049, -0.009039107710123062, -0.04213988035917282, 0.06412612646818161, 0.010296321474015713, -0.15174172818660736, 0.06753735989332199, 0.004420188255608082, 0.02821461483836174, -0.06255730241537094, -0.1069985181093216, 0.08025925606489182, 0.02014514058828354, 0.024693336337804794, -0.03780718147754669, 0.08266180753707886, 0.032574623823165894, 0.09558653086423874, -0.004546557553112507, 0.01743226870894432, -0.01502423919737339, 0.05025254189968109, 0.10345585644245148, -0.04597301408648491, -0.06456762552261353, 0.0344107411801815, -0.060976870357990265, 0.04231150820851326, -0.08690795302391052, 0.02732030302286148, 0.04143878072500229, -0.052866414189338684, 0.039967238903045654, 0.05495251715183258], [0.003556258976459503, -0.13572843372821808, -0.05952361226081848, 0.01103193499147892, -0.09903459250926971, 0.14497603476047516, -0.05633877217769623, 0.04397936910390854, -0.010076825506985188, 0.036474280059337616, 0.06629620492458344, 0.01162323821336031, 0.0802731066942215, 0.009027241729199886, -0.018886690959334373, 0.0019153458997607231, 0.015530157834291458, -0.022369030863046646, 0.0016062360955402255, 0.1388985514640808, 0.040222786366939545, 0.10025802999734879, -0.02199195697903633, 0.11340957134962082, 0.1885560154914856, 0.2199857085943222, 0.11392613500356674, -0.17806024849414825, -0.030294591560959816, 0.16038104891777039, 0.06606975197792053, -0.05057128146290779, 0.037060752511024475, -0.06463352590799332, 0.1272372603416443, -0.06510750949382782, -0.057077519595623016, -0.015897713601589203, 0.09284984320402145, 0.01701248250901699, 0.08602826297283173, 0.044536292552948, -0.11466891318559647, -0.05622400715947151, -0.0525040328502655, -0.08448482304811478, -0.12385809421539307, -0.028226934373378754, -0.028463831171393394, 0.20592261850833893, 0.02611134760081768, 0.007116673514246941, -0.0311247818171978, -0.011202854104340076, -0.017658976837992668, 0.06773483008146286, -0.0397392138838768, -0.05198466032743454, 0.07283131778240204, -0.16116207838058472, 0.05829491838812828, -0.061767276376485825, 0.09415236115455627, -0.16655749082565308], [0.09533543884754181, 0.046426355838775635, 0.15936478972434998, -0.19802844524383545, 0.008737409487366676, -0.009125827811658382, -0.04885205626487732, 0.13944362103939056, 0.1843939572572708, 0.1255793571472168, 0.1486358642578125, -0.01530107855796814, 0.10888273268938065, 0.021655188873410225, -0.07368544489145279, 0.14951613545417786, -0.1073683574795723, 0.06827841699123383, 0.16142693161964417, -0.07210249453783035, -0.06747420877218246, 0.023267807438969612, -0.0007889922708272934, 0.08161291480064392, 0.11514754593372345, 0.053387001156806946, 0.09079292416572571, 0.04314728081226349, 0.011463863775134087, -0.08380164206027985, 0.01218296680599451, -0.07548976689577103, 0.040716223418712616, -0.020522408187389374, -0.00895720161497593, -0.04885118454694748, 0.059910163283348083, 0.014111213386058807, 0.062978595495224, 0.04919794574379921, 0.0121414540335536, 0.020144054666161537, -0.06714842468500137, -0.003484802320599556, -0.1551225483417511, 0.07488206028938293, -0.10972253978252411, 0.06093635410070419, 0.11000476777553558, -0.051410190761089325, -0.1189025416970253, -0.05981028079986572, 0.06720846891403198, 0.04302934184670448, -0.11790122091770172, -0.07497707009315491, -0.026170946657657623, 0.05596105754375458, 0.10380935668945312, 0.10772732645273209, -0.006451285444200039, 0.10855486989021301, 0.16971200704574585, -0.03983147442340851], [0.003461817279458046, -0.0643911063671112, -0.022711915895342827, 0.07766157388687134, 0.12305580824613571, -0.06748858094215393, -0.0023525510914623737, 0.04453016072511673, 0.0580931231379509, -0.018534457311034203, 0.007832584902644157, 0.07393685728311539, 0.08727021515369415, 0.04386152699589729, 0.025340579450130463, -0.0031453371047973633, 0.020563330501317978, -0.033847030252218246, -0.09143824130296707, -0.0005287379026412964, -0.06668432056903839, 0.05188329890370369, -0.03399889916181564, 0.057014428079128265, -0.07104159891605377, 0.14934733510017395, 0.12121903151273727, 0.031089702621102333, -0.01705920323729515, 0.10791128873825073, 0.20706354081630707, -0.08267605304718018, 0.17017993330955505, 0.11384668946266174, 0.01782088726758957, 0.018693363294005394, 0.1355734020471573, -0.09636713564395905, 0.0013161711394786835, -0.036063551902770996, -0.0465812049806118, -0.03433804214000702, -0.019730905070900917, 0.05536293238401413, -0.20166350901126862, -0.04501427710056305, 0.05225217714905739, 0.00428057461977005, 0.007303884252905846, -0.09467324614524841, -0.03305108845233917, 0.057665519416332245, 0.043168533593416214, 0.15279912948608398, 0.032424356788396835, 0.03541591390967369, 0.1743820309638977, 0.07342465221881866, -0.03765454143285751, 0.13164573907852173, 0.047349266707897186, -0.05142427608370781, 0.030383095145225525, -0.08286508917808533], [0.02495630644261837, -0.04966072738170624, -0.03782682120800018, -0.05265146493911743, 0.12272253632545471, 0.09069563448429108, -0.09377755969762802, 0.08086323738098145, 0.04644017666578293, -0.07814763486385345, -0.1611272543668747, -0.1674138456583023, 0.030959486961364746, 0.06645604223012924, -0.07139416038990021, -0.06778913736343384, -0.03434270620346069, 0.12083352357149124, 0.11847896873950958, -0.10713794827461243, -0.04112456738948822, -0.07409495860338211, -0.11059268563985825, 0.11292307823896408, 0.059140656143426895, -0.10771863162517548, -0.08833538740873337, -0.09331187605857849, 0.06353583931922913, -0.07118837535381317, 0.163435697555542, -0.12294834107160568, -0.012799432501196861, 0.03896598890423775, 0.08881000429391861, 0.08244757354259491, 0.056975096464157104, -0.12230769544839859, -0.03529815375804901, 0.14856329560279846, -0.0696428194642067, -0.11951462924480438, -0.029169348999857903, -0.114129438996315, -0.15411032736301422, -0.07153491675853729, 0.05929432064294815, 0.09362931549549103, 0.10785477608442307, -0.023688994348049164, 0.1164817288517952, -0.10545718669891357, -0.007643207907676697, -0.05084200203418732, -0.0036318879574537277, 0.11458764970302582, 0.010889114812016487, 0.04179811477661133, -0.12836769223213196, 0.0013514664024114609, 0.10436149686574936, 0.16205160319805145, 0.08311080932617188, 0.07994456589221954], [-0.013232460245490074, -0.20445725321769714, -0.20452721416950226, 0.0938790813088417, 0.05847157537937164, -0.020854661241173744, -0.05284113064408302, -0.2160482108592987, -0.0882287323474884, -0.09921656548976898, 0.11472975462675095, -0.1862892508506775, -0.15119624137878418, -0.09999354928731918, -0.07801546901464462, -0.007214739918708801, -0.007517156191170216, -0.01785295456647873, 0.11398309469223022, 0.0798736959695816, 0.07329794764518738, -0.020391328260302544, 0.0275665745139122, -0.030912866815924644, 0.10129062831401825, -0.005833655595779419, 0.0198456309735775, 0.07863953709602356, 0.03464509919285774, -0.1322515457868576, 0.07230110466480255, 0.061670102179050446, 0.12526001036167145, 0.10201182961463928, -0.18200485408306122, -0.0469052791595459, -0.046390242874622345, 0.09105110168457031, 0.07313620299100876, -0.06802978366613388, -0.07003257423639297, 0.13382744789123535, -0.06879930198192596, -0.11484310030937195, -0.05787574499845505, -0.195688396692276, -0.1124783530831337, 0.13912251591682434, 0.07900061458349228, -0.01725430227816105, 0.009173745289444923, -0.018912402912974358, -0.044213470071554184, 0.04905412346124649, -0.04052550345659256, 0.18052129447460175, -0.004894329234957695, 0.17095327377319336, -0.04078284278512001, -0.12494073808193207, -0.13567420840263367, -0.12182024121284485, -0.05575261265039444, -0.004337187856435776], [-0.012282285839319229, -0.006765596568584442, -0.05229366570711136, 0.13710695505142212, 0.017301645129919052, 0.08234038949012756, 0.01660352572798729, -0.004842647351324558, 0.08708996325731277, 0.1610793173313141, -0.09947522729635239, 0.04914994537830353, -0.2017441987991333, 0.13057082891464233, -0.20545287430286407, 0.043112002313137054, -0.24837714433670044, -0.12067463994026184, -0.026885468512773514, -0.06939073652029037, 0.053264401853084564, -0.05898392200469971, -0.0725618302822113, 0.12429410964250565, -0.13863030076026917, -0.12818455696105957, 0.019352491945028305, -0.030767224729061127, 0.05243029445409775, 0.008942542597651482, 0.04033542796969414, 0.03805425018072128, 0.03789081797003746, -0.025576220825314522, -0.14203013479709625, -0.08221837878227234, -0.09352137893438339, 0.059978920966386795, -0.032062213867902756, 0.0839911550283432, 0.01787417009472847, -0.010414281859993935, -0.006677892524749041, -0.02277599647641182, -0.18410924077033997, -0.00788719579577446, -0.08772501349449158, 0.12608826160430908, 0.03498915582895279, 0.0026368312537670135, -0.08823065459728241, -0.04579395055770874, 0.08363564312458038, -0.04243074357509613, -0.028466597199440002, 0.003994345664978027, -0.07252735644578934, -0.010080864652991295, 0.04743218049407005, 0.06305422633886337, 0.08342324197292328, 0.014652961865067482, 0.1738322675228119, -0.11225515604019165], [0.07787667214870453, 0.02399049885571003, 0.05177249014377594, 0.1480310708284378, 0.16775968670845032, 0.13491345942020416, 0.11565129458904266, 0.05357925221323967, -0.14077788591384888, 0.08060646802186966, -0.048658546060323715, -0.08527208864688873, -0.005468611605465412, 0.08703809976577759, -0.02769933082163334, -0.11304670572280884, -0.17319267988204956, -0.049851879477500916, 0.09739361703395844, 0.046706944704055786, 0.09633351117372513, 0.009361082687973976, -0.02865329012274742, -0.08808755874633789, 0.0037456704303622246, 0.0800299420952797, 0.07391990721225739, -0.10062140226364136, -0.09947501122951508, 0.10068322718143463, 0.04920358583331108, -0.096271812915802, -0.17789332568645477, -0.06748059391975403, -0.09745823591947556, -0.07478326559066772, -0.09594248235225677, 0.04393535479903221, 0.06786663085222244, -0.005935627967119217, -0.0048474716022610664, 0.07651099562644958, 0.10296261310577393, 0.1407519429922104, -0.05287618935108185, 0.10100183635950089, -0.1715640425682068, 0.03108440339565277, -0.05581839010119438, 0.059247374534606934, 0.020252997055649757, -0.1443309485912323, -0.17397746443748474, 0.019730405882000923, -0.11721590906381607, 0.1270088404417038, -0.049219414591789246, 0.05730901658535004, 0.15148696303367615, 0.1166800782084465, -0.10414327681064606, 0.085799440741539, 0.02040732279419899, 0.07801232486963272], [-0.011213155463337898, 0.045489050447940826, 0.028445687144994736, -0.015788979828357697, 0.050945259630680084, 0.031428977847099304, 0.04116249829530716, -0.01731949672102928, -0.03573482856154442, 0.013622158206999302, 0.10172472894191742, -0.08859679102897644, 0.013563748449087143, -0.03620702773332596, -0.05846908316016197, 0.13793185353279114, -0.11366339027881622, -0.07152637839317322, -0.006040428765118122, 0.040768176317214966, 0.0679742619395256, -0.008863139897584915, 0.013130957260727882, -0.030731450766324997, -0.16544410586357117, 0.09421169012784958, 0.17227396368980408, 0.13724073767662048, -0.056873876601457596, 0.017165813595056534, -0.15538455545902252, -0.06143748015165329, -0.032615937292575836, 0.04577619582414627, -0.0183415524661541, -0.02311788685619831, 0.0586916022002697, 0.07010422646999359, 0.1308111697435379, -0.14609558880329132, -0.005067074671387672, 0.03841428458690643, 0.01638299599289894, -0.05413539707660675, 0.03691103681921959, 0.05470667779445648, -0.02257120981812477, -0.11249744892120361, 0.07921653240919113, 0.05244223400950432, 0.11156706511974335, 0.07784706354141235, 0.15109407901763916, 0.1456950157880783, -0.09770053625106812, 0.19838827848434448, 0.0406760647892952, -0.06512385606765747, -0.014580970630049706, -0.07868987321853638, -0.13569533824920654, 0.05224031209945679, -0.10092893987894058, 0.16036799550056458], [0.038788989186286926, -0.03131328523159027, -0.10131381452083588, 0.10414516180753708, -0.03113764338195324, 0.05775894224643707, 0.06377018988132477, -0.1332366168498993, -0.13464850187301636, 0.05604148656129837, 0.011747917160391808, -0.0168448556214571, 0.022400323301553726, -0.12058855593204498, -0.060051701962947845, 0.15704303979873657, 0.08694266527891159, -0.03815251588821411, 0.0515563040971756, 0.057712819427251816, -0.13653212785720825, 0.038388073444366455, 0.14221180975437164, 0.057749878615140915, -0.001024726778268814, 0.03210550919175148, -0.011100245639681816, -0.11607097089290619, -0.06593622267246246, 0.00811215490102768, 0.16555334627628326, 0.01233705971390009, 0.01953054778277874, 0.12238351255655289, -0.021727127954363823, 0.007552328985184431, -0.08541246503591537, 0.05223487317562103, 0.1700296252965927, -0.14272715151309967, -0.09451810270547867, -0.014403458684682846, -0.053307149559259415, 0.11290634423494339, 0.08850575983524323, 0.06357094645500183, -0.03506610542535782, -0.0687653124332428, 0.14853239059448242, -0.05720777064561844, -0.06720374524593353, -0.047073520720005035, -0.12260106205940247, -0.06717095524072647, -0.06083746254444122, 0.22522446513175964, 0.10243862867355347, 0.1634034663438797, 0.025992197915911674, 0.045660119503736496, 0.06742224097251892, 0.07138432562351227, -0.21331964433193207, 0.06540491431951523], [0.00417123781517148, -0.04378186911344528, -0.04696066677570343, 0.08714950829744339, -0.07225726544857025, -0.11929572373628616, 0.04343082383275032, 0.04275333136320114, 0.0579996295273304, 0.20079821348190308, -0.0038831429556012154, -0.010360962711274624, 0.011328687891364098, 0.030005713924765587, -0.11223715543746948, -0.06136287748813629, -0.02759547159075737, -0.22780387103557587, -0.018757494166493416, 0.19180655479431152, -0.015676070004701614, 0.03473784402012825, 0.01626158133149147, -0.1295904517173767, -0.06290202587842941, 0.03310263156890869, 0.1693039834499359, -0.13409709930419922, -0.022437119856476784, 0.08928658813238144, 0.06281653046607971, -0.049375325441360474, 0.03164885193109512, 0.15259240567684174, 0.08451738953590393, 0.03370923548936844, 0.026912115514278412, 0.07329244911670685, -0.04468541964888573, 0.010948225855827332, -0.02783897891640663, 0.10793952643871307, -0.1152694970369339, -0.10226011276245117, -0.02439551241695881, -0.10343301296234131, -0.08365000784397125, -0.0013797283172607422, 0.016090622171759605, 0.008127368055284023, -0.017782827839255333, -0.0421723909676075, 0.04969975724816322, -0.015582767315208912, -0.0679146870970726, 0.06289169192314148, -0.05536007136106491, 0.2046157568693161, -0.06912943720817566, 0.1892627626657486, -0.025780782103538513, -0.10510443150997162, 0.00841586198657751, 0.04658083617687225], [-0.01945323310792446, -0.02437783032655716, 0.09110940992832184, 0.038372475653886795, 0.06814422458410263, -0.12933200597763062, 0.12551477551460266, -0.07189162075519562, 0.03641418740153313, 0.1925424486398697, -0.047010693699121475, -0.08379834145307541, 0.1973734050989151, -0.13500434160232544, 0.0032916609197854996, 0.011337919160723686, 0.019913185387849808, 0.00031312089413404465, -0.1138526201248169, -0.06898839771747589, -0.020957065746188164, 0.025538913905620575, 0.029271289706230164, -0.0028895558789372444, 0.07440586388111115, 0.004725659266114235, -0.005884082987904549, -0.13785801827907562, -0.10570747405290604, 0.1448725163936615, -0.02732466161251068, 0.13477268815040588, 0.0846395343542099, 0.1152336448431015, -0.1846407800912857, 0.0580936037003994, -0.009911544620990753, 0.05394984781742096, -0.055017128586769104, -0.0012259441427886486, -0.1314883977174759, -0.025249015539884567, 0.0806383490562439, -0.06029931828379631, -0.04827000945806503, 0.08699291944503784, 0.17229539155960083, 0.058541491627693176, -0.08045783638954163, -0.014487729407846928, -0.044487856328487396, 0.028620241209864616, -0.057549796998500824, 0.1299915462732315, 0.026721537113189697, -0.0725211501121521, -0.025294996798038483, -0.11793430894613266, 0.0313740149140358, -0.009563086554408073, 0.02011047676205635, 0.15629041194915771, 0.17582812905311584, -0.06475888937711716], [-0.008973576128482819, 0.10924181342124939, 0.10569028556346893, -0.13054624199867249, -0.018538136035203934, 0.0893711969256401, 0.07625681161880493, 0.19105321168899536, -0.029908329248428345, -0.05187315121293068, -0.0983981043100357, -0.017315415665507317, 0.0512985959649086, 0.07856205105781555, -0.16872291266918182, 0.060332220047712326, 0.10975660383701324, 0.01341825071722269, -0.008663326501846313, 0.035672225058078766, -0.08368334919214249, 0.1268523931503296, -0.1087975800037384, -0.20458927750587463, -0.057311031967401505, -0.11601193994283676, -0.05698293820023537, 0.09509892761707306, 0.03765736520290375, 0.11754140257835388, -0.021238386631011963, 0.11555054783821106, 0.03933006897568703, 0.09624307602643967, -0.010536380112171173, 0.02319827303290367, -0.020127631723880768, 0.057898957282304764, 0.10024935007095337, 0.002081063576042652, -0.0021849768236279488, -0.12323381006717682, -0.02161845937371254, 0.03929430991411209, 0.02269246056675911, -0.10368069261312485, 0.06164262071251869, -0.03606472909450531, -0.056928642094135284, -0.0931488499045372, 0.06787709891796112, 0.11709080636501312, 0.02168799564242363, -0.09945550560951233, -0.003682585433125496, -0.13003897666931152, 0.010807693004608154, 0.21043327450752258, -0.027694839984178543, 0.04921494424343109, -0.021694760769605637, -0.036074843257665634, 0.025354288518428802, 0.15011663734912872], [-0.07779560983181, 0.11551574617624283, -0.011473758146166801, -0.06028670817613602, -0.10100867599248886, 0.06168506294488907, 0.013701817020773888, 0.05178481712937355, 0.12288767099380493, -0.005709290038794279, 0.20172497630119324, 0.13390451669692993, 0.04801330342888832, -0.14545664191246033, 0.035971805453300476, -0.1284342110157013, 0.014677062630653381, -0.005395201966166496, -0.039906248450279236, -0.03229640796780586, -0.05164390802383423, -0.05015937238931656, -0.17907187342643738, -0.08221060037612915, 0.09824873507022858, 0.06206374615430832, 0.036389805376529694, 0.057818688452243805, 0.032969094812870026, -0.02787250094115734, 0.022138258442282677, -0.038662638515233994, -0.10574474930763245, -0.017766140401363373, -0.04000743851065636, -0.07120676338672638, 0.07107162475585938, -0.10867083072662354, 0.005089528858661652, 0.07476040720939636, 0.0016261609271168709, 0.08682096004486084, -0.002349507063627243, 0.07681737095117569, -0.1277935802936554, -0.07423526793718338, -0.15584757924079895, 0.050349779427051544, 0.06362219154834747, -0.09023210406303406, 0.24352413415908813, 0.005574547685682774, 0.04810668155550957, -0.05883297696709633, -0.021735619753599167, 0.07546237856149673, 0.013674353249371052, 0.0247502438724041, 0.0898452177643776, -0.10840383172035217, -0.03354586660861969, -0.05546551197767258, 0.1052921712398529, 0.021112434566020966], [0.011233014054596424, -0.07277201116085052, 0.001672515645623207, -0.0461740642786026, -0.047167107462882996, 0.2233436554670334, 0.01916327141225338, -0.20874735713005066, -0.09902659058570862, -0.0599617063999176, 0.09850052744150162, -0.10037527978420258, -0.11297868192195892, -0.023279987275600433, 0.19555971026420593, -0.13369213044643402, -0.05869187414646149, -0.12297847867012024, -0.07493723928928375, 0.15060611069202423, -0.004998237360268831, 0.14158855378627777, -0.15962328016757965, 0.12062500417232513, -0.052576277405023575, -0.10148600488901138, 0.03735831379890442, -0.17405541241168976, 0.016687126830220222, 0.01669108308851719, 0.09648138284683228, -0.12012746930122375, 0.027483966201543808, -0.033170320093631744, 0.005651657469570637, 0.022028233855962753, 0.06330625712871552, 0.010626688599586487, -0.029140017926692963, 0.00896968599408865, -0.04773513972759247, 0.04215756803750992, -0.0656813383102417, -0.04966040700674057, 0.015273967757821083, 0.20057354867458344, -0.06024453043937683, -0.03288525342941284, -0.043427105993032455, 0.055910948663949966, 0.20990964770317078, 0.03630887344479561, -0.023193374276161194, 0.005979824345558882, -0.026884812861680984, 0.02774854004383087, 0.08234036713838577, 0.10826770961284637, -0.05077933892607689, 0.06897096335887909, -0.011453132145106792, -0.12243475764989853, 0.0899776965379715, -0.0669003427028656], [-0.044281624257564545, -0.09459137171506882, 0.08635684847831726, 0.03301975131034851, -0.09190630167722702, 0.08036971837282181, -0.018270548433065414, -0.01527089811861515, 0.09026788175106049, 0.16086673736572266, -0.137143075466156, -0.026898028329014778, 0.1953621208667755, -0.08362138271331787, 0.11424381285905838, -0.015771497040987015, -0.15093094110488892, -0.02885737270116806, -0.1776444911956787, 0.05475534498691559, -0.032407790422439575, -0.001011241227388382, 0.0010775476694107056, 0.01026972010731697, -0.009857408702373505, -0.12569749355316162, -0.009456051513552666, -0.04397893697023392, -0.01347434613853693, 0.10224615037441254, 0.23888848721981049, -0.12856099009513855, -0.12778878211975098, 0.009661199524998665, 0.13122428953647614, -0.1732310950756073, -0.1295483559370041, -0.056338585913181305, 0.14683157205581665, -0.013099385425448418, -0.07538687437772751, 0.004248371347784996, 0.043402865529060364, -0.014520110562443733, -0.054520174860954285, 0.06584219634532928, -0.04305436834692955, 0.02244325913488865, 0.06759081780910492, 0.03812459111213684, -0.03358340635895729, -0.08843488991260529, -0.20408418774604797, 0.057966869324445724, -0.07020804286003113, -0.02100808173418045, -0.03520892560482025, -0.03865675628185272, -0.09365418553352356, -0.0685003250837326, 0.1006714254617691, 0.036745913326740265, 0.0703810453414917, -0.05142848938703537], [0.04866631329059601, 0.06544607877731323, 0.0075351782143116, -0.016839012503623962, 0.05903330445289612, -0.0935487300157547, 0.07310298830270767, -0.024212609976530075, -0.14924688637256622, -0.040852610021829605, -0.0023431917652487755, -0.08972485363483429, -0.04761279746890068, -0.06493955850601196, 0.00023044971749186516, 0.015617169439792633, 0.08283933997154236, -0.046300701797008514, -0.02526247687637806, 0.08276396989822388, 0.006806313991546631, 0.006035301834344864, 0.1508101224899292, 0.058359868824481964, 0.13114126026630402, -0.2403249740600586, 0.18427029252052307, 0.14520815014839172, 0.03862762078642845, 0.055247124284505844, 0.04031287133693695, -0.09694802761077881, 0.004902223125100136, -0.046320196241140366, -0.004541758447885513, -0.007462019100785255, 0.025413967669010162, -0.008848820813000202, 0.03655984625220299, -0.10977921634912491, 0.0395919531583786, -0.17339792847633362, 0.015423222444951534, 0.12193956226110458, 0.06127531826496124, 0.006260368973016739, 0.09525929391384125, -0.058973733335733414, 0.08689726889133453, -0.1209428608417511, -0.014032606966793537, 0.14371508359909058, -0.0883580669760704, -0.039829108864068985, 0.11494536697864532, -0.03007443994283676, 0.10524244606494904, 0.0983312577009201, -0.09641584008932114, 0.0645705983042717, 0.11661052703857422, -0.012959567829966545, -0.07439488172531128, -0.03171883895993233], [0.0772482305765152, 0.02645089663565159, -0.0446329303085804, -0.08326922357082367, -0.10133694857358932, -0.08974477648735046, 0.05209285765886307, -0.018146038055419922, -0.2281811386346817, -0.19135361909866333, -0.03357548639178276, -0.0915849506855011, -0.11453250050544739, -0.035029906779527664, -0.13322104513645172, -0.0747372955083847, 0.11265388876199722, -0.06442183256149292, -0.040453486144542694, 0.12245423346757889, -0.058759916573762894, 0.1549162119626999, 0.04223262518644333, 0.011281474493443966, 0.0017046811990439892, 0.1518903225660324, 0.07334022223949432, -0.042067717760801315, -0.08320346474647522, -0.05920030176639557, 0.06092004477977753, -0.06964340060949326, -0.1275554746389389, -0.06172627955675125, 0.10067249834537506, 0.1303470879793167, 0.05165858194231987, 0.00924874097108841, -0.102060966193676, -0.01780853420495987, 0.0826614573597908, -0.0654471144080162, 0.07723473012447357, 0.07001213729381561, 0.01851198449730873, -0.13879287242889404, 0.11073089390993118, -0.09734304249286652, 0.07147775590419769, -0.05286660045385361, -0.11623549461364746, -0.11046923696994781, 0.0028767043258994818, 0.05209599435329437, -0.02494429424405098, 0.1930113583803177, 0.03841926530003548, 0.006296506151556969, -0.16462424397468567, 0.03413619473576546, -0.00330415740609169, -0.042792726308107376, 0.11121989786624908, 0.16524100303649902], [0.0925738587975502, -0.06430654972791672, 0.045368414372205734, 0.07462745904922485, -0.07077883183956146, 0.044274646788835526, -0.0943959429860115, 0.07444366067647934, 0.18912893533706665, -0.1091499924659729, -0.006613139063119888, 0.1966041922569275, 0.026005614548921585, 0.16434380412101746, 0.09183476865291595, -0.004251075908541679, 0.033900998532772064, -0.049733538180589676, -0.06220320612192154, -0.003298836760222912, -0.0333128422498703, 0.10415232181549072, -0.053061336278915405, 0.07889489829540253, -0.026690911501646042, 0.08072303980588913, -0.06947173178195953, 0.051686614751815796, -0.030665716156363487, -0.042086150497198105, 0.04792488366365433, -0.04004499316215515, -0.02784113772213459, -0.04710088670253754, 0.07941782474517822, 0.03538036346435547, -0.001073107123374939, 0.02350732497870922, 0.06188644468784332, 0.015309483744204044, 0.039658013731241226, 0.024909732863307, 0.014716400764882565, -0.17187294363975525, -0.17667251825332642, 0.04196101054549217, 0.006834310479462147, -0.07137256860733032, -0.04422465339303017, 0.11647509783506393, -0.048506222665309906, -0.011886807158589363, -0.1454404890537262, 0.08610203117132187, 0.01595138944685459, -0.08414240926504135, 0.07018768042325974, -0.19391986727714539, 0.060491859912872314, -0.13353024423122406, -0.024550657719373703, 0.001132277655415237, -0.007231071591377258, 0.04975086450576782], [-0.026461325585842133, -0.07817324250936508, 0.04604043811559677, 0.052133601158857346, 0.007347229868173599, 0.018083911389112473, -0.08218105882406235, 0.02244960516691208, 0.10742717981338501, -0.030689232051372528, 0.11652592569589615, 0.06489723175764084, -0.16149914264678955, 0.026717398315668106, -0.011286426335573196, 0.0007996167987585068, -0.028906691819429398, -0.018776006996631622, 0.00807158462703228, -0.0865066796541214, -0.015964476391673088, -0.03124510869383812, -0.001103573595173657, 0.02928602509200573, 0.1435375213623047, -0.035456299781799316, 0.036101147532463074, -0.042786598205566406, -0.0969177782535553, -0.020908286795020103, 0.016568783670663834, 0.04216388612985611, -0.06919819116592407, -0.12407317757606506, 0.17905768752098083, -0.008151411078870296, 0.07272747904062271, -0.02807166986167431, -0.0016214307397603989, -0.03303345665335655, -0.09047521650791168, -0.050479888916015625, -0.09075389057397842, 0.08008179068565369, 0.0900484174489975, -0.041959866881370544, 0.014125984162092209, 0.04142165929079056, 0.0031072674319148064, -0.03479514271020889, 0.045642949640750885, -0.07504112273454666, -0.09241791069507599, -0.02791161648929119, -0.023274162784218788, -0.23719289898872375, -0.11898472905158997, 0.1245594173669815, 0.1506151705980301, 0.025075256824493408, 0.06505735218524933, -0.23272010684013367, 0.007179640233516693, -0.11477932333946228], [-0.05445212870836258, -0.2285480797290802, 0.08374644070863724, 0.09263164550065994, 0.03638818860054016, 0.037615831941366196, -0.11172318458557129, -0.09300041198730469, -0.11488739401102066, -0.09078986197710037, -0.05177579075098038, 0.11164326965808868, -0.049972549080848694, 0.012713128700852394, 0.033634599298238754, 0.10640819370746613, 0.016439026221632957, -0.021273672580718994, 0.016834545880556107, 0.1271221786737442, -0.02884354442358017, 0.02212793380022049, -0.05754690617322922, -0.08281197398900986, 0.04962210729718208, -0.10947617143392563, -0.05859971418976784, -0.061815373599529266, -0.04685905575752258, 0.13941577076911926, 0.016330426558852196, -0.07368641346693039, 0.018885521218180656, -0.012659345753490925, 0.06361142545938492, 0.014281469397246838, -0.020972993224859238, -0.09186292439699173, 0.08221167325973511, -0.025148211047053337, -0.0353287048637867, 0.07936190813779831, -0.04041237011551857, 0.06901770085096359, -0.0755726546049118, -0.1023845374584198, 0.014412728138267994, -0.032749198377132416, 0.04774102568626404, -0.004871482960879803, 0.11811988055706024, -0.09171252697706223, 0.07336097955703735, 0.04584433510899544, -0.0891968235373497, -0.19711485505104065, 0.07939552515745163, -0.126763254404068, 0.13723018765449524, 0.06889581680297852, 0.05465078726410866, -0.10402742773294449, 0.09326660633087158, 0.03400878608226776], [0.16280044615268707, -0.021911101415753365, -0.03799964860081673, 0.02685730904340744, -0.09927580505609512, 0.07164230197668076, -0.007733888924121857, -0.1553647220134735, 0.03681294247508049, -0.025924496352672577, 0.033613018691539764, 0.10476511716842651, 0.0027579031884670258, -0.002230825135484338, -0.03400876373052597, -0.0746222734451294, -0.02868502214550972, 0.07768720388412476, -0.010074403136968613, 0.12876015901565552, -0.07702257484197617, 0.06644202768802643, -0.14613761007785797, 0.08580704778432846, 0.15489313006401062, -0.0016024932265281677, 0.20315811038017273, -0.12270015478134155, 0.16665133833885193, 0.05146654695272446, 0.03276830166578293, -0.19238486886024475, -0.1532541811466217, -0.05938544124364853, 0.0813545435667038, -0.041476793587207794, 0.0023842956870794296, -0.0030387938022613525, -0.01670808345079422, 0.05017676204442978, 0.16655796766281128, 0.09270244836807251, -0.13670027256011963, -0.011401452124118805, 0.046489015221595764, -0.03919653594493866, -0.013196859508752823, 0.13070514798164368, 0.035639453679323196, -0.06405582278966904, -0.039327166974544525, -0.047921326011419296, 0.07116451114416122, 0.06638099253177643, 0.07570526748895645, 0.01763063296675682, 0.07820060104131699, 0.04423036426305771, -0.03685174509882927, 0.09492857754230499, 0.013986373320221901, -0.01271209865808487, -0.049712613224983215, 0.10739857703447342], [0.12237965315580368, -0.004185298457741737, 0.04901663959026337, 0.10440011322498322, 0.04238563030958176, 0.158111572265625, -0.0098601458594203, 0.04296606034040451, -0.04218914359807968, -0.019309069961309433, -0.09055696427822113, 0.15835514664649963, -0.0384075865149498, 0.1714247465133667, 0.04738844931125641, -0.20666585862636566, 0.06194114685058594, -0.03299402445554733, -0.004853211343288422, 0.008303241804242134, 0.019166098907589912, 0.045717522501945496, 0.14672894775867462, -0.06986401230096817, 0.07543673366308212, 0.007228462025523186, -0.11604377627372742, -0.02865697257220745, -0.11185527592897415, -0.020612506195902824, -0.09053389728069305, 0.11993828415870667, -0.06738241761922836, -0.0009426542092114687, 0.10421215742826462, -0.12258817255496979, 0.10320371389389038, -0.1587372124195099, 0.01642393320798874, 0.11952315270900726, -0.08343946933746338, -0.044871509075164795, 0.23827019333839417, -0.03477092087268829, -0.1048569530248642, -0.17542606592178345, -0.12079222500324249, -0.010582235641777515, -0.006957816891372204, -0.20087949931621552, 0.057325851172208786, -0.09899421036243439, 0.032931938767433167, 0.09188226610422134, -0.14749832451343536, -0.10234944522380829, -0.07332440465688705, 0.0270451158285141, 0.18210887908935547, 0.14617757499217987, -0.10514439642429352, 0.12401694804430008, -0.013332599774003029, -0.1592176854610443], [-0.07751654833555222, -0.046796515583992004, 0.06178594008088112, 0.08431662619113922, 0.012542111799120903, 0.022186558693647385, -0.023074064403772354, 0.04724954068660736, -0.09507302939891815, 0.09937865287065506, -0.02198813483119011, 0.033109668642282486, -0.25019580125808716, -0.018391000106930733, 0.03113650530576706, 0.0007126899436116219, -0.04146093502640724, -0.07491939514875412, 0.1399516761302948, -0.00674609187990427, 0.012008395977318287, 0.19722476601600647, 0.1822306513786316, 0.09112688153982162, -0.004097181838005781, 0.029011117294430733, -0.17539969086647034, -0.01683625392615795, 0.11067758500576019, -0.12445918470621109, -0.16640204191207886, 0.06383666396141052, -0.02911241352558136, -0.075701504945755, -0.10918481647968292, 0.0054123797453939915, -0.0624612532556057, -0.04729671776294708, -0.11876875907182693, -0.05761781334877014, 0.13715632259845734, 0.06629320979118347, 0.052673883736133575, -0.022277558222413063, -0.1268962323665619, 0.18893784284591675, 0.0198476891964674, 0.07068642228841782, -0.04570567607879639, -0.09237950295209885, -0.07297545671463013, 0.027595221996307373, -0.11893801391124725, 0.02220556139945984, -0.17355133593082428, 0.04332564026117325, 0.02681284211575985, 0.014691797085106373, -0.0750795304775238, 0.006711571477353573, 0.06487907469272614, -0.058819014579057693, 0.1360550969839096, -0.004558331333100796], [-0.08132988214492798, 0.01738511584699154, 0.11659824103116989, 0.2514638900756836, 0.005121472291648388, 0.011507559567689896, 0.1107294112443924, -0.1962934136390686, 0.04532939940690994, 0.081206314265728, 0.000978036317974329, -0.10857217758893967, 0.030102908611297607, 0.025346122682094574, 0.007668390870094299, 0.11599335819482803, 0.09690919518470764, -0.08718293160200119, -0.010506467893719673, 0.10122089087963104, -0.03860030695796013, -0.15471391379833221, 0.12026214599609375, 0.025340823456645012, -0.06565149128437042, 0.02290571853518486, -0.06471782922744751, 0.2258932739496231, -0.1052306666970253, 0.10986483842134476, 0.14678367972373962, -0.19246439635753632, 0.07348732650279999, -0.014421122148633003, -0.12304426729679108, -0.11378467082977295, 0.10920475423336029, 0.03296826407313347, -0.008636504411697388, 0.023504871875047684, 0.0017964337021112442, -0.1144929975271225, -0.03325815126299858, -0.03631617873907089, 0.00855985376983881, -0.0055231135338544846, -0.0008680508472025394, -0.005833780858665705, 0.04223278909921646, 0.1624920815229416, -0.08196592330932617, 0.13282270729541779, -0.011452602222561836, 0.04420531168580055, 0.011438777670264244, 0.05560345575213432, -0.05551363155245781, -0.04941178113222122, 0.07238857448101044, -0.05684535950422287, -0.03088117390871048, 0.1630701869726181, 0.12864327430725098, 0.0275613721460104], [0.025108158588409424, 0.052315354347229004, 0.050949517637491226, -0.05089712515473366, 0.1715375930070877, 0.0610087588429451, 0.12994800508022308, -0.03286352753639221, 0.034327372908592224, -0.06950041651725769, -0.009085272438824177, -0.04558804631233215, -0.14884459972381592, 0.11955805867910385, -0.03579758480191231, 0.04093515872955322, 0.0029691490344703197, -0.13199347257614136, 0.1567223072052002, -0.05834777280688286, -0.05419383570551872, 0.027988653630018234, 0.06807896494865417, 0.24544097483158112, 0.07019449025392532, -0.08269656449556351, 0.03608550876379013, -0.15426798164844513, 0.01916697435081005, 0.07037004828453064, 0.12362557649612427, -0.01760101318359375, 0.09101316332817078, -0.0073467749170959, -0.057129453867673874, 0.16670702397823334, 0.07020288705825806, -0.06427495926618576, 0.047993145883083344, -0.024105841293931007, -0.02719159424304962, 0.10832159221172333, 0.06063542515039444, 0.02130807191133499, 0.05040273815393448, 0.06060897558927536, -0.14690765738487244, -0.08843052387237549, -0.09424857795238495, -0.18243713676929474, -0.10890109837055206, -0.002346072345972061, -0.09526818990707397, 0.017865421250462532, -0.15505759418010712, 0.017518753185868263, 0.033446311950683594, -0.12133824080228806, 0.01816350221633911, -0.09736915677785873, 0.19349640607833862, 0.03971216455101967, -0.18961970508098602, 0.07055217027664185], [0.10982868820428848, 0.15872928500175476, -0.15990792214870453, 0.1123419925570488, 0.023183010518550873, -0.11426005512475967, 0.016883350908756256, -0.026792436838150024, 0.13788765668869019, 0.0027511268854141235, 0.168035089969635, 0.14494913816452026, -0.023343417793512344, -0.1367742121219635, -0.040748417377471924, 0.15963324904441833, 0.11540393531322479, 0.04413001239299774, -0.1116625964641571, -0.13286982476711273, 0.025509681552648544, 0.0104751605540514, -0.0799906924366951, 0.052397605031728745, -0.08823223412036896, 0.034951016306877136, -0.08842511475086212, -0.005228801630437374, -0.013940500095486641, -0.09358556568622589, -0.07235375046730042, -0.08443048596382141, 0.22024305164813995, 0.12450678646564484, 0.13387390971183777, -0.06477316468954086, 0.03807142749428749, -0.1232377141714096, 0.041917651891708374, 0.009089820086956024, 0.22295227646827698, 0.05313345044851303, 0.09633006155490875, -0.011195127852261066, 0.030585989356040955, 0.14420005679130554, 0.01926714926958084, -0.0353047177195549, -0.07766647636890411, 0.05846487730741501, 0.12959089875221252, 0.13257908821105957, -0.02642713487148285, -0.03836098313331604, -0.013331359252333641, 0.1112755835056305, 0.06788021326065063, 0.1744692027568817, 0.0209047868847847, -0.07045462727546692, 0.06109478324651718, -0.017905551940202713, 0.014430983923375607, -0.04575950279831886], [-0.1075129508972168, -0.1283571869134903, -0.17019197344779968, 0.14769622683525085, -0.06528793275356293, 0.05327942967414856, -0.03430958092212677, 0.02773454785346985, 0.11019238829612732, -0.00859457440674305, 0.025330089032649994, 0.16546760499477386, 0.10507377982139587, -0.109402596950531, 0.14291876554489136, -0.12245501577854156, -0.06741125881671906, 0.06817355751991272, 0.006362190004438162, -0.1572147011756897, -0.049077995121479034, 0.0004358217120170593, -0.12418337911367416, 0.0685756653547287, -0.0635598823428154, -0.13310712575912476, -0.0881037786602974, -0.09354992210865021, 0.026524880900979042, 0.08777277916669846, 0.06923164427280426, -0.09991919994354248, -0.0009676041081547737, -0.0356583446264267, 0.06594772636890411, -0.03999510034918785, 0.0282910019159317, 0.01834981143474579, 0.021045461297035217, 0.03878394514322281, -0.11450589448213577, 0.051443785429000854, -0.14871962368488312, 0.01670192927122116, -0.049239423125982285, -0.14516089856624603, -0.05389494076371193, -0.07969039678573608, -0.06754705309867859, 0.16088464856147766, 0.053774408996105194, -0.1411411464214325, -0.04434870555996895, 0.15837357938289642, -0.024255216121673584, 0.07986623048782349, -0.010555597022175789, 0.23048415780067444, 0.11560806632041931, 0.02384370192885399, -0.029771022498607635, -0.24116399884223938, -0.08652717620134354, -0.11543776839971542], [0.09517136216163635, -0.005842488259077072, -0.12195244431495667, 0.0748940110206604, 0.16613805294036865, 0.1078658476471901, -0.2010599672794342, 0.117287777364254, -0.03613749146461487, -0.016059553250670433, 0.06698809564113617, 0.0937332957983017, -0.0048972684890031815, 0.06994500011205673, -0.011981500312685966, -0.025907117873430252, -0.19127830862998962, -0.06770362704992294, -0.06599076092243195, 0.05455438047647476, 0.0708220899105072, -0.05216188356280327, 0.07888760417699814, 0.13868865370750427, -0.022993968799710274, 0.028882812708616257, -0.051125358790159225, 0.16441656649112701, -0.050073955208063126, -0.026549242436885834, 0.06673970818519592, 0.09777602553367615, -0.08693091571331024, 0.0019240537658333778, -0.12427998334169388, -0.024414265528321266, 0.022375283762812614, -0.054662074893713, 0.08006105571985245, -0.0007433053106069565, 0.07599154859781265, 0.02245507203042507, 0.044643111526966095, -0.10447458177804947, 0.015271240845322609, 0.04801928251981735, 0.13536417484283447, 0.055428192019462585, 0.03836449235677719, -0.06454476714134216, -0.018137451261281967, -0.09353663772344589, 0.10358865559101105, 0.09844659268856049, -0.025404594838619232, 0.11548537015914917, 0.012161321938037872, -0.10598039627075195, 0.020172376185655594, -0.011862044222652912, 0.029819898307323456, 0.08436690270900726, 0.009688165038824081, 0.0949021726846695], [0.018586592748761177, 0.09654614329338074, -0.10444441437721252, 0.05770371854305267, -0.014467753469944, 0.10925182700157166, 0.020339351147413254, -0.09634728729724884, 0.12244469672441483, 0.15878766775131226, 0.01890668086707592, 0.033469703048467636, 0.17967399954795837, 0.21300674974918365, -0.1738693118095398, -0.02853180095553398, -0.22883827984333038, -0.16748858988285065, 0.027549326419830322, 0.05575290694832802, 0.016828948631882668, -0.04366340860724449, 0.056974977254867554, 0.014544540084898472, 0.06673501431941986, -0.04534706473350525, -0.06738370656967163, 0.1458567976951599, -0.027007563039660454, -0.012756017968058586, -0.002904568798840046, -0.015103448182344437, -0.02746192365884781, -0.032365020364522934, 0.20378363132476807, 0.024727147072553635, 0.07165729999542236, -0.13086728751659393, 0.014537894167006016, 0.05807027220726013, 0.025906022638082504, 0.02809557318687439, 0.041448913514614105, -0.1206292062997818, 0.12692071497440338, -0.011451325379312038, 0.005834017880260944, 0.07931961864233017, 0.06271160393953323, 0.0542190857231617, -0.24502551555633545, 0.11377967894077301, -0.013152964413166046, -0.039078421890735626, -0.013148259371519089, -0.011841925792396069, 0.07632219791412354, -0.007851933129131794, 0.08797627687454224, 0.18760012090206146, -0.05684183910489082, 0.030628100037574768, 0.05338617414236069, -0.0018478687852621078], [-0.034312471747398376, -0.02718115970492363, -0.06894446164369583, -0.17542177438735962, 0.07624311745166779, 0.08868110924959183, -0.005110056139528751, -0.023143494501709938, 0.0831717923283577, -0.04496137797832489, -0.05497351288795471, 0.13952505588531494, 0.05338495224714279, 0.03968589007854462, 0.046065203845500946, 0.039592206478118896, -0.02396080456674099, -0.002310527488589287, -0.04535992443561554, 0.05106201395392418, 0.09484649449586868, -0.03798967972397804, 0.01639622077345848, -0.0031441347673535347, 0.13752862811088562, -0.006004965864121914, 0.07490745186805725, 0.14288760721683502, -0.09436706453561783, -0.2894725203514099, 0.0046742442063987255, 0.08269838988780975, -0.08406533300876617, 0.17255517840385437, 0.09042540192604065, 0.07539637386798859, 0.08356805145740509, 0.00832933560013771, -0.010595527477562428, 0.023970607668161392, 0.0021716675255447626, -0.040048226714134216, -0.0033154753036797047, -0.05380699038505554, -0.0977141410112381, 0.004882126115262508, -0.09657490253448486, -0.044273294508457184, 0.08229093253612518, 0.21363601088523865, -0.049854911863803864, 0.27279409766197205, -0.014689549803733826, -0.1903909146785736, -0.05437890812754631, 0.07571408897638321, 0.10238829255104065, 0.03904952108860016, 0.02211572416126728, 0.03511898219585419, 0.09919861704111099, 0.09408615529537201, 0.01981215365231037, -0.12919655442237854], [0.06751096248626709, 0.037905119359493256, 0.14895980060100555, -0.02703571878373623, -0.08814215660095215, -0.018889129161834717, -0.02737279422581196, -0.10672256350517273, 0.04882276430726051, -0.02518654242157936, -0.03495557978749275, 0.0434187613427639, -0.13180603086948395, 0.03939475491642952, 0.15413199365139008, -0.020259229466319084, 0.03563109412789345, -0.049673132598400116, -0.12271471321582794, 0.03715161606669426, -0.05213457718491554, -0.036531269550323486, -0.08193621039390564, -0.1633494347333908, 0.02892070822417736, 0.09360398352146149, 0.010418126359581947, 0.03639836981892586, 0.1646149903535843, -0.00036516436375677586, -0.07418608665466309, -0.04333196207880974, 0.019296348094940186, -0.055958639830350876, -0.02567915990948677, 0.013957250863313675, 0.08808198571205139, -0.18865936994552612, -0.07562555372714996, -0.07419927418231964, -0.03216639533638954, -0.07161841541528702, 0.06779752671718597, -0.0355081781744957, -0.036467134952545166, 0.15068186819553375, -0.05381935089826584, 0.011579148471355438, -0.05949373543262482, 0.08277441561222076, -0.0013177432119846344, -0.037379831075668335, 0.012970281764864922, 0.10622707009315491, -0.04912020266056061, -0.07847471535205841, -0.19723697006702423, 0.2475578486919403, 0.04808417707681656, 0.0677264928817749, 0.00377679243683815, 0.1056378185749054, -0.11057748645544052, 0.025071874260902405], [-0.11553753912448883, 0.019920021295547485, -0.06427836418151855, -0.004427047446370125, 0.011098289862275124, 0.005764231085777283, -0.1833113133907318, -0.03536408767104149, -0.01716356724500656, -0.02820921503007412, 0.010719673708081245, 0.006063006818294525, -0.05370241403579712, 0.03696620464324951, 0.13491475582122803, 0.02345755137503147, 0.09717206656932831, -0.09142620861530304, -0.003744174726307392, 0.024727892130613327, -0.009176711551845074, 0.09055213630199432, -0.15282349288463593, -0.057326845824718475, 0.019708998501300812, 0.03271707147359848, -0.04317841678857803, -0.02626844495534897, 0.10839328169822693, 0.045944008976221085, 0.01262288261204958, -0.06921771168708801, -0.1985665112733841, 0.08483151346445084, -0.03767933323979378, 0.020033249631524086, -0.01625092700123787, 0.0627368912100792, -0.1215546652674675, -0.11896248161792755, 0.09252530336380005, 0.02980828657746315, 0.10516330599784851, -0.009254641830921173, -0.15865099430084229, 0.02171839028596878, 0.1001141220331192, -0.013656262308359146, -0.06172042712569237, -0.2776549458503723, -0.058108001947402954, -0.053296174854040146, -0.09543707966804504, -0.1190079003572464, -0.13571055233478546, -0.11063196510076523, -0.02505025640130043, -0.0766955018043518, -0.019155200570821762, 0.058177921921014786, -0.011871078982949257, 0.08669465035200119, 0.06237351521849632, -0.02183132991194725], [-0.1805322915315628, 0.01975112222135067, 0.03909178450703621, 0.14316046237945557, -0.020378656685352325, 0.09363310039043427, 0.09071867913007736, 0.10431009531021118, -0.11637181043624878, 0.04890883341431618, -0.07443482428789139, -0.04914458468556404, -0.012888496741652489, 0.15546898543834686, 0.06453542411327362, 0.028422068804502487, -0.010864807292819023, 0.05535104125738144, 0.11423008888959885, 0.05398830398917198, 0.07180408388376236, -0.058478113263845444, 0.13600003719329834, -0.001532166264951229, -0.1714118868112564, 0.08056455105543137, 0.04097018390893936, 0.11226695775985718, 0.20314829051494598, -0.05660722404718399, -0.07058996707201004, -0.06018417701125145, 0.024462169036269188, -0.05397874116897583, -0.10801657289266586, -0.1759854257106781, -0.14478600025177002, -0.11833850294351578, -0.07838557660579681, -0.020645301789045334, 0.08456467092037201, -0.028012428432703018, 0.05304001271724701, -0.08700857311487198, -0.030356070026755333, -0.03359491750597954, 0.03341345489025116, -0.0017921272665262222, 0.060988809913396835, 0.037275075912475586, -0.15396183729171753, -0.04625152051448822, -0.15365608036518097, 0.04274044930934906, -0.0677991434931755, 0.12250610440969467, 0.17573755979537964, 0.05641630291938782, 0.13951657712459564, 0.11426755785942078, -0.06335882842540741, -0.16096222400665283, -0.02514246664941311, -0.05327636003494263], [0.15426316857337952, -0.1471254527568817, 0.039151713252067566, -0.29414600133895874, -0.020238235592842102, -0.014483392238616943, -0.027383724227547646, 0.12285155802965164, -0.1029907688498497, 0.013582196086645126, -0.05867062509059906, -0.19828273355960846, 0.023778945207595825, -0.08019682765007019, 0.1259286105632782, 0.1362423300743103, -0.06119533255696297, -0.029463116079568863, 0.1376403570175171, 0.07844096422195435, -0.01707729510962963, -0.1303240805864334, 0.041308313608169556, -0.09090059250593185, -0.045363545417785645, -0.08297181129455566, -0.15528367459774017, -0.11942622065544128, 0.0096195749938488, 0.10192577540874481, -0.008213674649596214, 0.029027950018644333, -0.04574180394411087, -0.046918246895074844, -0.06351827085018158, -0.06602320820093155, 0.014946682378649712, 0.29868006706237793, 0.002011330798268318, -0.08700279891490936, 0.13839668035507202, 0.002759421244263649, 0.06593801081180573, 0.05061384290456772, -0.0701482966542244, -0.004397737327963114, 0.022432921454310417, -0.26232603192329407, -0.028691008687019348, -0.023713169619441032, -0.014130763709545135, -0.08588738739490509, 0.04143262654542923, -0.046995118260383606, -0.060540907084941864, -0.07960540056228638, 0.025251252576708794, -0.0154641792178154, 0.03704607114195824, -0.03483830392360687, -0.05786498263478279, 0.10124680399894714, 0.04680067300796509, 0.009861839935183525], [-0.09660893678665161, -0.012449284084141254, -0.12250884622335434, -0.16624118387699127, -0.05533919855952263, -0.11966478079557419, 0.11664087325334549, -0.09784270823001862, 0.03418070077896118, 0.00847652554512024, -0.004612870514392853, 0.05065964162349701, 0.05826481431722641, 0.07240205258131027, 0.05814007669687271, -0.02354200929403305, -0.08083176612854004, -0.0014817221090197563, -0.06524897366762161, -0.21757566928863525, -0.014338087290525436, -0.07999636232852936, -0.008978839963674545, -0.20666122436523438, 0.0002850983291864395, -0.010653896257281303, -0.07538416981697083, 0.04922609403729439, 0.03801008313894272, -0.11972025036811829, -0.07322527468204498, 0.020536931231617928, -0.10719408094882965, 0.03152373805642128, -0.0319715216755867, 0.024672945961356163, -0.18253344297409058, 0.08436038345098495, -0.08201579004526138, 0.0786207914352417, 0.11992688477039337, -0.1199311912059784, -0.12616993486881256, -0.060545291751623154, 0.08866332471370697, 0.0018618758767843246, -0.009219233877956867, -0.020099759101867676, 0.0712333619594574, 0.07365495711565018, 0.10500702261924744, 0.05333564803004265, -0.13878273963928223, -0.05484624579548836, 0.09618759900331497, -0.0549786239862442, -0.057497333735227585, 0.03566867485642433, -0.035096459090709686, -0.10535354912281036, -0.12409231066703796, 0.08340734988451004, 0.07855270802974701, -0.08618515729904175], [-0.032496917992830276, -0.10710978507995605, 0.145176500082016, -0.10612823069095612, 0.055911656469106674, -0.1317952275276184, -0.049055129289627075, 0.12462189793586731, 0.03142803534865379, -0.12388654053211212, 0.015680821612477303, 0.10644851624965668, -0.10434472560882568, 0.13068260252475739, -0.17176365852355957, 0.0619315467774868, 0.0030074603855609894, -0.14524462819099426, -0.237716406583786, 0.05145493522286415, -0.08252492547035217, 0.008664427325129509, -0.03955473005771637, 0.037813663482666016, 0.08623809367418289, -0.1645028293132782, -0.0026092976331710815, -0.05346274748444557, -0.008631965145468712, -0.004552464932203293, -0.03819170966744423, 0.0542595349252224, -0.18186604976654053, 0.04007859155535698, -0.08849874883890152, 0.010001457296311855, 0.1108122169971466, -0.10664086043834686, 3.960356116294861e-05, -0.06001393496990204, 0.1354590505361557, 0.006323435343801975, -0.11687038093805313, -0.12334808707237244, -0.14643274247646332, 0.03879498317837715, 0.11774206161499023, 0.16998066008090973, -0.000644187442958355, -0.11208124458789825, -0.07004449516534805, -0.009867619723081589, -0.05609159916639328, 0.013942711986601353, 0.09378564357757568, 0.004506921395659447, -0.096724733710289, 0.04797489196062088, -0.1505865454673767, 0.08196713030338287, -0.05899490788578987, 0.029499784111976624, -0.09759798645973206, 0.037641435861587524], [0.06908911466598511, 0.02710258960723877, 0.12984949350357056, 0.0005437564104795456, 0.06726419180631638, -0.038227155804634094, -0.09956102818250656, -0.07533729821443558, -0.06966914236545563, 0.006167136132717133, -0.057595863938331604, -0.00589048583060503, 0.09143109619617462, 0.004530763253569603, 0.08023668825626373, 0.047808509320020676, -0.2533469796180725, 0.021412748843431473, -0.007412048056721687, -0.13601267337799072, 0.21667632460594177, 0.01847611740231514, 0.03980834782123566, -0.030784297734498978, -0.018223848193883896, -0.0089203966781497, 0.07655048370361328, 0.008246539160609245, -0.0797128677368164, -0.07962769269943237, 0.09293554723262787, 0.01501416601240635, 0.014322863891720772, -0.03532830998301506, 0.10700176656246185, -0.077940434217453, 0.03261617571115494, 0.05125584453344345, 0.08558271825313568, -0.1739238053560257, -0.12757575511932373, 0.06643946468830109, 0.05755752697587013, -0.04421360418200493, 0.030154604464769363, 0.036739494651556015, -0.02649422362446785, 0.0003863479942083359, 0.02018360048532486, 0.023800013586878777, 0.018429070711135864, -0.11765077710151672, -0.05226612836122513, 0.006088774651288986, 0.10617699474096298, -0.05968288704752922, 0.13549667596817017, -0.10980232805013657, 