[{"speed": 3.0, "turn_angle": 27.297572028311713, "model_weights": [[[0.05150391161441803, -0.13917937874794006, 0.03983524441719055, -0.0961502194404602, 0.12597769498825073, 0.08236756920814514, 0.009745102375745773, 0.020281556993722916, -0.1657392680644989, 0.023436252027750015, -0.03889104723930359, 0.09141138195991516, 0.02393219619989395, -0.05367442965507507, -0.00901667308062315, -0.021560654044151306, -0.002046988345682621, 0.14887723326683044, -0.17847809195518494, -0.11862526834011078, 0.10603000223636627, -0.035984329879283905, -0.060931138694286346, -0.04458822309970856, 0.04252326488494873, 0.05519113689661026, -0.1067933589220047, -0.012689094059169292, -0.04723142087459564, 0.13913264870643616, -0.17812716960906982, -0.08183038234710693, -0.14634233713150024, 0.12078720331192017, 0.19744223356246948, 0.10885186493396759, 0.1321605145931244, -0.2459932416677475, 0.08687956631183624, -0.003013182897120714, -0.009236045181751251, -0.08366681635379791, -0.14756283164024353, 0.045726802200078964, 0.12905505299568176, 0.1289106011390686, 0.018980257213115692, -0.05080188810825348, 0.08813077211380005, 0.1254553496837616, 0.016044896095991135, -0.005735834129154682, -0.1416446566581726, 0.05718778818845749, 0.0676487535238266, 0.06748735904693604, 0.09079624712467194, -0.06455746293067932, 0.020135954022407532, 0.080024853348732, 0.050280891358852386, 0.029337391257286072, -0.25054144859313965, 0.014214208349585533], [-0.0002718719479162246, 0.046226851642131805, -0.019014915451407433, 0.1559024155139923, -0.014665139839053154, -0.07555323839187622, 0.1818847358226776, -0.0012670597061514854, 0.07575390487909317, -0.06478821486234665, -0.057346612215042114, 0.01588846743106842, 0.05445796996355057, -0.30457603931427, 0.03185481205582619, 0.13105860352516174, -0.0111051881685853, 0.05886290222406387, 0.1297210156917572, -0.07044705748558044, 0.12328765541315079, 0.003125013317912817, -0.21066680550575256, -0.06477604806423187, -0.016165975481271744, -0.06392493844032288, -0.14330798387527466, 0.09374977648258209, 0.05626588687300682, 0.03203538805246353, -0.015806907787919044, 0.044119492173194885, -0.20473867654800415, 0.12244462966918945, 0.007165979593992233, -0.03684788942337036, -0.008773207664489746, 0.07658971846103668, 0.0905306339263916, -0.03014468029141426, -0.05614687129855156, 0.04779454320669174, -0.012651893310248852, 0.09908320009708405, 0.027932211756706238, 0.0707305371761322, -0.1380430907011032, -0.21756401658058167, 0.05825259909033775, 0.036160022020339966, 0.1662270724773407, -0.026943329721689224, 0.020033270120620728, -0.06269587576389313, 0.08124776184558868, -0.010568507015705109, -0.031220056116580963, 0.01228353101760149, -0.09426074475049973, 0.010908706113696098, -0.1551293134689331, -0.09974054992198944, 0.07624642550945282, -0.053459905087947845], [-0.0712687224149704, 0.025658704340457916, -0.12021820992231369, 0.043074965476989746, 0.0326215997338295, 0.055349137634038925, 0.12541858851909637, 0.0025599508080631495, 0.016075285151600838, -0.007294627372175455, -0.13098040223121643, -0.046653687953948975, 0.1276540756225586, -0.12314043939113617, 0.13823656737804413, -0.17374834418296814, 0.17288145422935486, 0.06695090979337692, -0.1837734878063202, -0.026207514107227325, -0.012225817888975143, -0.05918401479721069, -0.10330785810947418, -0.009642437100410461, 0.0722460150718689, -0.06310363113880157, 0.06299090385437012, -0.18956992030143738, 0.004093563184142113, 0.10053165256977081, 0.10487282276153564, -0.18569964170455933, -0.05542268604040146, 0.12930753827095032, -0.026790976524353027, 0.04542877525091171, 0.07629214227199554, 0.08338075876235962, 0.0414549857378006, 0.08727860450744629, 0.11162818223237991, 0.10591521859169006, -0.015252454206347466, 0.10334044694900513, 0.014818895608186722, -0.006736001465469599, 0.059783704578876495, -0.09445343911647797, -0.11173634231090546, -0.15124328434467316, -0.10425077378749847, 0.12613102793693542, -0.0830933004617691, -0.03318997472524643, -0.0437907949090004, 0.05387996509671211, 0.05612115561962128, -0.2162151336669922, 0.10727390646934509, -0.06164398789405823, -0.025559792295098305, 0.11869125068187714, 0.18083417415618896, -0.1436375081539154], [0.018185507506132126, 0.07676735520362854, 0.00046374424709938467, -0.09485428035259247, -0.058285437524318695, -0.13224616646766663, -0.10770606249570847, 0.1103854775428772, -0.003397922730073333, 0.06423884630203247, 0.04744388163089752, 0.06850580126047134, -0.14073944091796875, 0.16849815845489502, 0.06850291788578033, -0.08465324342250824, -0.10452570766210556, 0.004476071335375309, -0.0006243676180019975, 0.07609690725803375, -0.057219646871089935, 0.04296603798866272, 0.08165039122104645, -0.2181299328804016, -0.06341341137886047, -0.21508514881134033, -0.14246419072151184, 0.0975455641746521, 0.0817236378788948, -0.14643806219100952, 0.15590175986289978, -0.10670018196105957, 0.08339055627584457, -0.06168225407600403, -0.14890795946121216, -0.0661604106426239, 0.00513121671974659, 0.06741808354854584, -0.04888622462749481, -0.18270167708396912, 0.1567942202091217, -0.10801258683204651, -0.1454823911190033, 0.0013599100057035685, -0.07548777759075165, -0.03692089021205902, 0.26244544982910156, -0.08730609714984894, -0.07853277027606964, -0.07252350449562073, 0.12946021556854248, 0.1261330544948578, 0.032332755625247955, -0.05352321267127991, -0.056545644998550415, -0.06072784215211868, -0.21611075103282928, -0.13043227791786194, 0.011817466467618942, -0.009765570051968098, 0.11795797944068909, 0.08901294320821762, -0.08143530786037445, -0.014135736972093582], [0.03084319829940796, 0.06060633063316345, 0.028840044513344765, -0.04381386190652847, 0.09643879532814026, 0.017531052231788635, 0.07689613103866577, 0.04046012833714485, -0.026503635570406914, 0.044580843299627304, -0.06564220786094666, 0.06730593740940094, -0.012147808447480202, 0.05602087825536728, -0.07240709662437439, -0.02826608531177044, 0.14441218972206116, -0.09710435569286346, -0.072511687874794, 0.023494530469179153, 0.13406646251678467, 0.0006073513068258762, -0.05047226324677467, 0.026085950434207916, -0.09592299163341522, -0.11195317655801773, -0.02139159105718136, 0.15296833217144012, -0.08377982676029205, 0.20463299751281738, 0.06383666396141052, -0.0777970477938652, 0.17106053233146667, 0.02256493642926216, -0.060860659927129745, 0.08209040760993958, -0.20474278926849365, -0.20462000370025635, -0.05189935117959976, -0.11297202110290527, 0.08360902965068817, -0.05096401274204254, 0.022340163588523865, 0.011091730557382107, -0.026105884462594986, -0.08009973168373108, 0.050257422029972076, -0.024716652929782867, -0.11744876205921173, 0.05965512990951538, 0.09219598770141602, 0.09842272102832794, -0.09057345241308212, 0.041572511196136475, 0.11791840195655823, 0.17258405685424805, -0.009687385521829128, 0.035109080374240875, 0.009531509131193161, 0.05748577415943146, -0.037200383841991425, 0.18022213876247406, 0.0708729475736618, -0.17289528250694275], [0.02165362611413002, -0.12045156955718994, -0.02207384631037712, -0.1527838408946991, 0.045575134456157684, 0.144717276096344, 0.02811024710536003, -0.023751309141516685, -0.041765838861465454, 0.10195375978946686, -0.19982072710990906, -0.041932202875614166, 0.019377071410417557, 0.11417199671268463, -0.12509623169898987, -0.05210322141647339, 0.01995561271905899, -0.19997435808181763, 0.11312443017959595, -0.052730537950992584, -0.016234681010246277, 0.10217475891113281, 0.036791615188121796, -0.15961217880249023, 0.21423965692520142, 0.08673299103975296, -0.06597860157489777, -0.006392471492290497, -0.044993020594120026, 0.10829116404056549, 0.03199207782745361, -0.08983258903026581, 0.011623645201325417, -0.1021282747387886, 0.05157087370753288, 0.1397867202758789, 0.03564345836639404, -0.023743629455566406, -0.033697158098220825, -0.0678333044052124, 0.120113305747509, -0.024214603006839752, -0.16318783164024353, 0.06898099184036255, -0.0925646722316742, 0.04060687497258186, -0.0527656190097332, -0.13535943627357483, -0.048704855144023895, -0.04984806478023529, -0.06832562386989594, -0.02827487885951996, -0.132391557097435, 0.17613384127616882, 0.06962894648313522, -0.1282670795917511, 0.04868096858263016, 0.019989456981420517, 0.001984273549169302, 0.08580313622951508, 0.28655630350112915, 0.12881708145141602, -0.08189749717712402, 0.014474206604063511], [-0.09994202852249146, 0.007280045188963413, 0.051811009645462036, 0.04474807158112526, 0.047616757452487946, 0.001284503610804677, 0.052061520516872406, -0.058861665427684784, -0.026183191686868668, -0.08623990416526794, 0.0405050665140152, -0.1650954633951187, 0.05520331859588623, -0.1162881925702095, 0.14527344703674316, -0.17691150307655334, 0.10567174851894379, 0.029006361961364746, 0.1606026589870453, -0.010462433099746704, 0.09325426816940308, -0.07702545821666718, 0.06979472935199738, -0.03494144603610039, -0.1933659315109253, 0.39853280782699585, 0.14626339077949524, -0.11343342065811157, 0.04653109610080719, -0.04293143004179001, -0.055181413888931274, 0.0013984846882522106, 0.0546274334192276, -0.07843460887670517, 0.022006280720233917, 0.05107666552066803, -0.057529352605342865, 0.12459912896156311, 0.023520510643720627, -0.03413280099630356, 0.01884758099913597, -0.28059905767440796, -0.016791053116321564, 0.07957524061203003, -0.02237093448638916, 0.049877017736434937, -0.05419255793094635, 0.08015748858451843, -0.08737904578447342, -0.11280982196331024, -0.015924539417028427, 0.07856301963329315, 0.022931238636374474, -0.026201484724879265, 0.07219919562339783, 0.011935176327824593, 0.05090845376253128, 0.0608234629034996, -0.16715332865715027, 0.1618589460849762, 0.024639813229441643, -0.05354897677898407, -0.1103023886680603, -0.08355860412120819], [-0.09449756145477295, 0.23643779754638672, 0.07232476770877838, 0.03531189262866974, -0.06990328431129456, 0.07818228751420975, 0.16325023770332336, -0.05961203575134277, 0.017818210646510124, 0.061941444873809814, 0.07087084650993347, 0.005512830801308155, -0.12820518016815186, -0.058122433722019196, -0.06709916889667511, 0.03772249072790146, -0.016226641833782196, -0.01414915919303894, -0.02027508243918419, -0.0103582963347435, 0.03172612935304642, -0.1329936385154724, 0.23142918944358826, 0.03433912992477417, -0.020561158657073975, 0.10198481380939484, 0.005315093323588371, -0.10807077586650848, -0.012489104643464088, 0.10859541594982147, -0.010595313273370266, -0.10422059893608093, 0.08022202551364899, -0.05723527818918228, -0.05436507239937782, 0.04031571000814438, -0.012291932478547096, 0.09849454462528229, 0.059780552983284, -0.10680672526359558, -0.12477700412273407, -0.1518866866827011, 0.2986605763435364, -0.11013638228178024, 0.06853407621383667, 0.016053665429353714, 0.09133702516555786, -0.0912342220544815, 0.13991156220436096, -0.05643130838871002, -0.07456623017787933, 0.00924530066549778, 0.009829949587583542, 0.12297889590263367, -0.04289563372731209, -0.032570771872997284, 0.07836896181106567, -0.07966306805610657, 0.0529441237449646, 0.03540550917387009, -0.01956108957529068, 0.04123547673225403, -0.08689776062965393, -0.08914852142333984], [0.13759368658065796, -0.047419823706150055, 0.03958432376384735, -0.1101938784122467, 0.02559458464384079, 0.07974253594875336, -0.029188768938183784, -0.04350195825099945, 0.013814946636557579, -0.043059710413217545, -0.1069706380367279, 0.021166816353797913, -0.02448064088821411, -0.1873975396156311, -0.0867425799369812, -0.06483305990695953, -0.05243535339832306, 0.008204448968172073, -0.052525486797094345, 0.04604967683553696, 0.013526096940040588, -0.16853994131088257, 0.03370217606425285, -0.0029424659442156553, 0.09912377595901489, -0.03535009175539017, -0.15184307098388672, -0.22296321392059326, 0.008507918566465378, 0.06488728523254395, 0.02011355385184288, -0.06891113519668579, -0.1518479585647583, 0.10560989379882812, -0.11087730526924133, -0.0052246833220124245, -2.713495268835686e-05, -0.00358778890222311, -0.019669702276587486, 0.19945639371871948, -0.07077465951442719, 0.07175019383430481, 0.1396721601486206, 0.02679162658751011, -0.10169029980897903, -0.06922322511672974, -0.13167935609817505, -0.02513151243329048, -0.05916767567396164, 0.2131103277206421, 0.04309338331222534, -0.07976796478033066, -0.11188142001628876, -0.0479101687669754, 0.07991786301136017, 0.024100858718156815, 0.02359040081501007, 0.046355023980140686, -0.004939562641084194, 0.03540407121181488, -0.001878587994724512, -0.17376594245433807, 0.02273649536073208, 0.11622543632984161], [0.019025735557079315, 0.05747111141681671, -0.08074954152107239, -0.004430857487022877, 0.07384056597948074, 0.022417601197957993, -0.007111040409654379, -0.1465347409248352, -0.04042186960577965, -0.06180375814437866, 0.03349762409925461, 0.0269370935857296, 0.06103978678584099, 0.04180604964494705, -0.157243549823761, -0.005074639338999987, 0.008140785619616508, 0.23583762347698212, -0.0784100741147995, -0.17483431100845337, -0.11525976657867432, 0.007609034888446331, 0.12496384978294373, 0.06277203559875488, 0.09079787135124207, 0.027346652001142502, 0.00719877053052187, -0.14684194326400757, -0.19593200087547302, 0.030891217291355133, -0.03292303532361984, -0.13605144619941711, -0.06471025943756104, 0.07973112165927887, 0.19764292240142822, -0.16912841796875, -0.07477457821369171, -0.015412704087793827, 0.04160749167203903, 0.05435487627983093, -0.06709259748458862, 0.08988797664642334, 0.012113800272345543, 0.13472957909107208, -0.006786220706999302, 0.04179656505584717, -0.156677708029747, 0.19109752774238586, 0.07152026891708374, 0.0087972953915596, -0.03238502889871597, 0.04315498471260071, -0.021473802626132965, 0.10304208844900131, -0.198609858751297, 0.15157771110534668, -0.12522830069065094, 0.045762985944747925, -0.13650864362716675, -0.05488278716802597, 0.08205226063728333, 0.08283820748329163, 0.00010670861229300499, 0.09836024045944214], [0.02711951732635498, 0.13998091220855713, 0.09608553349971771, 0.03823293745517731, -0.008566786535084248, 0.029423940926790237, 0.0746302679181099, -0.023492690175771713, 0.03297775611281395, 0.18727213144302368, -0.04788246005773544, 0.019588086754083633, -0.062308914959430695, -0.12656819820404053, -0.09721249341964722, 0.1300858110189438, 0.06014031916856766, 0.0195009708404541, 0.06444084644317627, 0.08140373229980469, -0.00957688968628645, 0.02124249003827572, 0.14023956656455994, -0.00014321506023406982, 0.017369091510772705, 0.11557334661483765, -0.1772581934928894, -0.030067667365074158, 0.11193932592868805, 0.007798158563673496, 0.004739601165056229, -0.023255888372659683, -0.13148482143878937, -0.02700115367770195, 0.07776786386966705, -0.08765759319067001, 0.12002429366111755, -0.017089076340198517, -0.016452547162771225, -0.05169612914323807, -0.14676061272621155, -0.1111360415816307, -0.2705550193786621, 0.14988142251968384, -0.015226177871227264, 0.09797503054141998, 0.034929998219013214, -0.049318939447402954, -0.12329784035682678, -0.0128422100096941, -0.058663029223680496, 0.13640426099300385, -0.07948876172304153, -0.09270965307950974, -0.1233527809381485, 0.058734163641929626, -0.05280134081840515, 0.031850479543209076, 0.047053441405296326, -0.09787935018539429, -0.0012667477130889893, -0.03501112014055252, -0.12150059640407562, -0.19189554452896118], [0.07645662128925323, -0.1540030539035797, -0.11077873408794403, -0.016875989735126495, -0.09164974093437195, -0.013531439937651157, -0.10016427934169769, 0.1839306354522705, 0.06498758494853973, -0.04694592207670212, -0.05580152943730354, -0.0021359887905418873, -0.1072654128074646, -0.09697428345680237, -0.05995166301727295, 0.07988539338111877, -0.02899302914738655, -0.07349249720573425, -0.14598020911216736, 0.049220163375139236, 0.0823579877614975, 0.044705264270305634, -0.038173608481884, -0.03478696197271347, -0.12886440753936768, 0.044855568557977676, 0.08321665227413177, 0.13426798582077026, -0.003679376095533371, -0.06598517298698425, 0.0735403299331665, 0.04786774143576622, 0.07305251061916351, 0.05715855956077576, -0.1065693199634552, -0.025374270975589752, 0.18697631359100342, 0.0013120900839567184, 0.002611133037135005, -0.06439091265201569, -0.02730526402592659, -0.058996379375457764, -0.07249248027801514, -0.03786570578813553, 0.1313420832157135, -0.08734382688999176, 0.07390938699245453, -0.10644319653511047, 0.04900060594081879, -0.07517050206661224, -0.05848364531993866, -0.07412596046924591, -0.025511104613542557, -0.2948911190032959, 0.08081980049610138, -0.07761651277542114, 0.13829058408737183, 0.11990884691476822, 0.09390486776828766, -0.1582794487476349, 0.048655472695827484, 0.0701105147600174, 0.10858644545078278, -0.15450826287269592], [-0.11581718921661377, -0.07598745077848434, 0.042082227766513824, 0.09796369820833206, -0.18222573399543762, 0.03866896778345108, -0.07630449533462524, 0.1490650177001953, -0.12584680318832397, 0.0213155560195446, -0.20619982481002808, 0.07747727632522583, -0.004839083645492792, -0.0666770488023758, -0.11856546998023987, 0.00974202062934637, 0.06399834156036377, 0.19850531220436096, -0.14826124906539917, -0.008646566420793533, 0.14198975265026093, -0.07493813335895538, -0.0870559886097908, 0.09497363865375519, 0.1404247134923935, -0.10782250761985779, 0.2235105037689209, 0.19680634140968323, -0.07570497691631317, -0.05740047246217728, 0.20777244865894318, 0.004251220263540745, -0.00380318402312696, -0.034403130412101746, -0.15997517108917236, 0.08231005072593689, -0.054936833679676056, 0.1924682855606079, 0.03589225187897682, -0.02706364542245865, 0.05509745329618454, -0.004992519039660692, -0.06725217401981354, -0.10074268281459808, 0.0035954425111413, 0.16544657945632935, -0.0708712711930275, -0.14843392372131348, 0.09508423507213593, -0.09174981713294983, 0.0930044949054718, -0.06856941431760788, -0.18680182099342346, 0.01314198225736618, 0.05950457602739334, -0.05764858424663544, 0.03665006160736084, -0.052817076444625854, -0.05931875854730606, 0.05075990408658981, 0.06517084687948227, 0.05465199053287506, 0.11585570871829987, -0.15194976329803467]], [-0.12880870699882507, -0.05427060276269913, 0.1395758092403412, -0.09455804526805878, -0.11471699178218842, 0.06036771833896637, -0.09772880375385284, -0.05188026279211044, -0.03339940682053566, 0.15000343322753906, -0.05610793083906174, -0.0532718226313591, 0.05395176261663437, 0.16315391659736633, 0.09517425298690796, -0.10234072804450989, -0.004719112068414688, 0.008233976550400257, 0.020391691476106644, 0.006458366755396128, 0.000781097449362278, -0.05686379224061966, 0.011891515925526619, -0.004656965844333172, 0.02347995899617672, 0.0017476994544267654, -0.005874060094356537, 0.02906174585223198, 0.00811234675347805, -0.09427541494369507, 0.0963282659649849, -0.11271052062511444, 0.06463930010795593, 0.031289804726839066, -0.05242972820997238, 0.01911875233054161, -0.011608370579779148, -0.01329236663877964, 0.011129384860396385, -0.025011086836457253, -0.0012994753196835518, -0.017689842730760574, -0.00661859568208456, 0.011620890349149704, -0.036859381943941116, -0.0009454615064896643, -0.033491574227809906, -0.08959659934043884, -0.04607565701007843, -0.06702613830566406, -0.056546177715063095, 0.12134005129337311, 0.010750651359558105, -0.07478991150856018, 0.06691499054431915, -0.03619439899921417, -0.009191358461976051, -0.024473652243614197, 0.04380197077989578, 0.02100541815161705, 0.056074146181344986, 0.018039915710687637, 0.11930128931999207, -0.047375813126564026], [[-0.06973879039287567, -0.0413479208946228, -0.1465970277786255, -0.1148093044757843, 0.024226199835538864, -0.02890099212527275, -0.12066598236560822, -0.11508135497570038, -0.11439940333366394, 0.08734212070703506, -0.01914817839860916, 0.1657099425792694, -0.015080515295267105, -0.05782294273376465, -0.05281306803226471, 0.02085491269826889, 0.16502153873443604, 0.07340027391910553, 0.04789099097251892, 0.08831609785556793, 0.2525498867034912, -0.027234040200710297, -0.03571642190217972, -0.09998780488967896, 0.04581570625305176, 0.05055607110261917, 0.03587668389081955, -0.08092257380485535, -0.11705295741558075, -0.07569868862628937, -0.039594005793333054, -0.037918075919151306, -0.019018523395061493, 0.16053730249404907, 0.1031191349029541, 0.01585601270198822, 0.01865449920296669, 0.04822888970375061, -0.09578870236873627, -0.024820543825626373, 0.11534786224365234, -0.037581346929073334, -0.03530726581811905, 0.07272858917713165, -0.11167899519205093, 0.05512133985757828, -0.0322621613740921, -0.07506082952022552, 0.049173254519701004, 0.09368789941072464, -0.08380985260009766, 0.05349290370941162, 0.02415371686220169, -0.03825041651725769, 0.1657012701034546, -0.06537306308746338, 0.10870210826396942, -0.16466060280799866, -0.11142723262310028, 0.08680565655231476, -0.1626201868057251, 0.017201988026499748, -0.06241019815206528, -0.03804629296064377], [0.06233041733503342, -0.1306246817111969, 0.07262155413627625, 0.07783733308315277, 0.06664358079433441, 0.13859140872955322, -0.04682500660419464, 0.0810210257768631, 0.022296350449323654, 0.13900282979011536, -0.08751674741506577, -0.12348757684230804, 0.06284298747777939, 0.09058863669633865, 0.01827821135520935, 0.05968650057911873, 0.15103387832641602, 0.15981213748455048, -0.08527792990207672, -0.05208596587181091, 0.022622402757406235, -0.16174045205116272, -0.06265497207641602, -0.09041765332221985, 0.08925290405750275, -0.11511917412281036, -0.11841998994350433, -0.015590347349643707, -0.20946185290813446, -0.050232477486133575, 0.08777022361755371, 0.037117622792720795, 0.1559150367975235, 0.12244266271591187, 0.0507923886179924, 0.06497560441493988, 0.0031203508842736483, 0.04801402986049652, -0.11329777538776398, -0.07715469598770142, 0.11295069754123688, -0.14855405688285828, -0.057333141565322876, -0.07300803065299988, -0.03849794343113899, 0.0026808450929820538, 0.06250882148742676, 0.04019413888454437, -0.08031253516674042, -0.14706942439079285, 0.010050926357507706, -0.12019596993923187, 0.010085131973028183, 0.06491638720035553, 0.0033687190152704716, 0.04195448011159897, 0.08271445333957672, 0.1507875919342041, 0.051916562020778656, 0.0027530845254659653, 0.1732645034790039, -0.05927244573831558, -0.04099508747458458, -0.17377516627311707], [0.032635003328323364, -0.13245072960853577, 0.07182489335536957, 0.07224205136299133, -0.019129954278469086, -0.22852003574371338, -0.1023138090968132, -0.002023363020271063, 0.056629933416843414, -0.04515625163912773, -0.0042837513610720634, -0.06065801531076431, 0.0825040265917778, -0.031274788081645966, -0.1603395640850067, 0.14013585448265076, 0.00798008218407631, -0.00783495046198368, -0.014221593737602234, -0.03914491832256317, 0.15367650985717773, 0.02393214777112007, -0.018332798033952713, 0.042679667472839355, 0.05991259962320328, -0.0637083351612091, -0.04118652641773224, -0.12595629692077637, 0.00037411091034300625, -0.15143105387687683, 0.03859061747789383, 0.011459486559033394, -0.038487546145915985, 0.1043621152639389, 0.1355183720588684, -0.06494216620922089, -0.07369405031204224, 0.0653475672006607, -0.1866975724697113, 0.12033221870660782, 0.02380549907684326, 0.06473089009523392, -0.10239194333553314, -0.001829754444770515, -0.21928825974464417, -0.008497735485434532, 0.032375775277614594, 0.08705240488052368, 0.21049562096595764, -0.11389505863189697, -0.07973968982696533, 0.018892567604780197, -0.004714608192443848, 0.08715817332267761, -0.06398697197437286, -0.10964763164520264, 0.05018305033445358, -0.09765428304672241, -0.00017902559193316847, -0.014658698812127113, -0.03389635682106018, 0.13129571080207825, -0.026249125599861145, 0.21740567684173584], [0.12379080057144165, 0.004165352787822485, -0.04347366839647293, -0.026157375425100327, 0.012434420175850391, 0.13962292671203613, -0.12929263710975647, 0.009954804554581642, 0.10041902959346771, 0.006198706571012735, -0.11642757058143616, 0.025739727541804314, -0.08980070054531097, 0.033800333738327026, -0.03566824644804001, 0.18156978487968445, 0.05436699092388153, -0.07559102773666382, 0.10867425054311752, -0.1297985017299652, -0.08185537159442902, 0.021854504942893982, -0.08232973515987396, 0.13324490189552307, -0.1535256803035736, 0.10816745460033417, 0.07400867342948914, 0.0605056993663311, -0.13144764304161072, 0.01862236112356186, 0.005892924964427948, -0.16226795315742493, 0.11609338223934174, 0.08090125769376755, -0.08059577643871307, -0.06184277683496475, 0.03104974329471588, -0.010333390906453133, 0.06117416173219681, -0.2091805636882782, -0.1214379072189331, 0.015506180003285408, -0.04779413342475891, -0.03249048441648483, 0.035307496786117554, 0.11311167478561401, 0.0365118533372879, -0.013847580179572105, 0.09414880722761154, -0.02867441624403, 0.08133405447006226, -0.010853122919797897, 0.15082398056983948, -0.043076641857624054, -0.08754579722881317, 0.10767099261283875, 0.02077961340546608, 0.0959620475769043, 0.03443104773759842, 0.0022681124974042177, -0.1436862051486969, 0.11629793047904968, 0.023246921598911285, -0.019080614671111107], [-0.07739146053791046, -0.03402295708656311, -0.1145595908164978, -0.08522878587245941, -0.0272829532623291, 0.03302804380655289, -0.01692306436598301, 0.026140764355659485, -0.051173605024814606, 0.09387856721878052, -0.10356166213750839, -0.025685323402285576, 0.09528650343418121, 0.08326311409473419, -0.027453159913420677, 0.14031723141670227, -0.03489453345537186, -0.02780013531446457, 0.0364348441362381, -0.04509200155735016, -0.03850032389163971, -0.001324513810686767, -0.04363282769918442, 0.15465722978115082, 0.08374382555484772, -0.01730429008603096, 0.026087254285812378, 0.07414829730987549, 0.12499824911355972, 0.027926139533519745, -0.05444253236055374, 0.031831786036491394, -0.055872075259685516, 0.07131171226501465, 0.03579327464103699, 0.1446845531463623, -0.15426543354988098, 0.027043528854846954, 0.03903978690505028, -0.039796993136405945, -0.28116458654403687, 0.06224903464317322, -0.07607315480709076, -0.06416957080364227, 0.16402706503868103, -0.03830331936478615, 0.04327750205993652, -0.10526750981807709, 0.04137261211872101, 0.031935468316078186, 0.04604736715555191, 0.08783908188343048, -0.02028113789856434, -0.06837663054466248, 0.12861326336860657, -0.013548617251217365, -0.06318928301334381, -0.1607874035835266, -0.00867338478565216, -0.22070279717445374, 0.04081171005964279, 0.1860506534576416, 0.0313410758972168, -0.07353997230529785], [0.12343055009841919, 0.028425183147192, 0.05160507559776306, -0.017422646284103394, -0.034647051244974136, -0.11509983241558075, -0.12766394019126892, 0.0475575253367424, -0.017824232578277588, 0.01528171170502901, -0.11000107228755951, -0.015227600932121277, -0.06598234176635742, -0.033289019018411636, 0.054476842284202576, -0.006855121813714504, -0.0926607996225357, -0.05688139796257019, 0.061808690428733826, 0.06593365967273712, 0.11025206744670868, -0.020815573632717133, 0.10410775244235992, -0.004269851837307215, -0.03708423674106598, -0.05582146346569061, 0.06119586154818535, 0.09289078414440155, -0.188868910074234, -0.019332991912961006, -0.03567584604024887, -0.18714100122451782, -0.08742979168891907, -0.08332585543394089, -0.05459144711494446, -0.00398100633174181, -0.08149270713329315, 0.06793525815010071, -0.06393417716026306, -0.14167183637619019, 0.041956156492233276, -0.043608516454696655, -0.12144549190998077, 0.032491058111190796, 0.09177593886852264, -0.00600584177300334, 0.06166535243391991, 0.05746687203645706, 0.14019519090652466, -0.06807886064052582, -0.043356381356716156, -0.024775080382823944, -0.043353550136089325, -0.013190913945436478, 0.0372001975774765, 0.09328420460224152, -0.02940039150416851, 0.11841411888599396, -0.024206336587667465, 0.0039672646671533585, -0.009509040042757988, 0.04108846187591553, 0.03630705177783966, 0.06950567662715912], [0.0021314024925231934, -0.039874717593193054, 0.11240607500076294, -0.1037321388721466, 0.02151329442858696, -0.20512688159942627, 0.011826174333691597, -0.008106715977191925, -0.1474933624267578, -0.004763025790452957, -0.007702217437326908, 0.14852622151374817, -0.09211769700050354, -0.1402226984500885, -0.11228927969932556, 0.04993152618408203, -0.006436814554035664, 0.02959548495709896, -0.048677124083042145, -0.08856333047151566, -0.20259824395179749, 0.1380549967288971, 0.03876592218875885, -0.13765138387680054, -0.09304983913898468, 0.10592791438102722, 0.030300067737698555, 0.02705181948840618, 0.052034031599760056, 0.09047486633062363, 0.037528540939092636, 0.051614463329315186, -0.08877667784690857, -0.08418546617031097, 0.024787774309515953, -0.0895671546459198, -0.03775343671441078, 0.049744002521038055, -0.06228208541870117, -0.13357248902320862, 0.14455538988113403, -0.06884901225566864, -0.010437165386974812, -0.07805140316486359, -0.034163862466812134, -0.03884299099445343, 0.014721596613526344, 0.04492031782865524, 0.08217189460992813, 0.027246985584497452, 0.03172130882740021, -0.017034193500876427, -0.05001907795667648, 0.15183579921722412, -0.007168563548475504, 0.0035861735232174397, -0.03248579427599907, 0.07034210860729218, 0.10000826418399811, 0.07207158952951431, 0.09854957461357117, -0.00564966257661581, -0.02508758008480072, -0.15960678458213806], [-0.0004072141891811043, -0.12985259294509888, 0.0018511568196117878, 0.028065217658877373, 0.016962528228759766, 0.0407990925014019, 0.008978165686130524, 0.04091295599937439, 0.04317088425159454, -0.12796872854232788, 0.11651542782783508, -0.011855212040245533, 0.009277613833546638, 0.09071153402328491, 0.03928493708372116, 0.12138940393924713, -0.0298866368830204, 0.09589739888906479, 0.038035184144973755, -0.05476377159357071, -0.0038038287311792374, 0.0027697728946805, 0.049048297107219696, 0.05001382529735565, 0.01626204140484333, -0.03407197445631027, 0.07632893323898315, 0.08846000581979752, -0.06053303927183151, -0.15816405415534973, 0.1707114577293396, -0.1221710592508316, -0.1773495078086853, 0.022622138261795044, 0.05489625781774521, -0.1178368330001831, 0.040900200605392456, 0.07801318168640137, 0.05091971531510353, 0.01938248984515667, 0.04806644469499588, 0.17187801003456116, -0.13598763942718506, -0.0662454217672348, 0.008620104752480984, -0.05855972692370415, -0.093466617166996, 0.09831902384757996, -0.037295885384082794, 0.06376264989376068, 0.06798321008682251, -0.1168517917394638, -0.06839483976364136, 0.02561667561531067, -0.07908563315868378, 0.08519624173641205, -0.028336331248283386, 0.08399775624275208, -0.047090254724025726, 0.07271966338157654, -0.016503706574440002, -0.16755793988704681, -0.012993409298360348, 0.043982163071632385], [-0.012679317966103554, 0.09114575386047363, -0.015158610418438911, -0.10610473155975342, 0.08943134546279907, 0.16826294362545013, 0.10204260051250458, 0.03454224392771721, -0.06302910298109055, -0.060273878276348114, 0.04412741959095001, -0.02467384561896324, 0.0834120362997055, -0.07297028601169586, -0.033891692757606506, 0.10928374528884888, -0.1181025356054306, 0.08187208324670792, 0.117831289768219, 0.1219778060913086, 0.25126680731773376, 0.049138154834508896, 0.04616367816925049, 0.013468241319060326, 0.025564096868038177, 0.045902661979198456, 0.040699273347854614, -0.060026735067367554, -0.16127148270606995, 0.07447676360607147, -0.10099510848522186, -0.0017530646873638034, -0.013447560369968414, -0.012223455123603344, -0.14455589652061462, -0.042071253061294556, 0.0534958653151989, 0.15084901452064514, 0.0437830314040184, -0.1362406462430954, -0.08464321494102478, 0.08028189837932587, -0.04341726005077362, -0.007665242999792099, -0.030829276889562607, 0.048058681190013885, 0.253933310508728, 0.049550607800483704, 0.03186877816915512, -0.11046569049358368, 0.006016110070049763, 0.23489801585674286, 0.029815923422574997, -0.015264729037880898, 0.011008186265826225, 0.03871506452560425, 0.04130914807319641, 0.07904040068387985, -0.0019464604556560516, 0.10212631523609161, 0.04809965938329697, -0.05893702432513237, 0.03915378451347351, 0.012774099595844746], [0.06230336055159569, 0.03571997210383415, -0.008650744333863258, 0.03262251615524292, -0.07178065180778503, -0.07685519754886627, 0.002721466589719057, 0.06384295225143433, -0.1360163390636444, -0.11533741652965546, 0.01918063312768936, 0.17142602801322937, -0.020323581993579865, 0.00013318441051524132, -0.06355203688144684, -0.050924837589263916, 0.04367530345916748, 0.02991381287574768, 0.0724712610244751, -0.012519259005784988, 0.1182868480682373, -0.05497545748949051, 0.03726443648338318, -0.03330013155937195, 0.023047827184200287, -0.04613598436117172, 0.08949311077594757, -0.06389442086219788, 0.012691161595284939, 0.15726208686828613, 0.08249995112419128, 0.1406916081905365, -0.1575680375099182, 0.11365489661693573, 0.03826863318681717, 0.08520963042974472, 0.026573240756988525, -0.007556037977337837, -0.061798013746738434, -0.0936354249715805, 0.13856521248817444, -0.07767574489116669, -0.08449508249759674, -0.22305899858474731, -0.1304110586643219, -0.08127059042453766, 0.011094254441559315, -0.07507340610027313, -0.014899726025760174, -0.032423265278339386, -0.044024258852005005, -0.028958508744835854, 0.0037598186172544956, 0.01106845773756504, 0.06717999279499054, 0.12029388546943665, 0.02429845556616783, -0.09731556475162506, -0.1087237298488617, 0.1206572949886322, 0.04394739866256714, -0.07371120154857635, 0.07321178913116455, 0.020785488188266754], [0.07792092859745026, -0.05318440496921539, -0.03808143734931946, -0.006059038452804089, 0.069290891289711, -0.09005318582057953, -0.18055808544158936, 0.04496218264102936, 0.14419963955879211, 0.013878153637051582, -0.07489638030529022, -0.0125359408557415, 0.10756176710128784, -0.0359828844666481, 0.12970411777496338, -0.05522150546312332, -0.0261373370885849, -0.09515472501516342, 0.24425145983695984, -0.08071070909500122, 0.10347772389650345, -0.031879544258117676, -0.0895376205444336, 0.021612387150526047, 0.16326949000358582, -0.08203580975532532, 0.09178078919649124, 0.14090733230113983, -0.010624624788761139, -0.0031694741919636726, -0.040399663150310516, 0.06426651775836945, 0.0460372231900692, 0.23733332753181458, -0.14395973086357117, 0.057244911789894104, -0.10412240028381348, 0.060335636138916016, -0.11681796610355377, -0.07760173082351685, 0.0831419974565506, -0.05491185560822487, 0.058182865381240845, 0.000550862168893218, -0.1635538637638092, 0.001997712068259716, 0.008312461897730827, 0.16616657376289368, 0.03352636471390724, -0.09746097773313522, -0.035499460995197296, 0.045333363115787506, 0.019923821091651917, 0.15029744803905487, -0.10064062476158142, -0.0037921853363513947, 0.013859894126653671, -0.030616236850619316, -0.16821834444999695, 0.02863895334303379, 0.08807998895645142, -0.030609026551246643, 0.034451983869075775, 0.11713725328445435], [0.049581944942474365, -0.07909126579761505, 0.02328287810087204, 0.029500842094421387, -0.05820517987012863, -0.10971474647521973, -0.05078410357236862, -0.039536409080028534, 0.024589700624346733, 0.02048027142882347, -0.10132884979248047, -0.05342010408639908, -0.00990457832813263, -0.10042185336351395, 0.1410512626171112, -0.041899263858795166, -0.1669570505619049, -0.10518628358840942, -0.1232762336730957, 0.0735258162021637, 0.008130652830004692, -0.20214387774467468, -0.007980655878782272, 0.04305388778448105, -0.10083520412445068, 0.10620956122875214, 0.12720462679862976, -0.08991307020187378, -0.1289076805114746, -0.0766802653670311, 0.025444582104682922, -0.09376208484172821, 0.005062553565949202, -0.01937549188733101, 0.04025982320308685, -0.041402652859687805, -0.04897165670990944, -0.11579708755016327, -0.15162795782089233, 0.05118407681584358, -0.058735452592372894, 0.009869362227618694, -0.05976796895265579, 0.10075673460960388, -0.06614236533641815, 0.18492195010185242, 0.008214901201426983, -0.04608752578496933, 0.1445799022912979, -0.07218524813652039, 0.15194427967071533, 0.11939610540866852, 0.11021992564201355, -0.16399559378623962, -0.1108890250325203, 0.02630193904042244, -0.07878218591213226, -0.007917040959000587, 0.08544810861349106, 0.05011143162846565, -0.03958240896463394, -0.054732795804739, -0.12435691058635712, 0.030643001198768616], [0.04834660142660141, -0.014830907806754112, -0.0452040433883667, 0.036102913320064545, -0.1132492870092392, 0.054370950907468796, -0.019394900649785995, 0.01274716854095459, -0.026993403211236, -0.01577787473797798, -0.0048474473878741264, -0.01370114553719759, 0.014977073296904564, -0.0892762690782547, -0.10763614624738693, -0.02145906165242195, -0.013293863274157047, -0.039029888808727264, -0.09525193274021149, 0.025609251111745834, 0.13148590922355652, 0.03611317276954651, 0.0859854444861412, 0.03139795362949371, 0.11002491414546967, -0.007973907515406609, -0.10859896242618561, -0.008680419996380806, 0.14556407928466797, -0.14302578568458557, -0.014245330356061459, -0.042307861149311066, -0.02168164774775505, 0.013008508831262589, 0.06259769201278687, 0.10464929044246674, 0.11134880781173706, -0.012105008587241173, 0.19796723127365112, -0.061209067702293396, 0.010910067707300186, 0.020059548318386078, -0.13209906220436096, -0.024141602218151093, 0.010709691792726517, -0.10778845846652985, 0.11945520341396332, -0.14574572443962097, -0.03859948739409447, 0.07132577151060104, -0.08286482095718384, -0.009889835491776466, -0.2672920227050781, -0.14257992804050446, 0.0968552753329277, -0.023593652993440628, 0.09946352243423462, -0.008795542642474174, -0.06331959366798401, 0.05650678277015686, 0.05147813260555267, -0.0009939156007021666, 0.05923135578632355, 0.0962199866771698], [0.16645102202892303, -0.0893634557723999, 0.03468722105026245, 0.09534512460231781, 0.08955027163028717, -0.0579279288649559, 0.011111708357930183, 0.005803003907203674, 0.014190606772899628, 0.0281617883592844, 0.026667572557926178, -0.02489277347922325, 0.10218465328216553, 0.08240574598312378, 0.033586785197257996, 0.026430487632751465, 0.020541394129395485, -0.051216766238212585, 0.013346600346267223, 0.022201526910066605, -0.10795851051807404, 0.06251329183578491, 0.0862179547548294, -0.15539754927158356, 0.043485380709171295, -0.1002066433429718, -0.00031319959089159966, -0.0681195855140686, -0.09479553997516632, 0.025556448847055435, 0.04121476411819458, -0.018057122826576233, -0.03758849948644638, 0.05373940244317055, -0.07046878337860107, -0.0165872722864151, -0.0210161954164505, -0.02995230257511139, 0.053389981389045715, 0.05652210861444473, -0.07769887149333954, -0.023484311997890472, 0.06309700012207031, 0.061696358025074005, 0.044586122035980225, 0.01794770359992981, 0.07237261533737183, 0.09338518977165222, 0.09484614431858063, -0.1379041075706482, -0.018962185829877853, 0.14121291041374207, 0.020326845347881317, -0.01981375738978386, -0.023385703563690186, 0.11630227416753769, -0.09209990501403809, -0.078928142786026, -0.04969348758459091, -0.13540609180927277, 0.025417804718017578, -0.08501510322093964, -0.02043897844851017, 0.06423339247703552], [0.06545987725257874, 0.031542085111141205, -0.11069245636463165, -0.1912623643875122, 0.050468653440475464, -0.03721924126148224, 0.021752234548330307, -0.006220713257789612, -0.06637604534626007, 0.09566299617290497, -0.03496456891298294, -0.03734295815229416, 0.045398302376270294, -0.11805658042430878, 0.11142249405384064, 0.11628325283527374, 0.14709138870239258, -0.05673307180404663, 0.12244371324777603, -0.069886714220047, 0.05371139943599701, -0.09994444251060486, 0.012084899470210075, -0.04447251558303833, -0.054513316601514816, -0.09314186871051788, 0.13004979491233826, 0.06491169333457947, 0.04838169366121292, -0.18845327198505402, -0.020885273814201355, -0.08347281813621521, 0.03506539762020111, -0.07244892418384552, 0.06202758103609085, -0.21126537024974823, 0.04355684667825699, 0.05176645517349243, -0.007515127770602703, -0.08560845255851746, 0.0070292106829583645, -0.06480652093887329, 0.07224904000759125, -0.003046589670702815, 0.20523136854171753, 0.018332570791244507, 0.011480243876576424, 0.033287160098552704, 0.06434549391269684, -0.05424031615257263, 0.020268436521291733, -0.163272887468338, -0.0064840735867619514, 0.06720808148384094, 8.658715523779392e-05, 0.13035809993743896, 0.0633249431848526, 0.18351617455482483, 0.007076540030539036, -0.017531313002109528, -0.032042406499385834, -0.18215787410736084, 0.11563089489936829, 0.05420006066560745], [0.08306999504566193, 0.0833839476108551, 0.004907355643808842, 0.052973732352256775, -0.15168888866901398, 0.04324354976415634, -0.08892854303121567, -0.03977411985397339, 0.04036123305559158, 0.09571701288223267, -0.22206026315689087, -0.09408953785896301, -0.15228664875030518, 0.17736876010894775, 0.1032915711402893, -0.10831419378519058, -0.13253983855247498, -0.09380538761615753, 0.03072112798690796, -0.005418423097580671, -0.20112159848213196, -0.12497252225875854, -0.0828203558921814, -0.0008860068628564477, 0.03222036361694336, 0.0888354480266571, 0.1302039921283722, 0.0267742071300745, -0.05969945341348648, -0.03578783571720123, 0.10981906205415726, 0.005359259434044361, -0.17757079005241394, -0.0660419836640358, 0.01659177616238594, -0.021830793470144272, 0.0282762348651886, -0.033361054956912994, -0.05364106595516205, 0.0928754210472107, -0.1744324266910553, -0.028357066214084625, 0.0849006250500679, -0.10113674402236938, 0.01677800342440605, 0.2741900682449341, -0.020029282197356224, -0.029843632131814957, -0.0074717095121741295, -0.07650718837976456, 0.03879953920841217, 0.028238527476787567, 0.17419211566448212, -0.12163141369819641, 0.05635206401348114, 0.17105013132095337, -0.003693047910928726, -0.06285311281681061, -0.036874379962682724, -0.09025180339813232, 0.000278350809821859, 0.0816190093755722, 0.05415463447570801, 0.035783231258392334], [0.051238127052783966, -0.11181443184614182, 0.10028116405010223, -0.042687177658081055, 0.03708770126104355, -0.04701253026723862, -0.10606063157320023, -0.0658242478966713, 0.11268314719200134, -0.06281234323978424, -0.13303261995315552, 0.010282398201525211, -0.001825388753786683, -0.1102205142378807, 0.12698093056678772, 0.11878739297389984, 0.0025973166339099407, 0.16627344489097595, -0.10980509221553802, -0.04094797372817993, -0.054751407355070114, -0.1383371353149414, -0.002500366885215044, -0.05420709401369095, -0.051801349967718124, 0.1942492425441742, -0.18419337272644043, 0.12610840797424316, 0.07116097211837769, -0.09902524948120117, 0.1182330772280693, 0.13645723462104797, -0.0706525593996048, 0.004654990509152412, -0.007337777875363827, 0.2210046947002411, -0.10803084075450897, -0.19229841232299805, -0.011037435382604599, 0.04587526619434357, -0.008001399226486683, -0.1264544129371643, -0.053397469222545624, -0.19258004426956177, -0.03447963297367096, 0.006266717799007893, 0.13934966921806335, 0.07889634370803833, 0.042248547077178955, 0.09357059001922607, 0.00959874875843525, -0.011556287296116352, 0.09808765351772308, 0.14658629894256592, -0.03389491140842438, 0.04359697550535202, -0.03669879585504532, 0.06830035150051117, -0.10050725936889648, -0.09965589642524719, 0.0062886993400752544, 0.11083243787288666, 0.07322436571121216, 0.009339835494756699], [-0.031363192945718765, 0.10448943078517914, -0.1371031403541565, 0.19332829117774963, 0.030806226655840874, -0.1576768159866333, 0.03739848732948303, -0.07997266948223114, 0.049002617597579956, 0.019053997471928596, 0.06788875162601471, -0.012468984350562096, -0.02759864740073681, 0.029448378831148148, 0.12417995929718018, -0.20504418015480042, -0.11172421276569366, -0.03975682705640793, 0.07324359565973282, 0.009993166662752628, -0.01960724964737892, -0.024641193449497223, 0.16397464275360107, -0.07130943238735199, -0.06404495239257812, -0.0012167657259851694, -0.005949810147285461, 0.050359830260276794, 0.19005542993545532, -0.04290679097175598, -0.18870146572589874, -0.028817400336265564, 0.022076651453971863, -0.008876082487404346, -0.09179984033107758, -0.028481923043727875, -0.08434917032718658, 0.06220023334026337, -0.07835158705711365, -0.043915219604969025, 0.04722936451435089, 0.04230876266956329, 0.004171143751591444, 0.06899205595254898, 0.019954530522227287, 0.14481081068515778, 0.03486242890357971, 0.05960959196090698, -0.12280819565057755, -0.021931154653429985, -0.10281527042388916, 0.13680008053779602, 0.016852430999279022, -0.047090403735637665, -0.09409584105014801, -0.012450173497200012, -0.01289205253124237, 0.10974152386188507, -0.03060222417116165, -0.0037618849892169237, 0.022180650383234024, -0.013051232323050499, 0.05784212797880173, 0.07758810371160507], [-0.09561721980571747, 0.020918143913149834, 0.028720863163471222, 0.02750667929649353, 0.030665259808301926, 0.10317347943782806, -0.05862124264240265, -0.09300895035266876, 0.08057184517383575, -0.022688575088977814, -0.043634481728076935, 0.03057287260890007, -0.09226424992084503, 0.08081129193305969, 0.021086623892188072, 0.024517174810171127, 0.016392044723033905, 0.004049614071846008, 0.02441345900297165, 0.06585025787353516, -0.04296188801527023, 0.07399556040763855, -0.006813856773078442, 0.027775991708040237, 0.06867855787277222, -0.06241898983716965, -0.08207482844591141, -0.0506446436047554, 0.07770852744579315, 0.035377152264118195, 0.06110604107379913, -0.09489709138870239, -0.05676700919866562, -0.22281837463378906, -0.018145043402910233, 0.00031360186403617263, 0.1433456540107727, -0.10186731815338135, -0.006791987456381321, -0.07378080487251282, -0.26988673210144043, -0.06254111230373383, 0.046069417148828506, 0.008596299216151237, -0.06382644176483154, 0.0894133448600769, -0.07958579063415527, 0.14758214354515076, 0.11128778010606766, 0.05432528257369995, 0.026133481413125992, -0.014402065426111221, 0.15028201043605804, -0.0659375935792923, -0.04915400594472885, -0.1188201904296875, 0.08251787722110748, -0.14265009760856628, -0.254658579826355, 0.15599223971366882, 0.05244790017604828, 0.09144952893257141, -0.039588890969753265, 0.09928805381059647], [0.011219956912100315, 0.04910234361886978, -0.08268234133720398, -0.03682693466544151, 0.11224536597728729, 0.0873851627111435, -0.042972467839717865, -0.0455721914768219, -0.12714985013008118, 0.021476853638887405, -0.025052815675735474, -0.07812705636024475, -0.11987228691577911, 0.03236442804336548, -0.1119534820318222, -0.020945891737937927, 0.1966286599636078, 0.20954163372516632, 0.017255600541830063, 0.006580870598554611, 0.04490981996059418, 0.12910476326942444, 0.03139065206050873, -0.05068492516875267, -0.09253744781017303, -0.05727200210094452, 0.12757128477096558, -0.049510613083839417, -0.03948288410902023, 0.05311066657304764, 0.15838170051574707, -0.043623343110084534, -0.18992957472801208, 0.12959468364715576, -0.07090817391872406, -0.010427422821521759, 0.14371153712272644, -0.08790849149227142, 0.04957098513841629, -0.04809344559907913, -0.030909713357686996, 0.051654309034347534, -0.12370885908603668, 0.01250214222818613, -0.1443725824356079, 0.1757974773645401, 0.19572296738624573, -0.18194055557250977, 0.07886902987957001, 0.08285495638847351, -0.21937865018844604, 0.06275247037410736, -0.01955074816942215, 0.03532814979553223, 0.0534011647105217, 0.18447726964950562, -0.05624911189079285, -0.07900391519069672, -0.07885095477104187, 0.028376370668411255, -0.06140799820423126, 0.05408027023077011, 0.12211789935827255, 0.006084073334932327], [0.018475256860256195, -0.06533493101596832, 0.14655202627182007, -0.0856257826089859, 0.07662247866392136, 0.18957126140594482, -0.10179370641708374, 0.06589271128177643, 0.01905066892504692, -0.0047782910987734795, 0.13925784826278687, 0.19030433893203735, 0.2177831381559372, 0.01833292841911316, -0.05440162867307663, 0.005299990531057119, -0.033643610775470734, -0.08254451304674149, 0.1041751503944397, 0.07567106187343597, 0.0025123395025730133, -0.06821376085281372, 0.16138073801994324, -0.02542709745466709, 0.06067204475402832, -0.054601311683654785, 0.08796258270740509, -0.014778094366192818, 0.06459088623523712, 0.045551978051662445, -0.03933990001678467, -0.049934182316064835, 0.0050028180703520775, 0.0623774453997612, 0.012364935129880905, -0.10185378789901733, 0.12541893124580383, 0.007729276083409786, -0.03299354761838913, -0.08015091717243195, -0.06532007455825806, 0.08347754180431366, 0.021031830459833145, -0.002788811456412077, -0.030852144584059715, 0.09144474565982819, 0.04443945735692978, 0.09847626090049744, 0.028798453509807587, 0.026979034766554832, 0.005531538277864456, 0.06493520736694336, 0.04593907296657562, 0.006970294751226902, -0.03845536336302757, 0.03136046975851059, -0.010039360262453556, -0.00737129058688879, 0.011630999855697155, -0.003259524703025818, -0.018996533006429672, -0.0650692731142044, 0.08091753721237183, 0.11896106600761414], [-0.043751105666160583, -0.2012893557548523, 0.022370759397745132, 0.07490697503089905, -0.09579135477542877, 0.16073927283287048, -0.03900410979986191, -0.00643501803278923, 0.0171489417552948, -0.023493383079767227, 0.08101871609687805, 0.08653174340724945, 0.08950816094875336, -0.04985468089580536, -0.013151165097951889, 0.09795889258384705, 0.0033498029224574566, 0.006803676951676607, -0.03767848014831543, 0.08896483480930328, 0.02167372778058052, 0.11436740309000015, -0.025543048977851868, 0.11844593286514282, 0.14759710431098938, 0.18865129351615906, 0.09229893982410431, -0.1475517451763153, -0.039905525743961334, 0.15418684482574463, 0.0076317377388477325, -0.04051315784454346, 0.02373753860592842, -0.0703725814819336, 0.21714767813682556, -0.024479083716869354, -0.03148878365755081, -0.008209068328142166, 0.0306885726749897, 0.022128820419311523, 0.11166512966156006, 0.032532528042793274, -0.10062702000141144, -0.030367601662874222, -0.09527910500764847, -0.09356163442134857, -0.14184024930000305, -0.0089487973600626, -0.08560644090175629, 0.19169780611991882, 0.024458084255456924, 0.022913150489330292, 0.0045729209668934345, -0.05619203299283981, 0.017768176272511482, 0.07380246371030807, -0.05815844237804413, -0.029604587703943253, 0.12316495180130005, -0.17240679264068604, 0.015578722581267357, -0.075158029794693, 0.09139895439147949, -0.0984155461192131], [0.10583803057670593, 0.0484623908996582, 0.1556175798177719, -0.19565290212631226, 0.014213968068361282, -0.022973906248807907, -0.05992540717124939, 0.208767831325531, 0.1190703958272934, 0.11830058693885803, 0.1344907283782959, 0.0036850206088274717, 0.048092007637023926, -0.055169396102428436, -0.05734783783555031, 0.2004627287387848, -0.10589976608753204, 0.0560147762298584, 0.14481133222579956, -0.14769339561462402, -0.04327618330717087, 0.02477497234940529, 0.04251451417803764, 0.012539776042103767, 0.13996681571006775, -0.051343828439712524, 0.1154714971780777, 0.012857405468821526, -0.03115120902657509, -0.003857053816318512, 0.02200697362422943, -0.0981551855802536, 0.042771391570568085, -0.018245931714773178, -0.009034168906509876, -0.0580022931098938, 0.08023910224437714, 0.030588023364543915, 0.0988500565290451, 0.04621076211333275, 0.04700620472431183, -0.008549128659069538, -0.056986283510923386, -0.013767817988991737, -0.08125090599060059, 0.0012496120762079954, -0.12198208272457123, 0.11008678376674652, 0.14193817973136902, -0.03030845895409584, -0.14191490411758423, -0.023865357041358948, 0.03526218235492706, 0.11573484539985657, -0.027776561677455902, -0.04857537895441055, -0.07178938388824463, 0.04973689466714859, 0.052745554596185684, 0.06507310271263123, -0.08245421946048737, 0.05860494077205658, 0.09533131122589111, -0.057909734547138214], [0.005951225757598877, -0.0318826287984848, -0.04814833402633667, 0.11570662260055542, 0.08112528920173645, -0.10499727725982666, 0.02630188688635826, 0.09485585987567902, 0.018325474113225937, 0.016371676698327065, -0.016504358500242233, 0.059113457798957825, 0.04410766810178757, 0.06641517579555511, 0.054600052535533905, -0.014600109308958054, -0.02443849667906761, -0.029276300221681595, -0.044963277876377106, 0.046056509017944336, -0.07369786500930786, 0.032134950160980225, -0.05868189036846161, 0.05071272701025009, -0.020016463473439217, 0.07767096161842346, 0.11007101833820343, -0.0062485793605446815, -0.05753261595964432, 0.1277543604373932, 0.1903308928012848, -0.06541721522808075, 0.10983754694461823, 0.12137886881828308, -0.051161028444767, 0.029176851734519005, 0.16870124638080597, -0.0968504399061203, -0.03384799510240555, -0.08366042375564575, -0.06849852204322815, -0.057076308876276016, -0.0050731683149933815, 0.15755301713943481, -0.19357770681381226, 0.0347195565700531, 0.05743538588285446, -0.016928821802139282, 0.03514688462018967, -0.10646787285804749, -0.057459570467472076, 0.11449328064918518, 0.043873175978660583, 0.11196839809417725, 0.035311318933963776, 0.06931687891483307, 0.17571333050727844, 0.0326429083943367, 0.029315285384655, 0.14616402983665466, 0.05819614976644516, -0.028500497341156006, -0.0343770757317543, -0.06733308732509613], [0.08710210025310516, -0.03440536558628082, -0.03731529414653778, 0.009342892095446587, 0.12995357811450958, 0.06237345188856125, -0.06624573469161987, 0.0483027920126915, 0.003388838842511177, -0.040519408881664276, -0.22148571908473969, -0.15463033318519592, 0.022843990474939346, 0.007469290401786566, 0.03156465291976929, -0.10814803838729858, 0.015361340716481209, 0.1000927984714508, 0.09734147787094116, -0.07778607308864594, 0.003925282973796129, -0.07474306225776672, -0.12071205675601959, 0.13752096891403198, 0.0195041224360466, -0.14908286929130554, -0.04516681283712387, -0.017764009535312653, 0.019613344222307205, -0.0978676974773407, 0.13122010231018066, -0.13606250286102295, -0.04704219847917557, 0.023052003234624863, 0.07755902409553528, 0.004026756621897221, 0.05496673285961151, -0.08788778632879257, -0.005646742880344391, 0.13084006309509277, -0.012140922248363495, -0.1388545036315918, -0.03728979080915451, -0.15334826707839966, -0.12171819806098938, -0.0688742846250534, 0.011178110726177692, 0.08637917041778564, 0.04859286546707153, -0.016460709273815155, 0.11264172196388245, -0.10127180814743042, -0.029783163219690323, -0.06882937252521515, -0.0022099551279097795, 0.10047735273838043, -0.06545156240463257, -0.00013518112245947123, -0.17819353938102722, 0.017326701432466507, 0.14923003315925598, 0.16312554478645325, 0.08052651584148407, 0.06686782836914062], [0.027973392978310585, -0.13430234789848328, -0.21476894617080688, 0.17849767208099365, 0.04561027139425278, 0.005411362275481224, -0.02979208715260029, -0.23337224125862122, -0.07416385412216187, -0.0819782167673111, 0.1423245668411255, -0.14521116018295288, -0.11129796504974365, -0.12107022851705551, -0.10992330312728882, -0.045231372117996216, 0.05584266036748886, 0.03288274258375168, 0.09420904517173767, 0.09891881048679352, 0.10994762182235718, 0.005997030064463615, -0.023837510496377945, -0.017914030700922012, 0.03999421000480652, 0.02231677621603012, -0.023652032017707825, 0.03446178883314133, 0.04335469752550125, -0.08358504623174667, 0.05482093244791031, 0.10829618573188782, 0.1425950825214386, 0.08694973587989807, -0.11132460832595825, -0.037800177931785583, -0.024732690304517746, 0.05216607823967934, 0.04800523817539215, -0.039923638105392456, -0.041235730051994324, 0.14533337950706482, -0.08197462558746338, -0.05058117210865021, -0.06532202661037445, -0.1679213047027588, -0.10790187120437622, 0.12837734818458557, 0.13877564668655396, -7.000590994721279e-05, -0.027649013325572014, -0.057099848985672, -0.003700312227010727, 0.08559438586235046, -0.030337076634168625, 0.16545429825782776, -0.023149926215410233, 0.1538745015859604, 0.02525785192847252, -0.12708733975887299, -0.09365858137607574, -0.10157047212123871, -0.014929655008018017, -0.022933751344680786], [0.011420490220189095, -0.010549264028668404, -0.05321288853883743, 0.13761863112449646, 0.025827525183558464, 0.09196583181619644, 0.0028779865242540836, -0.02902618795633316, -0.005856518168002367, 0.10826386511325836, -0.07258079946041107, 0.032027050852775574, -0.17163211107254028, 0.10984145849943161, -0.14364877343177795, 0.07522085309028625, -0.2025955319404602, -0.13677290081977844, -0.014033274725079536, -0.04816814884543419, 0.06265448778867722, -0.10174532234668732, -0.06827493011951447, 0.07161703705787659, -0.09304589033126831, -0.07378837466239929, -0.00788361020386219, 0.02037166804075241, 0.007958094589412212, 0.006921056658029556, 0.019925657659769058, 0.03322108834981918, 0.04624359309673309, -0.09923255443572998, -0.0966939628124237, -0.062611423432827, -0.10116541385650635, 0.03096877969801426, -0.044910646975040436, 0.05884537845849991, 0.0019257890526205301, -0.035863444209098816, 0.011457708664238453, -0.07138770818710327, -0.18348070979118347, 0.009825841523706913, -0.07868078351020813, 0.02694559097290039, -0.030427338555455208, 0.0018976822029799223, -0.0871785506606102, -0.03783143311738968, 0.09140834212303162, -0.08039968460798264, -0.017919765785336494, 0.010643662884831429, -0.0755540281534195, -0.028882358223199844, 0.01740293577313423, 0.052798837423324585, 0.017339374870061874, 0.01778210699558258, 0.1688237488269806, -0.11501352488994598], [0.07399605959653854, -0.012662048451602459, 0.06963296234607697, 0.08391228318214417, 0.12485098838806152, 0.052342213690280914, 0.06728383898735046, 0.09628210961818695, -0.1437261402606964, 0.1100912094116211, -0.041473157703876495, -0.10275912284851074, -0.007259781938046217, 0.07321380078792572, -0.011806251481175423, -0.09525711834430695, -0.1744760125875473, -0.06157758831977844, 0.08438444137573242, 0.04548298940062523, 0.07989372313022614, -0.026934534311294556, -0.06627717614173889, -0.019049614667892456, 0.03103117272257805, 0.16785098612308502, 0.10157890617847443, -0.10748308897018433, -0.02765876054763794, 0.06429529190063477, 0.025984100997447968, -0.16781210899353027, -0.15620341897010803, -0.08641782402992249, -0.13909009099006653, -0.0610102117061615, 0.003467592177912593, 0.06688123941421509, 0.060486577451229095, -0.007378282956779003, 0.01101839728653431, 0.10328283905982971, 0.08979028463363647, 0.08054253458976746, -0.0696626752614975, 0.08163601905107498, -0.11643213778734207, 0.0010703441221266985, -0.06834845244884491, 0.05244459956884384, -0.0197480246424675, -0.12441406399011612, -0.11492393165826797, 0.05034594610333443, -0.11217811703681946, 0.0683949738740921, -0.06569868326187134, 0.005446167662739754, 0.054671552032232285, 0.1253241002559662, -0.07656301558017731, 0.09612388163805008, 0.011250417679548264, 0.15271830558776855], [-0.06764619052410126, 0.011277935467660427, 0.029972869902849197, 0.06414003670215607, 0.11840662360191345, -0.01216203160583973, 0.01296253316104412, 0.03924766927957535, -0.014897314831614494, 0.06046697869896889, 0.0659143328666687, -0.037570346146821976, -0.010560408234596252, -0.06017487496137619, -0.04629690945148468, 0.06807944178581238, -0.05840153619647026, -0.09909984469413757, -0.0077031757682561874, 0.0699026882648468, 0.03711184859275818, 0.023287678137421608, -0.041090961545705795, 0.034824129194021225, -0.1560579240322113, 0.04602116346359253, 0.0924958884716034, 0.08734843134880066, -0.09482619911432266, 0.02071160450577736, -0.14519527554512024, -0.09996087104082108, -0.023821532726287842, -0.0017401741351932287, 0.07006751000881195, 0.019638314843177795, 0.014710047282278538, 0.05210843309760094, 0.05053766816854477, -0.13359284400939941, -0.0630624070763588, 0.04947367310523987, 0.048891276121139526, -0.03881511092185974, -0.013062885031104088, -0.008152974769473076, -0.03962404653429985, -0.04585909843444824, 0.010997150093317032, 0.05519999563694, 0.03818652778863907, 0.07836500555276871, 0.09549517184495926, 0.08011665940284729, -0.06404677033424377, 0.21566662192344666, 0.09366574883460999, -0.04532211273908615, 0.010800291784107685, -0.04811064898967743, -0.11837885528802872, 0.09426875412464142, -0.0634303092956543, 0.10155916959047318], [0.02725793980062008, -0.027922824025154114, -0.1018652617931366, 0.05568213015794754, -0.04272264242172241, 0.03788122534751892, 0.07582134008407593, -0.14871658384799957, -0.17382018268108368, 0.04107125848531723, 0.046582721173763275, -0.027746139094233513, 0.0169566348195076, -0.05519506335258484, -0.04497507959604263, 0.15021741390228271, 0.15340465307235718, -0.08364130556583405, 0.00026103475829586387, 0.05672264099121094, -0.12824514508247375, 0.09349657595157623, 0.11500053107738495, 0.04647055268287659, 0.012083041481673717, 0.00935069564729929, 0.03506827354431152, -0.09035062789916992, -0.04170558601617813, -0.0043357377871870995, 0.1920246183872223, -0.028415009379386902, 0.05558433383703232, 0.0996837168931961, -0.048410847783088684, 0.009468738920986652, -0.12724542617797852, -0.013228257186710835, 0.12190403789281845, -0.14643405377864838, -0.1005825474858284, 0.03432614356279373, -0.04292827099561691, 0.06387859582901001, -0.015073275193572044, 0.0652281790971756, 0.0013290538918226957, -0.07025018334388733, 0.12878763675689697, -0.036761827766895294, -0.138174369931221, -0.08317109942436218, -0.11559268832206726, -0.07421760261058807, -0.06535214185714722, 0.1662713885307312, 0.07861393690109253, 0.1107603907585144, 0.04913542419672012, 0.065207839012146, 0.045107752084732056, 0.061381228268146515, -0.20624667406082153, 0.016162976622581482], [-0.04571392387151718, -0.01500043086707592, -0.09001036733388901, 0.0840136855840683, -0.08708520233631134, -0.1256648749113083, 0.002288761083036661, 0.0482841320335865, -0.02137647196650505, 0.20631521940231323, -0.01325954683125019, -0.018984757363796234, 0.028065480291843414, 0.029552210122346878, -0.1403486728668213, -0.03770902752876282, -0.006762783043086529, -0.20231077075004578, 0.021115634590387344, 0.1261620968580246, 0.04439132288098335, 0.013392200693488121, 0.015288017690181732, -0.09875771403312683, -0.034986838698387146, 0.0520574226975441, 0.09939846396446228, -0.1723264455795288, -0.021704744547605515, -0.030224408954381943, 0.07105334103107452, 0.006583437789231539, 0.05243781954050064, 0.09688563644886017, 0.042432039976119995, -0.0033384826965630054, 0.0620766282081604, 0.13116011023521423, -0.03946946933865547, 0.013019699603319168, -0.018418576568365097, 0.16222447156906128, -0.14993813633918762, -0.039937734603881836, -0.030874725431203842, -0.05818010866641998, -0.06609305739402771, 0.030488144606351852, -0.009104068391025066, -0.029682453721761703, -0.01829521730542183, -0.09905490279197693, 0.07683766633272171, 0.045755334198474884, -0.038643352687358856, 0.05151428282260895, -0.04404572397470474, 0.1510092318058014, -0.06180090457201004, 0.13497085869312286, -0.031539663672447205, -0.13889212906360626, -0.0025637231301516294, 0.09284161031246185], [-0.0398690402507782, -0.040206119418144226, 0.05127678066492081, 0.035636045038700104, 0.0935964435338974, -0.07817210257053375, 0.07011471688747406, -0.036336224526166916, 0.06203290820121765, 0.1300463080406189, -0.07586370408535004, -0.11988025903701782, 0.16554807126522064, -0.11630474030971527, 0.002867155009880662, 0.03843701630830765, 0.11913830041885376, -0.037345901131629944, -0.09704676270484924, -0.10344955325126648, -0.02256687730550766, -0.0036624204367399216, -0.09673440456390381, 0.002191695850342512, 0.08524128049612045, 0.019542500376701355, 0.001426281756721437, -0.045935653150081635, -0.08889013528823853, 0.1429724395275116, -0.011923706158995628, 0.10657581686973572, 0.06407517194747925, 0.09316647052764893, -0.17126119136810303, 0.038567446172237396, -0.007062992546707392, 0.01398209948092699, -0.002063230611383915, -0.02504058927297592, -0.0950889140367508, -0.018559470772743225, 0.05637625604867935, -0.007347710430622101, -0.040880776941776276, 0.02908771112561226, 0.13347631692886353, -0.013747742399573326, -0.11956711113452911, -0.06849291920661926, 0.029925141483545303, -0.02039768174290657, -0.10316769778728485, 0.1536104381084442, 0.08787821233272552, -0.06148150563240051, -0.036552850157022476, -0.05957994610071182, 0.05419705808162689, 0.03128759562969208, 0.036832138895988464, 0.10666535794734955, 0.08883753418922424, -0.01687629520893097], [-0.030306190252304077, 0.0778224915266037, 0.08695816993713379, -0.12426814436912537, 0.0004956760676577687, 0.024287182837724686, 0.013516434468328953, 0.21308550238609314, 0.03155332803726196, -0.05217482149600983, -0.06613686680793762, 0.05061711370944977, -0.012600492686033249, -0.018613683059811592, -0.15061581134796143, -0.011727692559361458, 0.14302222430706024, 0.05447882413864136, -0.09219309687614441, -0.0400657132267952, -0.07915505766868591, 0.10908859968185425, -0.11032889783382416, -0.1246442049741745, -0.023297365754842758, -0.08777011930942535, -0.05674782395362854, 0.07099424302577972, -0.0017808140255510807, 0.10114212334156036, 0.017698362469673157, 0.11677606403827667, 0.038394343107938766, 0.08050338923931122, -0.02905227057635784, 0.011413761414587498, 0.009691381826996803, 0.026233313605189323, 0.05396093428134918, -0.006677327211946249, -0.006489608436822891, -0.08032307773828506, -0.0010802136966958642, -0.0075399186462163925, -0.014661718159914017, -0.1519853174686432, 0.09849505126476288, -0.037180617451667786, -0.10205991566181183, -0.1352008581161499, 0.057419613003730774, 0.16844850778579712, 0.017046930268406868, -0.11077083647251129, 0.07403433322906494, -0.09990435838699341, 0.017961544916033745, 0.17580677568912506, 0.0253901369869709, 0.07011738419532776, 0.0008167428895831108, -0.06745310872793198, 0.028778236359357834, 0.11089719831943512], [0.012219776399433613, 0.06042269617319107, 0.10409153997898102, -0.011848794296383858, -0.06970816850662231, 0.07751278579235077, 0.00056133430916816, 0.047409944236278534, 0.03153347969055176, -0.005067387595772743, 0.13311433792114258, 0.03764887526631355, 0.06729120016098022, -0.08210539817810059, -0.007603875361382961, -0.0874490812420845, -0.030859965831041336, -0.023792587220668793, -0.09005844593048096, -0.045885004103183746, -0.08288630843162537, -0.017369553446769714, -0.1520705223083496, -0.17043974995613098, 0.13464051485061646, 0.057282835245132446, 0.08177778124809265, 0.013732961378991604, -0.0005115021485835314, -0.02307073026895523, -0.005274812690913677, -0.004449986852705479, -0.16915330290794373, -0.02369101345539093, 0.006146688479930162, -0.0376921221613884, 0.009504469111561775, -0.09394320845603943, 0.018784109503030777, 0.0812663584947586, -0.010963880456984043, 0.052538931369781494, 0.09048941731452942, 0.06916165351867676, -0.11434495449066162, -0.07495202124118805, -0.1064237505197525, 0.08586063235998154, 0.0896289199590683, -0.10624725371599197, 0.20843639969825745, 0.08732089400291443, 0.036260031163692474, -0.0713566392660141, -0.05309406295418739, 0.022337686270475388, 0.006749353837221861, 0.07820341736078262, 0.06743384152650833, -0.11686237901449203, -0.07423239946365356, -0.04449509084224701, 0.12188225984573364, -0.03236367553472519], [-0.011674493551254272, -0.07005073875188828, 0.01774052530527115, -0.05914676934480667, -0.06163717061281204, 0.20659437775611877, 0.010936756618320942, -0.1653655469417572, -0.11384684592485428, 0.02258286438882351, 0.108061783015728, -0.10067123174667358, -0.08922258764505386, -0.02949586883187294, 0.1648574024438858, -0.0742829442024231, -0.00630122609436512, -0.12282173335552216, -0.03215400129556656, 0.12967556715011597, -0.02802351675927639, 0.039735667407512665, -0.15339413285255432, 0.07398176193237305, -0.05289473384618759, -0.07143604755401611, 0.04755658656358719, -0.250599205493927, -0.03645843639969826, -0.026667369529604912, 0.017528586089611053, -0.16302156448364258, -0.05298813432455063, -0.10443155467510223, 0.011704713106155396, -0.01971064880490303, 0.033243756741285324, 0.0517294779419899, -0.03412733972072601, 0.02664773538708687, -0.02614298276603222, 0.03676170855760574, -0.09355548769235611, 0.02014053612947464, 0.029888492077589035, 0.16527564823627472, -0.10528059303760529, -0.016391264274716377, -0.04806319624185562, 0.044083915650844574, 0.12132295966148376, 0.006344381719827652, 0.05157659947872162, -0.04485423490405083, -0.04569794982671738, -0.0033583412878215313, 0.08842523396015167, 0.10166391730308533, -0.1030135378241539, -0.04138212651014328, -0.017648646607995033, -0.09982583671808243, 0.08722609281539917, -0.10132567584514618], [-0.05867776274681091, -0.04124988615512848, 0.09600649774074554, 0.07638475298881531, -0.1339266002178192, 0.09429778158664703, -0.017043201252818108, -0.01290283165872097, 0.1350066363811493, 0.05221109837293625, -0.08304804563522339, -0.022175319492816925, 0.0951356589794159, -0.13484209775924683, 0.07755081355571747, 0.018576832488179207, -0.14568579196929932, 0.006731189787387848, -0.11336690187454224, 0.10435009002685547, -0.04089611768722534, 0.014787162654101849, 0.05625440180301666, 0.0364883616566658, -0.004587757401168346, -0.1408805102109909, -0.03458432853221893, -0.04661466181278229, -0.011266945861279964, 0.08572137355804443, 0.20425966382026672, -0.13742506504058838, -0.1466999351978302, 0.012468853034079075, 0.11676666140556335, -0.1638202965259552, -0.029725030064582825, -0.05652111768722534, 0.1220647543668747, -0.020138047635555267, -0.08390197157859802, 0.03432580828666687, 0.08386743068695068, -0.03720822185277939, -0.0184519924223423, 0.04642834886908531, -0.044707514345645905, 0.05027013644576073, 0.018634621053934097, 0.06446133553981781, 0.003843689104542136, -0.06440047174692154, -0.17264841496944427, 0.031462162733078, -0.06548964977264404, 0.03878254443407059, 0.0002776759793050587, -0.006120016798377037, -0.07720543444156647, -0.06442533433437347, 0.11637280881404877, 0.0649755522608757, 0.07867349684238434, -0.03792726993560791], [0.04009091854095459, 0.012150765396654606, 0.0850190818309784, 0.002600420732051134, 0.07740015536546707, -0.1295141875743866, -0.01885349676012993, -0.03531049191951752, -0.19110563397407532, -0.02671537920832634, -0.0327145978808403, -0.017159823328256607, -0.03876005858182907, -0.0030427079182118177, -0.022679641842842102, 0.03430723398923874, 0.12043677270412445, -0.05532509833574295, -0.050466664135456085, 0.1056307703256607, -0.017139505594968796, 0.008060568943619728, 0.159422367811203, 0.08085142076015472, 0.12078690528869629, -0.20680081844329834, 0.19950884580612183, 0.08132591843605042, 0.06080316752195358, -0.0056825606152415276, 0.026827340945601463, -0.1079411432147026, 0.08989004790782928, 0.0392952561378479, -0.011428069323301315, 0.02551497332751751, 0.013038157485425472, -0.03368149697780609, 0.0486830472946167, -0.06165003776550293, -0.020825220271945, -0.13093817234039307, 0.04151901602745056, 0.14366644620895386, 0.0887054055929184, -0.035453297197818756, 0.09229518473148346, 0.003608718514442444, 0.07797044515609741, -0.1544460654258728, -0.0497773215174675, 0.06902455538511276, -0.0695970356464386, -0.051334232091903687, 0.07357309758663177, -0.005542311817407608, 0.028774140402674675, 0.14402282238006592, -0.054602306336164474, 0.06817889213562012, 0.10239232331514359, -0.016596104949712753, -0.029265593737363815, -0.033596109598875046], [0.033695340156555176, 0.06599542498588562, -0.04937392845749855, -0.07107239961624146, -0.09468656778335571, -0.041300252079963684, 0.12385246157646179, -0.03869321942329407, -0.21849799156188965, -0.14266595244407654, 0.007664307951927185, -0.06860342621803284, -0.1309570074081421, -0.03881397098302841, -0.16843488812446594, -0.03352141007781029, 0.13307243585586548, -0.04108123481273651, 0.018555061891674995, 0.05496086925268173, -0.05076153576374054, 0.20216190814971924, 0.026872064918279648, 0.012178122997283936, 0.017741406336426735, 0.15087848901748657, 0.0595974326133728, 0.013969115912914276, -0.09875671565532684, -0.06469611078500748, 0.05168602615594864, -0.015270550735294819, -0.11424559354782104, -0.04454038664698601, 0.09275411069393158, 0.01309365127235651, 0.07678592205047607, 0.005341546609997749, -0.03237215429544449, 0.0036779390648007393, 0.015725843608379364, -0.03924360126256943, 0.04430115222930908, 0.06775480508804321, -0.01958584040403366, -0.1276889145374298, 0.1376597285270691, -0.0847729742527008, 0.08163046836853027, 0.008360719308257103, -0.09054092317819595, -0.08401518315076828, 0.001200611935928464, 0.05257965624332428, -0.0463593453168869, 0.17374983429908752, 0.1159510612487793, 0.028893623501062393, -0.12616854906082153, 0.014471059665083885, 0.05196135863661766, -0.015501024201512337, 0.06429553031921387, 0.15275222063064575], [0.05714094638824463, -0.0922456830739975, 0.06387311220169067, 0.09524279832839966, -0.07434509694576263, 0.08893779665231705, -0.03436503931879997, 0.06785087287425995, 0.2251240462064743, -0.051893457770347595, 0.038952820003032684, 0.1720936894416809, -0.025866545736789703, 0.15371569991111755, 0.11256483197212219, 0.015942353755235672, 0.028384719043970108, -0.12179124355316162, -0.022959236055612564, 0.009359261952340603, -0.005801623221486807, 0.08975908160209656, -0.012820661999285221, 0.09020145237445831, -0.036655232310295105, 0.09114804863929749, -0.022362157702445984, 0.06449280679225922, -0.02247869223356247, -0.04687413573265076, 0.009750548750162125, -0.02078613080084324, -0.017975404858589172, -0.05545565485954285, 0.041398197412490845, 0.03267510235309601, 0.03849513828754425, 0.03679169714450836, -0.011628024280071259, 0.003674608189612627, 0.0706767737865448, -0.005215720739215612, -0.00942439679056406, -0.13158684968948364, -0.09571763128042221, 0.0014708408853039145, 0.07543087005615234, -0.037490665912628174, -0.02221563830971718, 0.0973571389913559, -0.07320418953895569, -0.051255710422992706, -0.10602368414402008, 0.07287462055683136, 0.004328266251832247, -0.07571548223495483, 0.14179307222366333, -0.11777542531490326, 0.03568495810031891, -0.07484051585197449, 0.03076666221022606, -0.04369620233774185, 0.02322782576084137, -0.016807299107313156], [0.02079462632536888, -0.08350728452205658, 0.07091915607452393, 0.10585614293813705, -0.014413413591682911, 0.0368640273809433, -0.028407022356987, 0.0029641427099704742, 0.14465880393981934, 0.016353357583284378, 0.08332253992557526, 0.07710668444633484, -0.13504533469676971, -0.039782922714948654, 0.015660399571061134, -0.03442646935582161, -0.05336473137140274, -0.020571177825331688, 0.0016163465334102511, -0.08042047917842865, 0.009548995643854141, -0.006839370355010033, 0.051151446998119354, -0.009389481507241726, 0.1650468409061432, 0.011303798295557499, 0.01441623643040657, -0.029220174998044968, -0.03817588835954666, 0.0027947044000029564, 0.06249811500310898, 0.10292935371398926, -0.09203752875328064, -0.08861500024795532, 0.16230344772338867, -0.045392271131277084, 0.04319819062948227, 0.0458039827644825, -0.01804804429411888, -0.03192812576889992, -0.051999349147081375, -0.07328587770462036, -0.016076533123850822, 0.039461709558963776, 0.14534008502960205, -0.05696139484643936, 0.003999620210379362, 0.052903912961483, 0.022901002317667007, -0.04673139005899429, 0.014507767744362354, -0.028964020311832428, -0.08258992433547974, -0.03456471487879753, 0.008224211633205414, -0.20171593129634857, -0.0673392117023468, 0.06883519887924194, 0.12595993280410767, -0.0034792430233210325, 0.056076712906360626, -0.2387392818927765, -0.00224612420424819, -0.13418683409690857], [-0.07893815636634827, -0.1988152116537094, 0.02181391604244709, 0.06792812049388885, 0.020310882478952408, 0.024681955575942993, -0.01191929541528225, -0.1361846774816513, -0.08958838135004044, -0.04646027088165283, -0.09573633968830109, 0.11735020577907562, -0.015370801091194153, 0.02622339129447937, 0.006387932226061821, 0.06472174823284149, 0.03354135900735855, -0.04629002511501312, 0.036093100905418396, 0.13361422717571259, -0.08986690640449524, 0.024598637595772743, 0.05251243710517883, -0.09744888544082642, 0.03508088365197182, -0.11207738518714905, -0.054131776094436646, -0.041548699140548706, -0.06412270665168762, 0.10989780724048615, 0.08574908971786499, -0.019586026668548584, 0.045171208679676056, 0.010680320672690868, 0.09582239389419556, -0.001139701111242175, -0.010015925392508507, -0.005842884536832571, 0.05162544548511505, -0.10044026374816895, -0.0533236488699913, 0.131389319896698, -0.009319277480244637, 0.037047795951366425, -0.06736528873443604, -0.08120034635066986, 0.04879729449748993, -0.022430170327425003, 0.014692924916744232, -0.01453344989567995, 0.12799322605133057, -0.03239145874977112, 0.10510033369064331, 0.0508795790374279, -0.06022511050105095, -0.1546155959367752, 0.09353956580162048, -0.09226499497890472, 0.09338261187076569, 0.030682828277349472, 0.08384537696838379, -0.08151938021183014, 0.08152097463607788, 0.04466881603002548], [0.1424793154001236, -0.09883317351341248, -0.030420608818531036, -0.009095314890146255, -0.11065417528152466, 0.07295443117618561, 0.017471684142947197, -0.14675265550613403, 0.04966562241315842, 0.020127616822719574, 0.06710952520370483, 0.048500433564186096, -0.03117762878537178, -0.03462982177734375, -0.0738031193614006, -0.06108235940337181, -0.02652176469564438, -0.009512505494058132, -0.044221460819244385, 0.048184365034103394, -0.007595879957079887, 0.09840365499258041, -0.13523608446121216, 0.08769199252128601, 0.15314145386219025, 0.034126535058021545, 0.1329893171787262, -0.06368564069271088, 0.20307844877243042, 0.026634246110916138, -0.002079601399600506, -0.1116616278886795, -0.06363481283187866, -0.04981145262718201, 0.11330052465200424, -0.08791474252939224, -0.05580945312976837, -0.013314640149474144, -0.04946761578321457, 0.03329940885305405, 0.17239955067634583, 0.12365394830703735, -0.15477228164672852, 0.039367686957120895, 0.08199238777160645, -0.039023540914058685, 0.03066004253923893, 0.11126351356506348, 0.03377112001180649, -0.0542229562997818, -0.013619807548820972, -0.05509202927350998, 0.01904420182108879, 0.06060053035616875, -0.004853108897805214, -0.050042763352394104, 0.027715779840946198, -0.06811581552028656, -0.007082965690642595, 0.10395936667919159, 0.02863282710313797, 0.036186277866363525, -0.0750550627708435, 0.12899617850780487], [0.14960286021232605, -0.018870575353503227, 0.033693499863147736, 0.08834727853536606, 0.05309347063302994, 0.10679249465465546, -0.03321588411927223, 0.00037387909833341837, -0.015852369368076324, 0.04584190994501114, -0.04863709956407547, 0.11349759250879288, -0.0019557885825634003, 0.17285799980163574, 0.08594249933958054, -0.18455979228019714, 0.06382321566343307, -0.024971308186650276, 0.021380428224802017, 0.04408368468284607, 0.01104728877544403, 0.028037793934345245, 0.09957575798034668, -0.032906822860240936, 0.06500664353370667, 0.09397141635417938, -0.05070360004901886, 0.04577016830444336, -0.05437605828046799, -0.009953795932233334, -0.1112382784485817, 0.0524284765124321, -0.021186821162700653, 0.0049443840980529785, 0.0815599262714386, -0.10151305049657822, 0.10808725655078888, -0.17804312705993652, -0.049197662621736526, 0.1235913634300232, -0.04985940456390381, -0.04136785492300987, 0.20859244465827942, -0.005084976553916931, -0.0644121766090393, -0.15377908945083618, -0.12638670206069946, -0.012836468406021595, 0.0032167546451091766, -0.14591765403747559, 0.06418590992689133, -0.08889299631118774, 0.01216805912554264, 0.08270140737295151, -0.1295272409915924, -0.08455640077590942, -0.09778419882059097, 0.081379733979702, 0.13779273629188538, 0.14062222838401794, -0.03461875021457672, 0.11428409814834595, -0.04249833524227142, -0.09089373052120209], [-0.0692688599228859, -0.037999629974365234, 0.04113557189702988, 0.05664672702550888, 0.009111900813877583, -0.018901266157627106, -0.030394870787858963, 0.029286639764904976, -0.04168834537267685, 0.08927974104881287, -0.06860784441232681, 0.11356402933597565, -0.17156392335891724, -0.022003527730703354, -0.0020274375565350056, 0.0437040776014328, 0.01595686748623848, -0.056873880326747894, 0.0965939611196518, -0.061528369784355164, 0.09759639203548431, 0.1994754672050476, 0.10478945076465607, 0.05070720985531807, -0.01154804602265358, 0.0253523550927639, -0.1868198662996292, -0.04034264385700226, 0.13706573843955994, -0.12106123566627502, -0.22142834961414337, 0.03125011920928955, 0.03766772896051407, -0.031173421069979668, -0.10002601146697998, 0.026915110647678375, -0.0012373420177027583, -0.02591095119714737, -0.09303274750709534, -0.021943349391222, 0.15925288200378418, 0.024894732981920242, 0.038861118257045746, -0.07505175471305847, -0.11801011115312576, 0.2221788913011551, 0.001153856748715043, 0.05727699026465416, -0.0804896429181099, -0.01441001333296299, -0.04846374690532684, -0.009503539651632309, -0.05806715041399002, 0.02392640709877014, -0.10381194949150085, 0.008670076727867126, 0.02501709945499897, -0.04173862189054489, -0.03670347481966019, -0.010558120906352997, 0.051476575434207916, -0.04082494229078293, 0.08860917389392853, 0.009022925049066544], [-0.08740076422691345, 0.052832260727882385, 0.11065260320901871, 0.16882899403572083, -0.024611476808786392, -0.06239135563373566, 0.11731041967868805, -0.11378815025091171, 0.017996633425354958, 0.08303996920585632, -0.006761012598872185, -0.07444226741790771, 0.05778893828392029, 0.014815165661275387, 0.015499701723456383, 0.14651277661323547, 0.051696471869945526, -0.021395530551671982, -0.01929607428610325, 0.07284604012966156, 0.002143933903425932, -0.17563778162002563, 0.15718680620193481, 0.13120818138122559, -0.06372900307178497, -0.043656542897224426, 0.007834309712052345, 0.21944919228553772, -0.015329699963331223, 0.13127201795578003, 0.11023420095443726, -0.14912064373493195, 0.12665364146232605, 0.0062375254929065704, -0.11432462930679321, -0.11989985406398773, 0.14681074023246765, -0.008186763152480125, -0.018070736899971962, -0.01277182623744011, 0.020870450884103775, -0.16809803247451782, -0.014280748553574085, -0.10513591766357422, 0.03585757687687874, -0.03968043625354767, -0.04320486634969711, -0.0822584331035614, -0.0005801497027277946, 0.08351533859968185, -0.1004583090543747, 0.10664090514183044, -0.014401433989405632, -0.018136601895093918, 0.038307949900627136, 0.09261567890644073, -0.11202840507030487, -0.04505299776792526, 0.09515532851219177, -0.04201975464820862, -0.07096143066883087, 0.15168297290802002, 0.11187171936035156, 0.0344616174697876], [0.047655895352363586, 0.030805088579654694, 0.0662023052573204, -0.01841643452644348, 0.08700531721115112, 0.05469682812690735, 0.08951593935489655, -0.0288885198533535, 0.025177424773573875, -0.012793351896107197, 0.042867451906204224, -0.042832933366298676, -0.16478991508483887, 0.1783415675163269, 0.042710743844509125, -0.06744720041751862, -0.031570665538311005, -0.15277448296546936, 0.11238346993923187, -0.0843183696269989, -0.03044128604233265, -0.008970491588115692, 0.04787720739841461, 0.1728878617286682, 0.03555120900273323, -0.062346965074539185, -0.02021367847919464, -0.151002436876297, 0.027887430042028427, 0.03321068733930588, 0.035024553537368774, -0.02813185378909111, 0.06463856995105743, -0.004435497336089611, -0.033787816762924194, 0.11957874894142151, -0.02281428873538971, -0.07667607814073563, 0.02262461557984352, 0.03595070168375969, -0.057994015514850616, 0.1221223920583725, 0.03267575800418854, 0.02089369297027588, 0.11090973019599915, 0.11752425879240036, -0.11708923429250717, -0.08510822057723999, -0.10634216666221619, -0.18878129124641418, -0.13641536235809326, -0.013993392698466778, -0.11596377193927765, 0.02136140689253807, -0.1664990782737732, 0.06243274733424187, -0.02069047838449478, -0.08595867455005646, 0.014632686972618103, -0.10109265148639679, 0.2074693739414215, 0.022034406661987305, -0.1415630280971527, 0.07907533645629883], [0.13229230046272278, 0.0797746479511261, -0.126124769449234, 0.11773061752319336, 0.012250666506588459, -0.09589624404907227, 0.053123556077480316, -0.07425335049629211, 0.13005000352859497, -0.03076023980975151, 0.19230236113071442, 0.13033106923103333, 0.0866086333990097, -0.02431027963757515, -0.06038804352283478, 0.10168348252773285, 0.0518079549074173, 0.0294818002730608, -0.09578552842140198, -0.07676146924495697, 0.017489776015281677, -0.01872090809047222, -0.05969458073377609, -0.010873142629861832, -0.10296890139579773, 0.08163526654243469, -0.07254654169082642, 0.02264663204550743, -0.012432602234184742, -0.05392981320619583, -0.04154355078935623, -0.06300070881843567, 0.20557674765586853, 0.042231276631355286, 0.12225288152694702, -0.07332959771156311, 0.04258158802986145, -0.061882734298706055, 0.0030487377662211657, 0.017000768333673477, 0.20200124382972717, 0.07692843675613403, 0.1016351580619812, 0.002034774050116539, 0.07131415605545044, 0.130888432264328, 0.08273017406463623, -0.021061033010482788, -0.028274012729525566, 0.0021608115639537573, 0.13030093908309937, 0.1114659309387207, -0.020788710564374924, -0.01026020385324955, -0.06324927508831024, 0.14729025959968567, 0.06741870939731598, 0.12411603331565857, 0.04047977179288864, -0.04390229284763336, 0.06075714901089668, -0.07445959001779556, -0.006140484940260649, 0.0013119025388732553], [-0.108210489153862, -0.1675010621547699, -0.22184985876083374, 0.13531729578971863, -0.08129279315471649, 0.07160365581512451, -0.05193401873111725, -0.0281271580606699, 0.1262390911579132, 0.010300594381988049, -0.04271186143159866, 0.15625682473182678, 0.10614123940467834, -0.11207376420497894, 0.13386015594005585, -0.09853823482990265, 0.011115877889096737, 0.08956925570964813, 0.02028743177652359, -0.1974336802959442, 0.011739756911993027, 0.046647436916828156, -0.14034628868103027, 0.02286597341299057, -0.06834223866462708, -0.11636360734701157, -0.011828575283288956, -0.10469411313533783, 0.05175277590751648, 0.05968219041824341, 0.05868786573410034, -0.07827538251876831, -0.015085323713719845, -0.09040631353855133, 0.08263492584228516, -0.02625117637217045, -0.04097489267587662, 0.04686722904443741, 0.07299287617206573, 0.05285467952489853, -0.1392439752817154, 0.012416493147611618, -0.11624959111213684, 0.04173853248357773, -0.12893477082252502, -0.10130345821380615, -0.0670824944972992, -0.026237864047288895, -0.06508780270814896, 0.10818515717983246, 0.0721394419670105, -0.17611581087112427, -0.016432994976639748, 0.14421197772026062, -0.015911439433693886, 0.032911308109760284, -0.07401110231876373, 0.21525782346725464, 0.07132643461227417, 0.017944473773241043, -0.006819861941039562, -0.16832225024700165, -0.11208918690681458, -0.034101005643606186], [0.08064700663089752, -0.09201954305171967, -0.14843955636024475, 0.0709441602230072, 0.04402974992990494, 0.12336049973964691, -0.20030975341796875, 0.11180602014064789, 0.012880301102995872, -0.011043651029467583, 0.05960048735141754, 0.11628429591655731, -0.0003118049935437739, 0.08416640758514404, -0.029742300510406494, 0.009708785451948643, -0.17870716750621796, -0.07635180652141571, -0.059324175119400024, 0.0039960406720638275, 0.04350903630256653, -0.0060189394280314445, 0.021140050143003464, 0.10443636775016785, -0.051785312592983246, 0.07332812249660492, -0.025942321866750717, 0.16763988137245178, -0.015865709632635117, -0.07404516637325287, 0.07440769672393799, 0.03478416055440903, -0.11847758293151855, 0.06730930507183075, -0.07015255093574524, -0.02769577130675316, 0.015595597214996815, -0.05747248977422714, -0.015707772225141525, 0.07949021458625793, 0.04297584295272827, 0.0456666424870491, 0.09971393644809723, -0.122850701212883, 0.023276153951883316, 0.032015204429626465, 0.17445680499076843, 0.004985875450074673, -0.019738953560590744, -0.12876585125923157, -0.05181695520877838, -0.029889965429902077, 0.13639283180236816, 0.10358908772468567, -0.021259084343910217, 0.08258305490016937, 0.013720663264393806, -0.04376007616519928, 0.03296040743589401, -0.007194210309535265, 0.036860741674900055, 0.1459256410598755, 0.015839166939258575, 0.10792170464992523], [0.03273914009332657, 0.05254354700446129, -0.08926825225353241, -0.0039038322865962982, -0.04819640517234802, 0.11023126542568207, -0.023731015622615814, -0.06241635978221893, 0.11078053712844849, 0.073575958609581, -0.0047339037992060184, 0.04651390761137009, 0.17488977313041687, 0.19031493365764618, -0.17673137784004211, 0.03405046463012695, -0.09991367161273956, -0.08232355117797852, -0.027107641100883484, -0.01237642951309681, 0.042688943445682526, -0.08644130825996399, -0.0005244550993666053, 0.08361442387104034, 0.07672838866710663, -0.11715862154960632, -0.06848393380641937, 0.1463230550289154, 0.013189859688282013, -0.02658306062221527, 0.012932607904076576, -0.0011397399939596653, 0.017028940841555595, -0.06480902433395386, 0.22280952334403992, 0.05270659551024437, 0.11921285837888718, -0.09185507148504257, 0.008703039027750492, 0.04350976645946503, 0.04952472448348999, 0.11813220381736755, -0.001927420380525291, -0.0678069144487381, 0.15822038054466248, -0.06571583449840546, -0.005657018627971411, 0.021368522197008133, 0.08502557873725891, -0.00900869071483612, -0.1851886510848999, 0.1040392741560936, -0.040902115404605865, -0.030167242512106895, 0.01307271420955658, -0.04447086155414581, 0.044781170785427094, -0.03571941703557968, 0.07276207208633423, 0.12121054530143738, -0.053510263562202454, 0.05498504638671875, 0.08269865810871124, 0.07581840455532074], [-0.023972779512405396, 0.03345085680484772, -0.061193861067295074, -0.14464712142944336, 0.1088792160153389, 0.07828368246555328, -0.002488707657903433, -0.04467880725860596, 0.11325320601463318, -0.09493100643157959, -0.021689340472221375, 0.0759226530790329, 0.06177889555692673, 0.006070340983569622, 0.03894449770450592, 0.04297377169132233, 0.01279885321855545, -0.01946127600967884, -0.013324428349733353, 0.05488641932606697, 0.09743329882621765, 0.020391792058944702, 0.02634068764746189, -0.05917717516422272, 0.09980757534503937, -0.03943602368235588, 0.04769635945558548, 0.10676686465740204, -0.12363341450691223, -0.23225001990795135, 0.026665059849619865, 0.12154677510261536, -0.1268048882484436, 0.12199349701404572, 0.1094866394996643, 0.06188160181045532, 0.13542300462722778, -0.00727552454918623, -0.0002945010201074183, -0.011979322880506516, -0.023896994069218636, -0.10076010227203369, 0.025094658136367798, -0.058800213038921356, -0.06611241400241852, 0.03930845856666565, -0.02950858697295189, -0.024551235139369965, 0.005104219075292349, 0.1950608789920807, -0.05201254412531853, 0.22187423706054688, -0.11288715898990631, -0.18475797772407532, -0.06592674553394318, 0.07538945972919464, 0.1298702359199524, -0.010678611695766449, -0.03624292090535164, -0.0010230452753603458, 0.05679699778556824, 0.11651451140642166, 0.023642627522349358, -0.10133910179138184], [0.044370584189891815, 0.08149384707212448, 0.07370047271251678, -0.015749245882034302, -0.16309939324855804, 0.03529380261898041, 0.010188967920839787, -0.12676602602005005, 0.04439229518175125, -0.02175229787826538, 0.0037538313772529364, 0.024342048913240433, -0.1094140112400055, 0.07255207002162933, 0.049294888973236084, 0.028002141043543816, 0.06011752784252167, -0.05603695660829544, -0.12336674332618713, 0.05173536390066147, -0.021468935534358025, 0.02500322461128235, -0.10985732078552246, -0.167729914188385, 0.058465100824832916, 0.11387909948825836, -0.028333785012364388, 0.03779284656047821, 0.09799141436815262, -0.023929735645651817, -0.01825336366891861, -0.06981837749481201, 0.04828496277332306, -0.15449640154838562, -0.048165567219257355, 0.019642386585474014, 0.08226093649864197, -0.07419149577617645, -0.1369112730026245, -0.0677371695637703, -0.026083212345838547, -0.0413290411233902, 0.06190761178731918, 0.020333297550678253, -0.07114101946353912, 0.1535855531692505, -0.11132806539535522, 0.02630830556154251, -0.034235790371894836, 0.0530444011092186, -0.03280685096979141, -0.04508664458990097, 0.06567397713661194, 0.08445083349943161, -0.02054247260093689, -0.025658652186393738, -0.1320987045764923, 0.28763771057128906, 0.09399072825908661, 0.1104898452758789, 0.01586250215768814, 0.12421542406082153, -0.13630548119544983, 0.050412170588970184], [-0.11411142349243164, -0.023777514696121216, -0.09198072552680969, -0.010605811141431332, -0.0165381021797657, 0.02720315009355545, -0.11735357344150543, -0.030712714418768883, -0.10034679621458054, -0.017566345632076263, -0.010552870109677315, -0.0709361582994461, 0.025468889623880386, 0.05897195637226105, 0.157306969165802, 0.045561134815216064, 0.10335755348205566, -0.0817040503025055, 0.0732405036687851, 0.05513125658035278, -0.0763859748840332, 0.01882684975862503, -0.10284332931041718, -0.03714418038725853, 0.07803946733474731, 0.05554240942001343, -0.00970732793211937, -0.021621881052851677, 0.10368482768535614, 0.10455098748207092, 0.061919547617435455, -0.09251601994037628, -0.1648196280002594, 0.16293491423130035, -0.08272435516119003, -0.016481757164001465, 0.04001105576753616, -0.00042355444747954607, -0.11985056102275848, -0.0848163366317749, 0.09746497869491577, 0.06398886442184448, 0.057365402579307556, -0.052585847675800323, -0.11149311065673828, -0.006698355078697205, 0.05615207180380821, 0.015965726226568222, -0.07331591844558716, -0.2326284945011139, -0.04744848608970642, -0.0306769460439682, -0.10093406587839127, -0.13698387145996094, -0.11461761593818665, -0.08327876031398773, -0.061783917248249054, -0.1378229558467865, -0.08269547671079636, 0.0603078156709671, -0.04059913009405136, 0.06374704837799072, 0.046262599527835846, -0.01914364844560623], [-0.1308962106704712, -0.050339266657829285, 0.06563875079154968, 0.10856610536575317, 0.03470992296934128, 0.06499606370925903, 0.11243531107902527, 0.06953161954879761, -0.13700541853904724, 0.1105622798204422, -0.02326984517276287, -0.07532177865505219, -0.0009719472145661712, 0.19312146306037903, 0.01709095761179924, 0.025667693465948105, -0.022439688444137573, 0.04457564651966095, 0.10502214729785919, 0.06711411476135254, 0.17058002948760986, -0.04504241794347763, 0.1356586217880249, 0.03754407912492752, -0.18462923169136047, 0.08007988333702087, 0.06787639856338501, 0.08056074380874634, 0.1415398269891739, -0.03154740482568741, -0.05798369273543358, -0.08282718062400818, 0.06598988175392151, -0.04400826245546341, -0.09916236996650696, -0.15773048996925354, -0.13404116034507751, -0.12932151556015015, -0.07794623076915741, 0.027814645320177078, 0.05243554711341858, -0.10712817311286926, 0.06261865794658661, -0.07197323441505432, -0.028620880097150803, -0.06732530891895294, 0.06410914659500122, -0.0299004465341568, 0.0684996098279953, 0.012786729261279106, -0.13751760125160217, -0.022572733461856842, -0.15372946858406067, 0.05063534528017044, -0.05614146590232849, 0.08269263803958893, 0.17850176990032196, 0.04332438483834267, 0.10009433329105377, 0.11509348452091217, -0.01757485792040825, -0.1674584150314331, -0.06529973447322845, -0.0017945065628737211], [0.09966713190078735, -0.12240231782197952, 0.05129401385784149, -0.26783883571624756, 0.06815962493419647, 0.004938304424285889, -0.05872463062405586, 0.10678467154502869, -0.03266098350286484, 0.028322694823145866, -0.06272082030773163, -0.20048655569553375, -0.007379335351288319, -0.11867405474185944, 0.0902770385146141, 0.18065239489078522, -0.06860575079917908, 0.012603307142853737, 0.0999588817358017, 0.09990724921226501, -0.06678186357021332, -0.11628256738185883, 0.06104305386543274, -0.04271084815263748, -0.02280644327402115, -0.09321120381355286, -0.08155733346939087, -0.08112320303916931, 0.022189393639564514, 0.11251531541347504, -0.04986853897571564, -0.04800725728273392, -0.06625634431838989, -0.020964214578270912, -0.024896251037716866, -0.04743415117263794, 0.06553146243095398, 0.25562018156051636, 0.004045403562486172, -0.08406144380569458, 0.15990334749221802, -0.02407849207520485, 0.010104388929903507, 0.06327416002750397, -0.026135221123695374, 0.09641481935977936, 0.020280301570892334, -0.1926039159297943, -0.07045447826385498, -0.031062521040439606, -0.019431157037615776, -0.04287932068109512, 0.061484724283218384, 0.013270584866404533, -0.06253788620233536, -0.07702100276947021, 0.03890851140022278, -0.02671561762690544, 0.0028706607408821583, -0.07033061981201172, -0.03180817514657974, 0.02843775413930416, 0.032965824007987976, -0.004003525245934725], [-0.05810966342687607, 0.009459838271141052, -0.10897070169448853, -0.1537797451019287, -0.09257209300994873, -0.10679459571838379, 0.12204138934612274, -0.11160191893577576, 0.06882897019386292, 0.03857608139514923, -0.029633287340402603, 0.0765753984451294, 0.052327290177345276, 0.014697092585265636, 0.16127166152000427, -0.07826012372970581, -0.1496167927980423, 0.054946042597293854, -0.06440979242324829, -0.19629493355751038, -0.04133264720439911, -0.10868661105632782, -0.005487140268087387, -0.17243269085884094, 0.050695836544036865, -0.0659545436501503, -0.10938392579555511, 0.07055341452360153, 0.08158888667821884, -0.07224538922309875, -0.04380404204130173, -0.012553583830595016, -0.032462455332279205, -0.01794007048010826, -0.009166193194687366, 0.012204021215438843, -0.09197211265563965, 0.14924852550029755, -0.1358441710472107, 0.03874329477548599, 0.10483089089393616, -0.07872180640697479, -0.10519890487194061, -0.06034915894269943, 0.10903874784708023, -0.08956976234912872, 0.06297746300697327, -0.010843656957149506, 0.03322354704141617, 0.11491303145885468, 0.01357729360461235, 0.09599930047988892, -0.08500978350639343, -0.04777950420975685, 0.05141912400722504, -0.11957761645317078, -0.03944370150566101, 0.027122650295495987, -0.03894612193107605, -0.08237381279468536, -0.12954121828079224, 0.03460413217544556, 0.20061105489730835, -0.09148713946342468], [-0.05409121513366699, -0.07300401479005814, 0.15353235602378845, -0.03632587939500809, 0.019407372921705246, -0.0939769446849823, -0.039044976234436035, 0.10663680732250214, -0.014034419320523739, -0.07169206440448761, 0.01197911985218525, 0.16109389066696167, -0.05778218060731888, 0.16898290812969208, -0.1587328165769577, 0.06635819375514984, 0.00014177674893289804, -0.09436915814876556, -0.25400322675704956, 0.08266128599643707, -0.05037285387516022, -0.02265717089176178, -0.029475074261426926, 0.02577093616127968, 0.09273146092891693, -0.155533105134964, 0.024703558534383774, -0.035139959305524826, 0.05700026452541351, 0.06117521971464157, -0.03226548433303833, 0.035574786365032196, -0.09518423676490784, 0.0945035070180893, -0.10516823828220367, -0.042667508125305176, 0.11479580402374268, -0.08685170114040375, -0.054066792130470276, -0.00937327928841114, 0.07386155426502228, 0.0009475676342844963, -0.08233711868524551, -0.07043905556201935, -0.08804252743721008, 0.11401039361953735, 0.07962709665298462, 0.14252623915672302, 0.04299171268939972, -0.11388257145881653, -0.07642540335655212, -0.025713514536619186, -0.08773559331893921, 0.027814403176307678, 0.15553772449493408, 0.026245057582855225, -0.05047066509723663, 0.08913953602313995, -0.12145404517650604, 0.032030168920755386, -0.012143613770604134, 0.01062699779868126, -0.056195758283138275, 0.013875025324523449], [0.04853854328393936, -0.01412375271320343, 0.14210617542266846, -0.04279559105634689, 0.0464349165558815, -0.015427356585860252, -0.024748925119638443, -0.07403700053691864, -0.07574573159217834, 0.04704325646162033, 0.026641346514225006, -0.0033220474142581224, 0.06727772951126099, 0.00379301724024117, 0.0631229355931282, 0.08939202129840851, -0.19865798950195312, -0.027227677404880524, -0.0254142414778471, -0.1912025511264801, 0.22853395342826843, 0.06416605412960052, 0.05404964089393616, -0.055770620703697205, -0.03157416731119156, -0.008483825251460075, 0.029703175649046898, -0.04404284060001373, 0.001940462039783597, -0.06615601480007172, 0.052336469292640686, 0.008051925338804722, -0.05347795784473419, 0.1371898353099823, 0.0687781423330307, -0.04268483817577362, 0.01580272801220417, -0.007855348289012909, 0.10372497141361237, -0.1532638669013977, -0.1273670196533203, 0.001385955954901874, 0.0861545279622078, -0.03483659774065018, -0.023053515702486038, 0.029434241354465485, 0.006729805842041969, -0.004377730190753937, 0.006088301073759794, -0.007071932777762413, 0.03021080419421196, -0.08441750705242157, -0.03566867113113403, 0.023377064615488052, 0.12762850522994995, -0.11558519303798676, 0.06130186840891838, 